svm_type c_svc
kernel_type polynomial
degree 5
gamma 3
coef0 1
nr_class 2
total_sv 1840
rho 12.444
label 1 -1
nr_sv 881 959
SV
0.2723239603409919 1:0.441794 2:0.430047 3:0.410942 4:0.396078 5:0.0705882 6:0.439216 7:0.0884479 8:0.0615477 9:0.589037 10:0.195518 11:0.0654493 12:0.94676 13:0.0524712 14:0.000701984 15:0.499997 16:0.00342859 17:0.259734 18:0.0106796 19:0.000498666 20:0.00599683 21:0.00214876 22:0.00161585 23:0.000691283 24:0.00796153 25:0.00215946 26:0.00227289 27:0.00509367 28:0.00423117 29:0.000721246 30:0.00332372 31:0.0242634 32:0.00122633 33:0.0142815 34:0.0028058 35:0.000410918 36:0.00161157 37:0.00145961 38:0.0085244 39:0.000622797 40:0.0109471 41:0.000261104 42:0.0139519 43:0.00493529 44:0.00460142 45:0.00113858 46:0.000749068 47:0.00123489 48:0.00131194 49:0.00173998 50:0.0037432 51:0.00467419 52:0.000911723 53:0.00379671 54:0.00151954 55:0.00539757 56:0.000813274 57:0.000639918 58:0.00065918 59:0.000475123 60:0.00147245 61:0.00116855 62:0.056544 63:0.00620229 64:0.00418622 
0.07515441197828815 1:0.364692 2:0.366961 3:0.350756 4:0.32549 5:0.0431373 6:0.364706 7:0 8:0.0892857 9:0.910714 10:0 11:0 12:1 13:0 14:0 15:0.521429 16:0.0321429 17:0.107143 18:0 19:0 20:0 21:0 22:0 23:0 24:0.0107143 25:0.00357143 26:0 27:0.0107143 28:0.0285714 29:0 30:0.0642857 31:0.0214286 32:0.025 33:0.00357143 34:0 35:0 36:0.0107143 37:0 38:0 39:0 40:0 41:0 42:0 43:0.0357143 44:0 45:0 46:0 47:0 48:0 49:0.00714286 50:0.00357143 51:0 52:0.00357143 53:0 54:0 55:0.0357143 56:0.0107143 57:0 58:0 59:0 60:0.0142857 61:0 62:0.00714286 63:0 64:0.0428571 
0.08624837356368487 1:0.372756 2:0.374446 3:0.358584 4:0.352941 5:0.0431373 6:0.372549 7:0 8:0.0325203 9:0.96748 10:0 11:0 12:1 13:0 14:0 15:0.47561 16:0.0243902 17:0.0406504 18:0 19:0 20:0 21:0 22:0 23:0 24:0.00406504 25:0 26:0 27:0.0121951 28:0.0243902 29:0 30:0.0853659 31:0.0162602 32:0.0162602 33:0.0243902 34:0 35:0 36:0.0162602 37:0 38:0.0243902 39:0 40:0.00813008 41:0 42:0 43:0.0487805 44:0.00406504 45:0 46:0 47:0 48:0 49:0.00813008 50:0.0121951 51:0 52:0 53:0 54:0 55:0.0487805 56:0.00813008 57:0 58:0 59:0 60:0 61:0 62:0.0121951 63:0.0203252 64:0.0650406 
0.04000945357242549 1:0.355215 2:0.353765 3:0.338125 4:0.352941 5:0.0431373 6:0.352941 7:0 8:0.0389105 9:0.941634 10:0.0194553 11:0 12:1 13:0 14:0 15:0.501945 16:0.00389105 17:0.120623 18:0 19:0 20:0 21:0 22:0 23:0 24:0.00389105 25:0 26:0 27:0 28:0.0116732 29:0 30:0.0428016 31:0.0272374 32:0.0233463 33:0.0077821 34:0 35:0 36:0.0272374 37:0 38:0 39:0 40:0.0077821 41:0 42:0 43:0.0311284 44:0 45:0.00389105 46:0 47:0 48:0 49:0 50:0 51:0 52:0 53:0 54:0 55:0.0389105 56:0 57:0 58:0 59:0.00389105 60:0.0194553 61:0 62:0.0544747 63:0.0233463 64:0.0389105 
0.1277774075054528 1:0.370887 2:0.370516 3:0.354716 4:0.352941 5:0.0431373 6:0.368627 7:0 8:0.0288066 9:0.971193 10:0 11:0 12:1 13:0 14:0 15:0.518519 16:0.0288066 17:0.0658436 18:0 19:0 20:0 21:0 22:0 23:0 24:0 25:0 26:0 27:0.0205761 28:0.0493827 29:0 30:0.00411523 31:0 32:0.00411523 33:0.0164609 34:0 35:0 36:0 37:0 38:0.0411523 39:0 40:0.037037 41:0.00823045 42:0 43:0.0493827 44:0.00823045 45:0.00411523 46:0 47:0 48:0 49:0.00411523 50:0 51:0 52:0 53:0.00411523 54:0 55:0.0493827 56:0.00823045 57:0 58:0 59:0.00411523 60:0.0164609 61:0 62:0.0246914 63:0.00411523 64:0.0246914 
0.5287010929536168 1:0.357427 2:0.372767 3:0.34998 4:0.27451 5:0.0627451 6:0.372549 7:0 8:0.825758 9:0.174242 10:0 11:0 12:1 13:0 14:0 15:0.482323 16:0 17:0.401515 18:0 19:0 20:0 21:0 22:0 23:0 24:0 25:0 26:0 27:0 28:0 29:0 30:0 31:0 32:0 33:0.00505051 34:0 35:0 36:0 37:0 38:0 39:0 40:0 41:0 42:0 43:0 44:0 45:0 46:0 47:0 48:0 49:0 50:0 51:0 52:0 53:0 54:0 55:0 56:0 57:0 58:0 59:0 60:0 61:0 62:0.111111 63:0 64:0 
0.05362669411148321 1:0.345637 2:0.353623 3:0.337179 4:0.305882 5:0.054902 6:0.352941 7:0 8:0.351931 9:0.648069 10:0 11:0 12:1 13:0 14:0 15:0.508584 16:0.0515021 17:0.0729614 18:0.00429185 19:0 20:0 21:0 22:0 23:0.00429185 24:0.00214592 25:0.00858369 26:0.0128755 27:0 28:0.0214592 29:0 30:0.027897 31:0.0171674 32:0.0107296 33:0.0150215 34:0 35:0 36:0.0364807 37:0 38:0 39:0.00643777 40:0.0171674 41:0 42:0.00429185 43:0 44:0 45:0 46:0 47:0 48:0 49:0 50:0 51:0 52:0 53:0.0429185 54:0 55:0.0236052 56:0 57:0 58:0 59:0.00214592 60:0 61:0.00643777 62:0.0922747 63:0.0107296 64:0 
0.2726358550521197 1:0.34902 2:0.353435 3:0.337224 4:0.329412 5:0.054902 6:0.352941 7:0 8:0.133858 9:0.866142 10:0 11:0 12:1 13:0 14:0 15:0.484252 16:0 17:0.0551181 18:0.0472441 19:0 20:0 21:0 22:0 23:0 24:0.0472441 25:0.00393701 26:0 27:0 28:0 29:0 30:0.011811 31:0.015748 32:0 33:0.00787402 34:0 35:0 36:0 37:0 38:0 39:0 40:0.0787402 41:0 42:0.0748032 43:0.011811 44:0 45:0 46:0 47:0 48:0 49:0 50:0 51:0.0275591 52:0 53:0 54:0 55:0.011811 56:0 57:0 58:0 59:0 60:0 61:0 62:0.0748032 63:0.0472441 64:0 
0.25712423126814 1:0.352479 2:0.359346 3:0.343112 4:0.294118 5:0.0431373 6:0.356863 7:0 8:0.275109 9:0.720524 10:0.00436681 11:0 12:1 13:0 14:0 15:0.502183 16:0 17:0.104803 18:0 19:0 20:0 21:0 22:0 23:0 24:0.00436681 25:0 26:0 27:0.0174672 28:0 29:0 30:0 31:0.0480349 32:0 33:0.0655022 34:0 35:0 36:0 37:0 38:0.0349345 39:0 40:0 41:0 42:0 43:0.0262009 44:0.0393013 45:0 46:0 47:0 48:0 49:0 50:0 51:0 52:0 53:0 54:0 55:0.00873362 56:0 57:0 58:0 59:0 60:0 61:0 62:0.100437 63:0 64:0.0480349 
0.2539751027244426 1:0.343265 2:0.346644 3:0.332425 4:0.32549 5:0.0470588 6:0.345098 7:0 8:0.00406504 9:0.963415 10:0.0325203 11:0 12:1 13:0 14:0 15:0.49187 16:0.0121951 17:0.113821 18:0.00813008 19:0 20:0 21:0 22:0 23:0 24:0 25:0 26:0.00406504 27:0.0243902 28:0.0121951 29:0 30:0.0203252 31:0.0447154 32:0.0365854 33:0.0447154 34:0 35:0 36:0 37:0 38:0.0284553 39:0 40:0.00406504 41:0 42:0.0121951 43:0 44:0.0121951 45:0 46:0 47:0 48:0 49:0 50:0.00406504 51:0 52:0 53:0 54:0 55:0 56:0 57:0 58:0 59:0 60:0 61:0 62:0.117886 63:0.00813008 64:0 
0.6353099295126773 1:0.32601 2:0.341086 3:0.319364 4:0.282353 5:0.0588235 6:0.337255 7:0 8:0.825263 9:0.172632 10:0.00210526 11:0 12:1 13:0 14:0 15:0.501053 16:0 17:0.477895 18:0 19:0 20:0 21:0 22:0 23:0 24:0 25:0 26:0 27:0 28:0 29:0 30:0 31:0 32:0 33:0 34:0 35:0 36:0 37:0 38:0 39:0 40:0 41:0 42:0 43:0 44:0 45:0 46:0 47:0 48:0 49:0 50:0 51:0 52:0 53:0 54:0 55:0 56:0 57:0 58:0 59:0 60:0 61:0 62:0.0210526 63:0 64:0 
1 1:0.322043 2:0.336383 3:0.311637 4:0.294118 5:0.0705882 6:0.333333 7:0 8:0.552288 9:0.447712 10:0 11:0 12:1 13:0 14:0 15:0.496732 16:0 17:0.503268 18:0 19:0 20:0 21:0 22:0 23:0 24:0 25:0 26:0 27:0 28:0 29:0 30:0 31:0 32:0 33:0 34:0 35:0 36:0 37:0 38:0 39:0 40:0 41:0 42:0 43:0 44:0 45:0 46:0 47:0 48:0 49:0 50:0 51:0 52:0 53:0 54:0 55:0 56:0 57:0 58:0 59:0 60:0 61:0 62:0 63:0 64:0 
0.04154457375788261 1:0.333825 2:0.341695 3:0.324998 4:0.305882 5:0.0588235 6:0.341176 7:0 8:0.342373 9:0.657627 10:0 11:0 12:1 13:0 14:0 15:0.494915 16:0 17:0.0983051 18:0.0576271 19:0 20:0 21:0 22:0 23:0 24:0.0338983 25:0.0101695 26:0 27:0 28:0 29:0 30:0 31:0.142373 32:0 33:0.00677966 34:0 35:0 36:0 37:0 38:0.0101695 39:0 40:0.061017 41:0 42:0 43:0 44:0 45:0 46:0 47:0 48:0 49:0 50:0 51:0 52:0 53:0 54:0 55:0 56:0 57:0 58:0 59:0 60:0 61:0 62:0.0542373 63:0.0271186 64:0 
0.03767064435153851 1:0.33393 2:0.345033 3:0.328395 4:0.294118 5:0.0470588 6:0.341176 7:0 8:0.609053 9:0.390947 10:0 11:0 12:1 13:0 14:0 15:0.506173 16:0 17:0 18:0.0658436 19:0 20:0.0123457 21:0 22:0 23:0 24:0.0534979 25:0.0164609 26:0 27:0 28:0 29:0 30:0.0288066 31:0.0246914 32:0 33:0 34:0 35:0 36:0 37:0.0123457 38:0 39:0 40:0.0699589 41:0 42:0.0246914 43:0.0123457 44:0 45:0.0164609 46:0 47:0 48:0 49:0.00823045 50:0 51:0.0329218 52:0 53:0.0246914 54:0 55:0.0411523 56:0.00411523 57:0 58:0 59:0.00411523 60:0 61:0 62:0.00411523 63:0.037037 64:0 
0.03445876932062084 1:0.332317 2:0.344018 3:0.323013 4:0.282353 5:0.0588235 6:0.341176 7:0 8:0.587045 9:0.412955 10:0 11:0 12:1 13:0 14:0 15:0.481781 16:0 17:0.00404858 18:0.105263 19:0 20:0.00404858 21:0 22:0 23:0 24:0.0526316 25:0.0242915 26:0 27:0 28:0 29:0 30:0.0323887 31:0.133603 32:0 33:0 34:0 35:0 36:0 37:0 38:0.00809717 39:0 40:0.0688259 41:0 42:0 43:0.00404858 44:0.0161943 45:0 46:0 47:0 48:0 49:0 50:0 51:0 52:0.00404858 53:0 54:0 55:0.0202429 56:0 57:0 58:0 59:0 60:0 61:0 62:0.0161943 63:0.0121457 64:0 
1 1:0.323552 2:0.333105 3:0.310659 4:0.305882 5:0.0588235 6:0.329412 7:0 8:0.401163 9:0.598837 10:0 11:0 12:1 13:0 14:0 15:0.502907 16:0 17:0.497093 18:0 19:0 20:0 21:0 22:0 23:0 24:0 25:0 26:0 27:0 28:0 29:0 30:0 31:0 32:0 33:0 34:0 35:0 36:0 37:0 38:0 39:0 40:0 41:0 42:0 43:0 44:0 45:0 46:0 47:0 48:0 49:0 50:0 51:0 52:0 53:0 54:0 55:0 56:0 57:0 58:0 59:0 60:0 61:0 62:0 63:0 64:0 
0.1750889205077732 1:0.320036 2:0.323035 3:0.308403 4:0.32549 5:0.0470588 6:0.321569 7:0 8:0.197479 9:0.718487 10:0.0840336 11:0 12:1 13:0 14:0 15:0.483193 16:0 17:0.0252101 18:0.0168067 19:0 20:0 21:0 22:0 23:0 24:0 25:0 26:0 27:0 28:0 29:0 30:0 31:0.113445 32:0 33:0.0420168 34:0 35:0 36:0 37:0 38:0.0630252 39:0 40:0 41:0 42:0.0168067 43:0 44:0.00840336 45:0 46:0 47:0 48:0 49:0 50:0.00840336 51:0 52:0 53:0 54:0 55:0 56:0 57:0 58:0 59:0 60:0 61:0 62:0.222689 63:0 64:0 
1 1:0.316787 2:0.328435 3:0.305999 4:0.282353 5:0.0588235 6:0.32549 7:0 8:0.483271 9:0.516729 10:0 11:0 12:1 13:0 14:0 15:0.520446 16:0 17:0.479554 18:0 19:0 20:0 21:0 22:0 23:0 24:0 25:0 26:0 27:0 28:0 29:0 30:0 31:0 32:0 33:0 34:0 35:0 36:0 37:0 38:0 39:0 40:0 41:0 42:0 43:0 44:0 45:0 46:0 47:0 48:0 49:0 50:0 51:0 52:0 53:0 54:0 55:0 56:0 57:0 58:0 59:0 60:0 61:0 62:0 63:0 64:0 
0.1015460634927808 1:0.31361 2:0.322189 3:0.303057 4:0.282353 5:0.0627451 6:0.321569 7:0 8:0.301471 9:0.698529 10:0 11:0 12:1 13:0 14:0 15:0.514706 16:0 17:0.279412 18:0 19:0 20:0 21:0 22:0 23:0 24:0 25:0 26:0 27:0 28:0 29:0 30:0 31:0 32:0 33:0 34:0 35:0 36:0 37:0 38:0 39:0 40:0 41:0 42:0 43:0 44:0 45:0 46:0 47:0 48:0 49:0 50:0 51:0 52:0 53:0 54:0 55:0 56:0 57:0 58:0 59:0 60:0 61:0 62:0.205882 63:0 64:0 
1 1:0.319789 2:0.326109 3:0.306818 4:0.305882 5:0.0588235 6:0.32549 7:0 8:0.230769 9:0.765385 10:0.00384615 11:0 12:1 13:0 14:0 15:0.496154 16:0 17:0.503846 18:0 19:0 20:0 21:0 22:0 23:0 24:0 25:0 26:0 27:0 28:0 29:0 30:0 31:0 32:0 33:0 34:0 35:0 36:0 37:0 38:0 39:0 40:0 41:0 42:0 43:0 44:0 45:0 46:0 47:0 48:0 49:0 50:0 51:0 52:0 53:0 54:0 55:0 56:0 57:0 58:0 59:0 60:0 61:0 62:0 63:0 64:0 
0.240980477525265 1:0.327162 2:0.334552 3:0.317491 4:0.305882 5:0.0588235 6:0.333333 7:0 8:0.338645 9:0.645418 10:0.0159363 11:0 12:1 13:0 14:0 15:0.505976 16:0 17:0.191235 18:0 19:0 20:0 21:0 22:0 23:0 24:0 25:0 26:0 27:0 28:0 29:0 30:0 31:0.12749 32:0 33:0 34:0 35:0 36:0 37:0 38:0 39:0 40:0.00796813 41:0 42:0.00796813 43:0 44:0 45:0 46:0 47:0 48:0 49:0 50:0.0159363 51:0 52:0 53:0 54:0 55:0 56:0 57:0 58:0 59:0 60:0 61:0 62:0.143426 63:0 64:0 
1 1:0.312049 2:0.316202 3:0.300544 4:0.32549 5:0.0509804 6:0.313726 7:0.002457 8:0.004914 9:0.992629 10:0 11:0 12:1 13:0 14:0 15:0.493858 16:0 17:0.506142 18:0 19:0 20:0 21:0 22:0 23:0 24:0 25:0 26:0 27:0 28:0 29:0 30:0 31:0 32:0 33:0 34:0 35:0 36:0 37:0 38:0 39:0 40:0 41:0 42:0 43:0 44:0 45:0 46:0 47:0 48:0 49:0 50:0 51:0 52:0 53:0 54:0 55:0 56:0 57:0 58:0 59:0 60:0 61:0 62:0 63:0 64:0 
0.2894068891921885 1:0.328515 2:0.342897 3:0.320584 4:0.27451 5:0.0705882 6:0.341176 7:0 8:0.716327 9:0.265306 10:0.0183673 11:0 12:1 13:0 14:0 15:0.512245 16:0 17:0.412245 18:0 19:0 20:0 21:0 22:0 23:0 24:0 25:0 26:0 27:0 28:0 29:0 30:0 31:0.0163265 32:0 33:0 34:0 35:0 36:0 37:0 38:0 39:0 40:0 41:0 42:0 43:0 44:0 45:0 46:0 47:0 48:0 49:0 50:0 51:0 52:0 53:0 54:0 55:0 56:0 57:0 58:0 59:0 60:0 61:0 62:0.0591837 63:0 64:0 
0.1775301137014743 1:0.307074 2:0.310094 3:0.295622 4:0.32549 5:0.0509804 6:0.309804 7:0 8:0.03125 9:0.880682 10:0.0880682 11:0 12:1 13:0 14:0 15:0.502841 16:0 17:0.497159 18:0 19:0 20:0 21:0 22:0 23:0 24:0 25:0 26:0 27:0 28:0 29:0 30:0 31:0 32:0 33:0 34:0 35:0 36:0 37:0 38:0 39:0 40:0 41:0 42:0 43:0 44:0 45:0 46:0 47:0 48:0 49:0 50:0 51:0 52:0 53:0 54:0 55:0 56:0 57:0 58:0 59:0 60:0 61:0 62:0 63:0 64:0 
1 1:0.310797 2:0.316009 3:0.298065 4:0.32549 5:0.0509804 6:0.313726 7:0 8:0.148026 9:0.851974 10:0 11:0 12:1 13:0 14:0 15:0.480263 16:0 17:0.519737 18:0 19:0 20:0 21:0 22:0 23:0 24:0 25:0 26:0 27:0 28:0 29:0 30:0 31:0 32:0 33:0 34:0 35:0 36:0 37:0 38:0 39:0 40:0 41:0 42:0 43:0 44:0 45:0 46:0 47:0 48:0 49:0 50:0 51:0 52:0 53:0 54:0 55:0 56:0 57:0 58:0 59:0 60:0 61:0 62:0 63:0 64:0 
0.3119169359783012 1:0.325938 2:0.329963 3:0.314844 4:0.32549 5:0.0470588 6:0.329412 7:0.00380228 8:0 9:0.996198 10:0 11:0 12:1 13:0 14:0 15:0.501901 16:0 17:0 18:0.0342205 19:0 20:0.0190114 21:0 22:0 23:0 24:0.0874525 25:0 26:0 27:0 28:0 29:0 30:0.0114068 31:0.110266 32:0 33:0.0114068 34:0 35:0 36:0 37:0 38:0.0190114 39:0 40:0.0570342 41:0 42:0.0532319 43:0 44:0.0190114 45:0 46:0 47:0 48:0 49:0 50:0.00380228 51:0 52:0 53:0 54:0 55:0.00380228 56:0 57:0 58:0 59:0 60:0 61:0 62:0.0494297 63:0.0190114 64:0 
0.2175940456828928 1:0.320215 2:0.32507 3:0.309462 4:0.32549 5:0.0470588 6:0.321569 7:0 8:0.0595238 9:0.940476 10:0 11:0 12:1 13:0 14:0 15:0.515873 16:0 17:0 18:0.0912698 19:0 20:0 21:0 22:0 23:0 24:0.0119048 25:0 26:0 27:0 28:0 29:0 30:0 31:0.103175 32:0 33:0.0198413 34:0 35:0 36:0 37:0 38:0 39:0 40:0.00793651 41:0 42:0.0833333 43:0 44:0 45:0 46:0 47:0 48:0 49:0 50:0 51:0.0357143 52:0 53:0 54:0 55:0 56:0 57:0 58:0 59:0 60:0 61:0 62:0.115079 63:0.015873 64:0 
1 1:0.317892 2:0.326038 3:0.304066 4:0.313726 5:0.0705882 6:0.32549 7:0 8:0.125 9:0.875 10:0 11:0 12:1 13:0 14:0 15:0.522059 16:0 17:0.477941 18:0 19:0 20:0 21:0 22:0 23:0 24:0 25:0 26:0 27:0 28:0 29:0 30:0 31:0 32:0 33:0 34:0 35:0 36:0 37:0 38:0 39:0 40:0 41:0 42:0 43:0 44:0 45:0 46:0 47:0 48:0 49:0 50:0 51:0 52:0 53:0 54:0 55:0 56:0 57:0 58:0 59:0 60:0 61:0 62:0 63:0 64:0 
1 1:0.305776 2:0.312474 3:0.290852 4:0.305882 5:0.0627451 6:0.309804 7:0 8:0.0389105 9:0.961089 10:0 11:0 12:1 13:0 14:0 15:0.48249 16:0 17:0.51751 18:0 19:0 20:0 21:0 22:0 23:0 24:0 25:0 26:0 27:0 28:0 29:0 30:0 31:0 32:0 33:0 34:0 35:0 36:0 37:0 38:0 39:0 40:0 41:0 42:0 43:0 44:0 45:0 46:0 47:0 48:0 49:0 50:0 51:0 52:0 53:0 54:0 55:0 56:0 57:0 58:0 59:0 60:0 61:0 62:0 63:0 64:0 
0.09204988423723805 1:0.330283 2:0.339385 3:0.323715 4:0.294118 5:0.0470588 6:0.337255 7:0.00411523 8:0.460905 9:0.534979 10:0 11:0 12:1 13:0 14:0 15:0.510288 16:0 17:0.152263 18:0 19:0 20:0 21:0 22:0 23:0 24:0 25:0 26:0 27:0 28:0 29:0 30:0 31:0 32:0 33:0 34:0 35:0 36:0 37:0 38:0 39:0 40:0 41:0 42:0 43:0 44:0 45:0 46:0 47:0 48:0 49:0 50:0 51:0 52:0 53:0 54:0 55:0 56:0 57:0 58:0 59:0 60:0 61:0 62:0.337449 63:0 64:0 
1 1:0.305482 2:0.310412 3:0.29471 4:0.294118 5:0.0509804 6:0.309804 7:0 8:0.0571429 9:0.942857 10:0 11:0 12:1 13:0 14:0 15:0.506122 16:0 17:0.489796 18:0 19:0 20:0 21:0 22:0 23:0 24:0 25:0 26:0 27:0 28:0 29:0 30:0 31:0 32:0 33:0 34:0 35:0 36:0 37:0 38:0 39:0 40:0 41:0 42:0 43:0 44:0 45:0 46:0 47:0 48:0 49:0 50:0 51:0 52:0 53:0 54:0 55:0 56:0 57:0 58:0 59:0 60:0 61:0 62:0.00408163 63:0 64:0 
1 1:0.310625 2:0.309406 3:0.296235 4:0.384314 5:0.0509804 6:0.309804 7:0 8:0.075594 9:0.710583 10:0.213823 11:0 12:1 13:0 14:0 15:0.50324 16:0 17:0.49676 18:0 19:0 20:0 21:0 22:0 23:0 24:0 25:0 26:0 27:0 28:0 29:0 30:0 31:0 32:0 33:0 34:0 35:0 36:0 37:0 38:0 39:0 40:0 41:0 42:0 43:0 44:0 45:0 46:0 47:0 48:0 49:0 50:0 51:0 52:0 53:0 54:0 55:0 56:0 57:0 58:0 59:0 60:0 61:0 62:0 63:0 64:0 
1 1:0.302323 2:0.306212 3:0.293376 4:0.32549 5:0.0509804 6:0.305882 7:0.00420168 8:0 9:0.995798 10:0 11:0 12:1 13:0 14:0 15:0.483193 16:0 17:0.466387 18:0 19:0 20:0 21:0 22:0 23:0 24:0 25:0 26:0 27:0 28:0 29:0 30:0 31:0 32:0 33:0 34:0 35:0 36:0 37:0 38:0 39:0 40:0 41:0 42:0 43:0 44:0 45:0 46:0 47:0 48:0 49:0 50:0 51:0 52:0 53:0 54:0 55:0 56:0 57:0 58:0 59:0 60:0 61:0 62:0.0504202 63:0 64:0 
1 1:0.311219 2:0.315248 3:0.300285 4:0.32549 5:0.0509804 6:0.313726 7:0 8:0 9:1 10:0 11:0 12:1 13:0 14:0 15:0.498039 16:0 17:0.501961 18:0 19:0 20:0 21:0 22:0 23:0 24:0 25:0 26:0 27:0 28:0 29:0 30:0 31:0 32:0 33:0 34:0 35:0 36:0 37:0 38:0 39:0 40:0 41:0 42:0 43:0 44:0 45:0 46:0 47:0 48:0 49:0 50:0 51:0 52:0 53:0 54:0 55:0 56:0 57:0 58:0 59:0 60:0 61:0 62:0 63:0 64:0 
1 1:0.326136 2:0.330206 3:0.317482 4:0.32549 5:0.0470588 6:0.329412 7:0 8:0.0126582 9:0.987342 10:0 11:0 12:1 13:0 14:0 15:0.523207 16:0 17:0.476793 18:0 19:0 20:0 21:0 22:0 23:0 24:0 25:0 26:0 27:0 28:0 29:0 30:0 31:0 32:0 33:0 34:0 35:0 36:0 37:0 38:0 39:0 40:0 41:0 42:0 43:0 44:0 45:0 46:0 47:0 48:0 49:0 50:0 51:0 52:0 53:0 54:0 55:0 56:0 57:0 58:0 59:0 60:0 61:0 62:0 63:0 64:0 
0.1564143696826129 1:0.305868 2:0.31025 3:0.295499 4:0.294118 5:0.0509804 6:0.309804 7:0.00378788 8:0 9:0.996212 10:0 11:0 12:1 13:0 14:0 15:0.496212 16:0 17:0.299242 18:0 19:0 20:0.0113636 21:0 22:0 23:0 24:0 25:0 26:0 27:0 28:0 29:0 30:0 31:0 32:0 33:0 34:0 35:0 36:0 37:0 38:0 39:0 40:0 41:0 42:0.0492424 43:0 44:0 45:0 46:0 47:0 48:0 49:0 50:0 51:0.00378788 52:0 53:0 54:0 55:0 56:0 57:0 58:0 59:0 60:0 61:0 62:0.140152 63:0 64:0 
1 1:0.309121 2:0.310443 3:0.296717 4:0.32549 5:0.0509804 6:0.309804 7:0 8:0 9:0.996212 10:0.00378788 11:0 12:1 13:0 14:0 15:0.473485 16:0 17:0.526515 18:0 19:0 20:0 21:0 22:0 23:0 24:0 25:0 26:0 27:0 28:0 29:0 30:0 31:0 32:0 33:0 34:0 35:0 36:0 37:0 38:0 39:0 40:0 41:0 42:0 43:0 44:0 45:0 46:0 47:0 48:0 49:0 50:0 51:0 52:0 53:0 54:0 55:0 56:0 57:0 58:0 59:0 60:0 61:0 62:0 63:0 64:0 
1 1:0.311698 2:0.316138 3:0.297092 4:0.329412 5:0.0627451 6:0.313726 7:0 8:0.00754717 9:0.962264 10:0.0301887 11:0 12:1 13:0 14:0 15:0.516981 16:0 17:0.483019 18:0 19:0 20:0 21:0 22:0 23:0 24:0 25:0 26:0 27:0 28:0 29:0 30:0 31:0 32:0 33:0 34:0 35:0 36:0 37:0 38:0 39:0 40:0 41:0 42:0 43:0 44:0 45:0 46:0 47:0 48:0 49:0 50:0 51:0 52:0 53:0 54:0 55:0 56:0 57:0 58:0 59:0 60:0 61:0 62:0 63:0 64:0 
1 1:0.293484 2:0.299012 3:0.280333 4:0.305882 5:0.0666667 6:0.298039 7:0 8:0 9:1 10:0 11:0 12:1 13:0 14:0 15:0.507519 16:0 17:0.443609 18:0 19:0 20:0 21:0 22:0 23:0 24:0 25:0 26:0 27:0 28:0 29:0 30:0 31:0 32:0 33:0 34:0 35:0 36:0 37:0 38:0 39:0 40:0 41:0 42:0 43:0 44:0 45:0 46:0 47:0 48:0 49:0 50:0 51:0 52:0 53:0 54:0 55:0 56:0 57:0 58:0 59:0 60:0 61:0 62:0.0488722 63:0 64:0 
0.2960650466529168 1:0.291958 2:0.295975 3:0.280368 4:0.32549 5:0.054902 6:0.294118 7:0 8:0 9:1 10:0 11:0 12:1 13:0 14:0 15:0.48583 16:0 17:0.506073 18:0 19:0 20:0 21:0 22:0 23:0 24:0 25:0 26:0 27:0 28:0 29:0 30:0 31:0 32:0 33:0 34:0 35:0 36:0 37:0 38:0 39:0 40:0 41:0 42:0 43:0 44:0 45:0 46:0 47:0 48:0 49:0 50:0 51:0 52:0 53:0 54:0 55:0 56:0 57:0 58:0 59:0 60:0 61:0 62:0.00809717 63:0 64:0 
1 1:0.304706 2:0.308627 3:0.294615 4:0.313726 5:0.0392157 6:0.305882 7:0.00384615 8:0 9:0.996154 10:0 11:0 12:1 13:0 14:0 15:0.503846 16:0 17:0.353846 18:0 19:0 20:0 21:0 22:0 23:0 24:0 25:0 26:0 27:0 28:0 29:0 30:0 31:0 32:0 33:0 34:0 35:0 36:0 37:0 38:0 39:0 40:0 41:0 42:0 43:0 44:0 45:0 46:0 47:0 48:0 49:0 50:0 51:0 52:0 53:0 54:0 55:0 56:0 57:0 58:0 59:0 60:0 61:0 62:0.142308 63:0 64:0 
0.0383489696513975 1:0.311099 2:0.318801 3:0.298328 4:0.305882 5:0.0627451 6:0.317647 7:0 8:0.201887 9:0.798113 10:0 11:0 12:1 13:0 14:0 15:0.498113 16:0 17:0.224528 18:0.0792453 19:0 20:0 21:0 22:0 23:0 24:0 25:0 26:0 27:0 28:0 29:0 30:0 31:0.0584906 32:0 33:0 34:0 35:0 36:0 37:0 38:0 39:0 40:0 41:0 42:0.045283 43:0 44:0 45:0 46:0 47:0 48:0 49:0 50:0 51:0 52:0 53:0 54:0 55:0 56:0 57:0 58:0 59:0 60:0 61:0 62:0.0943396 63:0 64:0 
1 1:0.294523 2:0.296539 3:0.282201 4:0.352941 5:0.054902 6:0.294118 7:0 8:0.0310078 9:0.922481 10:0.0465116 11:0 12:1 13:0 14:0 15:0.478036 16:0 17:0.521964 18:0 19:0 20:0 21:0 22:0 23:0 24:0 25:0 26:0 27:0 28:0 29:0 30:0 31:0 32:0 33:0 34:0 35:0 36:0 37:0 38:0 39:0 40:0 41:0 42:0 43:0 44:0 45:0 46:0 47:0 48:0 49:0 50:0 51:0 52:0 53:0 54:0 55:0 56:0 57:0 58:0 59:0 60:0 61:0 62:0 63:0 64:0 
1 1:0.294408 2:0.296085 3:0.28171 4:0.352941 5:0.054902 6:0.294118 7:0.0128617 8:0.0771704 9:0.858521 10:0.0514469 11:0 12:1 13:0 14:0 15:0.508039 16:0 17:0.491961 18:0 19:0 20:0 21:0 22:0 23:0 24:0 25:0 26:0 27:0 28:0 29:0 30:0 31:0 32:0 33:0 34:0 35:0 36:0 37:0 38:0 39:0 40:0 41:0 42:0 43:0 44:0 45:0 46:0 47:0 48:0 49:0 50:0 51:0 52:0 53:0 54:0 55:0 56:0 57:0 58:0 59:0 60:0 61:0 62:0 63:0 64:0 
1 1:0.298116 2:0.295034 3:0.279284 4:0.376471 5:0.0666667 6:0.298039 7:0 8:0.00324675 9:0.954545 10:0.0422078 11:0 12:1 13:0 14:0 15:0.516234 16:0 17:0.480519 18:0 19:0 20:0 21:0 22:0 23:0 24:0 25:0 26:0 27:0 28:0 29:0 30:0 31:0 32:0 33:0.00324675 34:0 35:0 36:0 37:0 38:0 39:0 40:0 41:0 42:0 43:0 44:0 45:0 46:0 47:0 48:0 49:0 50:0 51:0 52:0 53:0 54:0 55:0 56:0 57:0 58:0 59:0 60:0 61:0 62:0 63:0 64:0 
1 1:0.29118 2:0.287969 3:0.274168 4:0.376471 5:0.0666667 6:0.290196 7:0 8:0 9:0.944251 10:0.0557491 11:0 12:1 13:0 14:0 15:0.498258 16:0 17:0.501742 18:0 19:0 20:0 21:0 22:0 23:0 24:0 25:0 26:0 27:0 28:0 29:0 30:0 31:0 32:0 33:0 34:0 35:0 36:0 37:0 38:0 39:0 40:0 41:0 42:0 43:0 44:0 45:0 46:0 47:0 48:0 49:0 50:0 51:0 52:0 53:0 54:0 55:0 56:0 57:0 58:0 59:0 60:0 61:0 62:0 63:0 64:0 
1 1:0.290339 2:0.295764 3:0.279576 4:0.32549 5:0.054902 6:0.294118 7:0 8:0.127737 9:0.872263 10:0 11:0 12:1 13:0 14:0 15:0.489051 16:0 17:0.467153 18:0 19:0 20:0 21:0 22:0 23:0 24:0 25:0 26:0 27:0 28:0 29:0 30:0 31:0 32:0 33:0 34:0 35:0 36:0 37:0 38:0 39:0 40:0 41:0 42:0 43:0 44:0 45:0 46:0 47:0 48:0 49:0 50:0 51:0 52:0 53:0 54:0 55:0 56:0 57:0 58:0 59:0 60:0 61:0 62:0.0437956 63:0 64:0 
1 1:0.296637 2:0.291456 3:0.277701 4:0.376471 5:0.0666667 6:0.294118 7:0 8:0 9:1 10:0 11:0 12:1 13:0 14:0 15:0.481752 16:0 17:0.518248 18:0 19:0 20:0 21:0 22:0 23:0 24:0 25:0 26:0 27:0 28:0 29:0 30:0 31:0 32:0 33:0 34:0 35:0 36:0 37:0 38:0 39:0 40:0 41:0 42:0 43:0 44:0 45:0 46:0 47:0 48:0 49:0 50:0 51:0 52:0 53:0 54:0 55:0 56:0 57:0 58:0 59:0 60:0 61:0 62:0 63:0 64:0 
1 1:0.302231 2:0.306153 3:0.292103 4:0.32549 5:0.0509804 6:0.305882 7:0 8:0 9:1 10:0 11:0 12:1 13:0 14:0 15:0.503448 16:0 17:0.493103 18:0 19:0 20:0 21:0 22:0 23:0 24:0 25:0 26:0 27:0 28:0 29:0 30:0 31:0 32:0 33:0 34:0 35:0 36:0 37:0 38:0 39:0 40:0 41:0 42:0 43:0 44:0 45:0 46:0 47:0 48:0 49:0 50:0 51:0 52:0 53:0 54:0 55:0 56:0 57:0 58:0 59:0 60:0 61:0 62:0.00344828 63:0 64:0 
1 1:0.29616 2:0.297329 3:0.281524 4:0.352941 5:0.054902 6:0.294118 7:0 8:0 9:1 10:0 11:0 12:1 13:0 14:0 15:0.49434 16:0 17:0.328302 18:0 19:0 20:0 21:0 22:0 23:0 24:0 25:0 26:0 27:0 28:0 29:0 30:0 31:0 32:0 33:0.0113208 34:0 35:0 36:0 37:0 38:0 39:0 40:0 41:0 42:0 43:0 44:0 45:0 46:0 47:0 48:0 49:0 50:0 51:0 52:0 53:0 54:0 55:0 56:0 57:0 58:0 59:0 60:0 61:0 62:0.166038 63:0 64:0 
1 1:0.289984 2:0.295959 3:0.274868 4:0.305882 5:0.0666667 6:0.294118 7:0 8:0 9:0.996622 10:0.00337838 11:0 12:1 13:0 14:0 15:0.506757 16:0 17:0.388514 18:0 19:0 20:0 21:0 22:0 23:0 24:0 25:0 26:0 27:0 28:0 29:0 30:0 31:0 32:0 33:0 34:0 35:0 36:0 37:0 38:0 39:0 40:0 41:0 42:0 43:0 44:0 45:0 46:0 47:0 48:0 49:0 50:0 51:0 52:0 53:0 54:0 55:0 56:0 57:0 58:0 59:0 60:0 61:0 62:0.10473 63:0 64:0 
1 1:0.29024 2:0.291484 3:0.277817 4:0.352941 5:0.054902 6:0.290196 7:0 8:0 9:0.966418 10:0.0335821 11:0 12:1 13:0 14:0 15:0.485075 16:0 17:0.514925 18:0 19:0 20:0 21:0 22:0 23:0 24:0 25:0 26:0 27:0 28:0 29:0 30:0 31:0 32:0 33:0 34:0 35:0 36:0 37:0 38:0 39:0 40:0 41:0 42:0 43:0 44:0 45:0 46:0 47:0 48:0 49:0 50:0 51:0 52:0 53:0 54:0 55:0 56:0 57:0 58:0 59:0 60:0 61:0 62:0 63:0 64:0 
1 1:0.291047 2:0.293646 3:0.279769 4:0.352941 5:0.0392157 6:0.290196 7:0 8:0 9:1 10:0 11:0 12:1 13:0 14:0 15:0.527132 16:0 17:0.472868 18:0 19:0 20:0 21:0 22:0 23:0 24:0 25:0 26:0 27:0 28:0 29:0 30:0 31:0 32:0 33:0 34:0 35:0 36:0 37:0 38:0 39:0 40:0 41:0 42:0 43:0 44:0 45:0 46:0 47:0 48:0 49:0 50:0 51:0 52:0 53:0 54:0 55:0 56:0 57:0 58:0 59:0 60:0 61:0 62:0 63:0 64:0 
1 1:0.290941 2:0.300523 3:0.277828 4:0.313726 5:0.0784314 6:0.298039 7:0 8:0.285068 9:0.714932 10:0 11:0 12:1 13:0 14:0 15:0.506787 16:0 17:0.488688 18:0 19:0 20:0 21:0 22:0 23:0 24:0 25:0 26:0 27:0 28:0 29:0 30:0 31:0 32:0 33:0 34:0 35:0 36:0 37:0 38:0 39:0 40:0 41:0 42:0 43:0 44:0 45:0 46:0 47:0 48:0 49:0 50:0 51:0 52:0 53:0 54:0 55:0 56:0 57:0 58:0 59:0 60:0 61:0 62:0.00452489 63:0 64:0 
1 1:0.271498 2:0.275503 3:0.260395 4:0.32549 5:0.0588235 6:0.27451 7:0 8:0 9:1 10:0 11:0 12:1 13:0 14:0 15:0.531646 16:0 17:0.468354 18:0 19:0 20:0 21:0 22:0 23:0 24:0 25:0 26:0 27:0 28:0 29:0 30:0 31:0 32:0 33:0 34:0 35:0 36:0 37:0 38:0 39:0 40:0 41:0 42:0 43:0 44:0 45:0 46:0 47:0 48:0 49:0 50:0 51:0 52:0 53:0 54:0 55:0 56:0 57:0 58:0 59:0 60:0 61:0 62:0 63:0 64:0 
1 1:0.293353 2:0.299604 3:0.279231 4:0.305882 5:0.0666667 6:0.298039 7:0 8:0 9:1 10:0 11:0 12:1 13:0 14:0 15:0.495606 16:0 17:0.500879 18:0 19:0 20:0 21:0 22:0 23:0 24:0 25:0 26:0 27:0 28:0 29:0 30:0 31:0 32:0 33:0 34:0 35:0 36:0 37:0 38:0 39:0 40:0 41:0 42:0 43:0 44:0 45:0 46:0 47:0 48:0 49:0 50:0 51:0 52:0 53:0 54:0 55:0 56:0 57:0 58:0 59:0 60:0 61:0 62:0.00351494 63:0 64:0 
1 1:0.279155 2:0.284625 3:0.265034 4:0.329412 5:0.0705882 6:0.282353 7:0.00858369 8:0.0300429 9:0.961373 10:0 11:0 12:1 13:0 14:0 15:0.493562 16:0 17:0.506438 18:0 19:0 20:0 21:0 22:0 23:0 24:0 25:0 26:0 27:0 28:0 29:0 30:0 31:0 32:0 33:0 34:0 35:0 36:0 37:0 38:0 39:0 40:0 41:0 42:0 43:0 44:0 45:0 46:0 47:0 48:0 49:0 50:0 51:0 52:0 53:0 54:0 55:0 56:0 57:0 58:0 59:0 60:0 61:0 62:0 63:0 64:0 
1 1:0.286093 2:0.290628 3:0.273703 4:0.305882 5:0.0666667 6:0.290196 7:0 8:0 9:1 10:0 11:0 12:1 13:0 14:0 15:0.501449 16:0 17:0.498551 18:0 19:0 20:0 21:0 22:0 23:0 24:0 25:0 26:0 27:0 28:0 29:0 30:0 31:0 32:0 33:0 34:0 35:0 36:0 37:0 38:0 39:0 40:0 41:0 42:0 43:0 44:0 45:0 46:0 47:0 48:0 49:0 50:0 51:0 52:0 53:0 54:0 55:0 56:0 57:0 58:0 59:0 60:0 61:0 62:0 63:0 64:0 
1 1:0.286719 2:0.290575 3:0.275149 4:0.32549 5:0.054902 6:0.290196 7:0 8:0 9:1 10:0 11:0 12:1 13:0 14:0 15:0.502762 16:0 17:0.466851 18:0 19:0 20:0 21:0 22:0 23:0 24:0 25:0 26:0 27:0 28:0 29:0 30:0 31:0 32:0 33:0 34:0 35:0 36:0 37:0 38:0 39:0 40:0 41:0 42:0 43:0 44:0 45:0 46:0 47:0 48:0 49:0 50:0 51:0 52:0 53:0 54:0 55:0 56:0 57:0 58:0 59:0 60:0 61:0 62:0.0303867 63:0 64:0 
1 1:0.270982 2:0.27584 3:0.261986 4:0.32549 5:0.0588235 6:0.27451 7:0 8:0.153266 9:0.819095 10:0.0276382 11:0 12:1 13:0 14:0 15:0.487437 16:0 17:0.512563 18:0 19:0 20:0 21:0 22:0 23:0 24:0 25:0 26:0 27:0 28:0 29:0 30:0 31:0 32:0 33:0 34:0 35:0 36:0 37:0 38:0 39:0 40:0 41:0 42:0 43:0 44:0 45:0 46:0 47:0 48:0 49:0 50:0 51:0 52:0 53:0 54:0 55:0 56:0 57:0 58:0 59:0 60:0 61:0 62:0 63:0 64:0 
1 1:0.273393 2:0.274137 3:0.258206 4:0.352941 5:0.0588235 6:0.270588 7:0 8:0.0767677 9:0.89899 10:0.0242424 11:0 12:1 13:0 14:0 15:0.49697 16:0 17:0.50303 18:0 19:0 20:0 21:0 22:0 23:0 24:0 25:0 26:0 27:0 28:0 29:0 30:0 31:0 32:0 33:0 34:0 35:0 36:0 37:0 38:0 39:0 40:0 41:0 42:0 43:0 44:0 45:0 46:0 47:0 48:0 49:0 50:0 51:0 52:0 53:0 54:0 55:0 56:0 57:0 58:0 59:0 60:0 61:0 62:0 63:0 64:0 
1 1:0.28263 2:0.287082 3:0.270487 4:0.329412 5:0.0666667 6:0.286275 7:0 8:0 9:1 10:0 11:0 12:1 13:0 14:0 15:0.504823 16:0 17:0.495177 18:0 19:0 20:0 21:0 22:0 23:0 24:0 25:0 26:0 27:0 28:0 29:0 30:0 31:0 32:0 33:0 34:0 35:0 36:0 37:0 38:0 39:0 40:0 41:0 42:0 43:0 44:0 45:0 46:0 47:0 48:0 49:0 50:0 51:0 52:0 53:0 54:0 55:0 56:0 57:0 58:0 59:0 60:0 61:0 62:0 63:0 64:0 
1 1:0.283266 2:0.281358 3:0.266678 4:0.384314 5:0.054902 6:0.282353 7:0 8:0.00895522 9:0.970149 10:0.0208955 11:0 12:1 13:0 14:0 15:0.498507 16:0 17:0.501493 18:0 19:0 20:0 21:0 22:0 23:0 24:0 25:0 26:0 27:0 28:0 29:0 30:0 31:0 32:0 33:0 34:0 35:0 36:0 37:0 38:0 39:0 40:0 41:0 42:0 43:0 44:0 45:0 46:0 47:0 48:0 49:0 50:0 51:0 52:0 53:0 54:0 55:0 56:0 57:0 58:0 59:0 60:0 61:0 62:0 63:0 64:0 
0.005321761415125691 1:0.392667 2:0.38634 3:0.342534 4:0.372549 5:0.129412 6:0.392157 7:0.128562 8:0.030301 9:0.697078 10:0.0520205 11:0.0920377 12:0.765861 13:0.228611 14:0.00545134 15:0.500004 16:0.00363208 17:0.255471 18:0.0127992 19:0.000570664 20:0.00734998 21:0.00212175 22:0.00143524 23:0.000675786 24:0.00881096 25:0.00207026 26:0.00238992 27:0.00594048 28:0.00403326 29:0.000922501 30:0.00335533 31:0.0212283 32:0.0014288 33:0.0147085 34:0.00327381 35:0.000362564 36:0.00177635 37:0.00150818 38:0.00796355 39:0.000686513 40:0.010568 41:0.000137303 42:0.016959 43:0.00404613 44:0.00281685 45:0.000924647 46:0.000628588 47:0.00117351 48:0.00127863 49:0.00165407 50:0.00298418 51:0.00621294 52:0.000602844 53:0.00498794 54:0.00229338 55:0.00441513 56:0.000705821 57:0.000748728 58:0.000523466 59:0.000532047 60:0.00117994 61:0.00118423 62:0.0599068 63:0.00544276 64:0.00250577 
0.06552597016722736 1:0.381769 2:0.405508 3:0.330579 4:0.317647 5:0.184314 6:0.403922 7:0 8:0 9:1 10:0 11:0 12:1 13:0 14:0 15:0.492366 16:0.0381679 17:0 18:0.0229008 19:0 20:0.0496183 21:0 22:0 23:0 24:0.0114504 25:0 26:0 27:0.00763359 28:0.0267176 29:0 30:0 31:0.00381679 32:0 33:0.00381679 34:0 35:0 36:0 37:0.00381679 38:0 39:0 40:0.00763359 41:0.00381679 42:0.0229008 43:0.0305344 44:0.0267176 45:0.00763359 46:0.00381679 47:0 48:0 49:0 50:0.00381679 51:0.0343511 52:0.00381679 53:0.0839695 54:0 55:0.0496183 56:0 57:0 58:0 59:0 60:0.0267176 61:0 62:0 63:0 64:0.0267176 
0.01939915945014358 1:0.384559 2:0.411494 3:0.338029 4:0.313726 5:0.172549 6:0.407843 7:0 8:0 9:1 10:0 11:0 12:1 13:0 14:0 15:0.483553 16:0 17:0 18:0.0493421 19:0 20:0 21:0 22:0 23:0 24:0.0361842 25:0.0197368 26:0 27:0.0986842 28:0 29:0 30:0.0328947 31:0 32:0.00328947 33:0.0131579 34:0 35:0.00328947 36:0 37:0.0230263 38:0.0131579 39:0 40:0.0230263 41:0 42:0.0263158 43:0.0263158 44:0 45:0.00328947 46:0.0230263 47:0 48:0 49:0.00986842 50:0 51:0.00986842 52:0.00657895 53:0 54:0 55:0.0263158 56:0.00657895 57:0 58:0 59:0 60:0 61:0 62:0 63:0.0230263 64:0 
0.1153974329029766 1:0.372027 2:0.389548 3:0.303139 4:0.32549 5:0.223529 6:0.388235 7:0 8:0 9:1 10:0 11:0 12:0.871245 13:0.128755 14:0 15:0.497854 16:0 17:0.502146 18:0 19:0 20:0 21:0 22:0 23:0 24:0 25:0 26:0 27:0 28:0 29:0 30:0 31:0 32:0 33:0 34:0 35:0 36:0 37:0 38:0 39:0 40:0 41:0 42:0 43:0 44:0 45:0 46:0 47:0 48:0 49:0 50:0 51:0 52:0 53:0 54:0 55:0 56:0 57:0 58:0 59:0 60:0 61:0 62:0 63:0 64:0 
0.02993389581948165 1:0.339216 2:0.346002 3:0.300529 4:0.333333 5:0.137255 6:0.345098 7:0 8:0 9:1 10:0 11:0 12:1 13:0 14:0 15:0.5 16:0 17:0.00434783 18:0.0130435 19:0 20:0 21:0 22:0.00869565 23:0 24:0 25:0 26:0.026087 27:0 28:0.00869565 29:0 30:0.0130435 31:0.113043 32:0.00434783 33:0.0391304 34:0 35:0 36:0 37:0 38:0 39:0.00434783 40:0.0652174 41:0 42:0.0173913 43:0 44:0 45:0 46:0 47:0.00434783 48:0.00869565 49:0.0521739 50:0 51:0 52:0 53:0 54:0 55:0 56:0 57:0.00869565 58:0 59:0.00869565 60:0 61:0.026087 62:0.0217391 63:0.0521739 64:0 
0.301998926524651 1:0.367013 2:0.379085 3:0.328535 4:0.32549 5:0.137255 6:0.376471 7:0 8:0 9:1 10:0 11:0 12:1 13:0 14:0 15:0.517647 16:0 17:0.298039 18:0 19:0 20:0 21:0 22:0 23:0 24:0 25:0 26:0 27:0 28:0 29:0 30:0.00784314 31:0.0431373 32:0 33:0.0156863 34:0 35:0 36:0 37:0 38:0 39:0 40:0.0117647 41:0 42:0 43:0 44:0.00392157 45:0 46:0 47:0 48:0 49:0 50:0.0235294 51:0.0196078 52:0.00392157 53:0 54:0 55:0 56:0 57:0 58:0 59:0 60:0 61:0 62:0.0117647 63:0.0196078 64:0.00392157 
0.1094505517612642 1:0.363001 2:0.380762 3:0.31992 4:0.317647 5:0.164706 6:0.380392 7:0 8:0 9:1 10:0 11:0 12:1 13:0 14:0 15:0.492754 16:0.0434783 17:0.112319 18:0 19:0 20:0.0144928 21:0 22:0 23:0 24:0 25:0.0108696 26:0 27:0 28:0.057971 29:0.0217391 30:0.0108696 31:0.0181159 32:0 33:0 34:0.0108696 35:0 36:0.00724638 37:0.00724638 38:0 39:0 40:0.0217391 41:0 42:0.00362319 43:0.0217391 44:0 45:0.00724638 46:0 47:0 48:0 49:0 50:0 51:0.0108696 52:0 53:0.0434783 54:0 55:0.0471014 56:0 57:0 58:0.00362319 59:0 60:0.00362319 61:0 62:0 63:0.0181159 64:0.0108696 
0.3312665751968296 1:0.340783 2:0.354871 3:0.303846 4:0.317647 5:0.145098 6:0.352941 7:0 8:0.0022779 9:0.997722 10:0 11:0 12:1 13:0 14:0 15:0.492027 16:0 17:0.23918 18:0.0660592 19:0 20:0 21:0 22:0 23:0 24:0 25:0 26:0 27:0 28:0 29:0 30:0 31:0.102506 32:0 33:0 34:0 35:0 36:0 37:0 38:0 39:0 40:0 41:0 42:0.0546697 43:0 44:0 45:0 46:0 47:0 48:0 49:0 50:0 51:0 52:0 53:0 54:0 55:0 56:0 57:0 58:0 59:0 60:0 61:0 62:0.0455581 63:0 64:0 
0.04012609524143131 1:0.317563 2:0.319364 3:0.279604 4:0.341176 5:0.121569 6:0.317647 7:0 8:0 9:1 10:0 11:0 12:1 13:0 14:0 15:0.491103 16:0 17:0.00711744 18:0.00355872 19:0 20:0.0498221 21:0 22:0 23:0 24:0.135231 25:0 26:0 27:0 28:0 29:0 30:0 31:0 32:0 33:0 34:0 35:0 36:0 37:0.0213523 38:0.0106762 39:0 40:0 41:0 42:0.0427046 43:0.0391459 44:0.0284698 45:0.0106762 46:0 47:0 48:0 49:0 50:0 51:0.0676157 52:0.0177936 53:0.0106762 54:0 55:0.0177936 56:0 57:0 58:0 59:0 60:0 61:0 62:0.0142349 63:0 64:0.0177936 
0.1900871659606698 1:0.323352 2:0.326552 3:0.284519 4:0.341176 5:0.133333 6:0.32549 7:0 8:0 9:1 10:0 11:0 12:1 13:0 14:0 15:0.505415 16:0 17:0.129964 18:0.0144404 19:0 20:0 21:0 22:0 23:0 24:0.0397112 25:0 26:0 27:0 28:0 29:0 30:0.0108303 31:0.0216607 32:0 33:0.0433213 34:0 35:0 36:0 37:0 38:0.0216607 39:0 40:0.0216607 41:0 42:0.0794224 43:0.0144404 44:0.00361011 45:0 46:0 47:0 48:0 49:0 50:0 51:0.0108303 52:0.00722022 53:0 54:0 55:0 56:0.00361011 57:0 58:0 59:0 60:0 61:0 62:0.0722022 63:0 64:0 
0.542340529556726 1:0.321509 2:0.329515 3:0.285387 4:0.32549 5:0.141176 6:0.329412 7:0 8:0 9:1 10:0 11:0 12:1 13:0 14:0 15:0.50566 16:0 17:0.14717 18:0 19:0 20:0 21:0 22:0 23:0 24:0.0264151 25:0.0188679 26:0 27:0 28:0 29:0 30:0.0415094 31:0.0792453 32:0.00377358 33:0.00754717 34:0 35:0 36:0 37:0 38:0.00377358 39:0 40:0.0679245 41:0 42:0 43:0 44:0.00377358 45:0 46:0 47:0 48:0 49:0 50:0 51:0 52:0 53:0 54:0 55:0.0150943 56:0 57:0 58:0 59:0 60:0 61:0 62:0.0490566 63:0.0301887 64:0 
0.1698562193830071 1:0.314682 2:0.316442 3:0.277129 4:0.352941 5:0.12549 6:0.313726 7:0 8:0 9:1 10:0 11:0 12:1 13:0 14:0 15:0.491166 16:0 17:0 18:0.0742049 19:0 20:0.0176678 21:0 22:0 23:0 24:0.0530035 25:0.0318021 26:0 27:0.0388693 28:0 29:0 30:0.0106007 31:0.0388693 32:0 33:0.00353357 34:0 35:0 36:0 37:0 38:0 39:0 40:0.0812721 41:0 42:0.0318021 43:0.0106007 44:0 45:0 46:0 47:0 48:0 49:0 50:0 51:0 52:0 53:0.024735 54:0 55:0.0565371 56:0 57:0 58:0 59:0 60:0 61:0 62:0 63:0.0318021 64:0 
0.2938830558009438 1:0.333563 2:0.337449 3:0.293305 4:0.345098 5:0.141176 6:0.337255 7:0 8:0 9:1 10:0 11:0 12:1 13:0 14:0 15:0.477477 16:0 17:0.108108 18:0.0495495 19:0 20:0 21:0 22:0 23:0 24:0.00900901 25:0 26:0 27:0 28:0 29:0 30:0 31:0.0855856 32:0 33:0.045045 34:0 35:0 36:0 37:0 38:0 39:0 40:0.0585586 41:0 42:0.0855856 43:0 44:0 45:0 46:0 47:0 48:0 49:0 50:0 51:0 52:0 53:0 54:0 55:0 56:0 57:0 58:0 59:0 60:0 61:0 62:0.036036 63:0.045045 64:0 
0.1152719134723887 1:0.357162 2:0.36493 3:0.316545 4:0.333333 5:0.141176 6:0.364706 7:0 8:0 9:1 10:0 11:0 12:1 13:0 14:0 15:0.514286 16:0 17:0.0047619 18:0.0761905 19:0 20:0 21:0 22:0 23:0 24:0.0571429 25:0.0142857 26:0 27:0 28:0 29:0 30:0 31:0.0761905 32:0 33:0.0285714 34:0 35:0 36:0 37:0 38:0 39:0 40:0.052381 41:0 42:0.0428571 43:0 44:0 45:0 46:0 47:0 48:0 49:0 50:0.0047619 51:0.0333333 52:0 53:0 54:0 55:0 56:0 57:0 58:0 59:0 60:0 61:0 62:0.0428571 63:0.052381 64:0 
1 1:0.327949 2:0.337767 3:0.289386 4:0.32549 5:0.152941 6:0.337255 7:0 8:0 9:1 10:0 11:0 12:1 13:0 14:0 15:0.508314 16:0 17:0.415677 18:0 19:0 20:0 21:0 22:0 23:0 24:0 25:0 26:0 27:0 28:0 29:0 30:0 31:0.0190024 32:0 33:0 34:0 35:0 36:0 37:0 38:0.0023753 39:0 40:0 41:0 42:0 43:0 44:0 45:0 46:0 47:0 48:0 49:0 50:0 51:0 52:0 53:0 54:0 55:0 56:0 57:0 58:0 59:0 60:0 61:0 62:0.0546318 63:0 64:0 
0.4797175394116072 1:0.325145 2:0.330815 3:0.281525 4:0.333333 5:0.152941 6:0.329412 7:0 8:0 9:1 10:0 11:0 12:1 13:0 14:0 15:0.486804 16:0 17:0.296188 18:0 19:0 20:0 21:0 22:0 23:0 24:0 25:0 26:0 27:0 28:0 29:0 30:0 31:0.0322581 32:0 33:0 34:0 35:0 36:0 37:0 38:0.0234604 39:0 40:0 41:0 42:0 43:0 44:0 45:0 46:0 47:0 48:0 49:0 50:0 51:0 52:0 53:0 54:0 55:0 56:0 57:0 58:0 59:0 60:0 61:0 62:0.16129 63:0 64:0 
0.2110592293066417 1:0.310506 2:0.310375 3:0.266359 4:0.352941 5:0.152941 6:0.309804 7:0 8:0 9:1 10:0 11:0 12:1 13:0 14:0 15:0.485075 16:0 17:0.115672 18:0 19:0 20:0 21:0 22:0 23:0 24:0 25:0 26:0 27:0 28:0 29:0 30:0 31:0.0970149 32:0 33:0 34:0 35:0 36:0 37:0 38:0.00373134 39:0 40:0 41:0 42:0 43:0 44:0 45:0 46:0 47:0 48:0 49:0 50:0 51:0 52:0 53:0 54:0 55:0 56:0 57:0 58:0 59:0 60:0 61:0 62:0.298507 63:0 64:0 
1 1:0.316925 2:0.32042 3:0.277578 4:0.341176 5:0.137255 6:0.317647 7:0 8:0 9:1 10:0 11:0 12:1 13:0 14:0 15:0.51046 16:0 17:0.317992 18:0 19:0 20:0 21:0 22:0 23:0 24:0 25:0 26:0 27:0 28:0 29:0 30:0 31:0 32:0 33:0 34:0 35:0 36:0 37:0 38:0 39:0 40:0 41:0 42:0 43:0 44:0 45:0 46:0 47:0 48:0 49:0 50:0 51:0 52:0 53:0 54:0 55:0 56:0 57:0 58:0 59:0 60:0 61:0 62:0.171548 63:0 64:0 
0.06284322703972618 1:0.313854 2:0.311875 3:0.271175 4:0.364706 5:0.137255 6:0.313726 7:0 8:0 9:1 10:0 11:0 12:1 13:0 14:0 15:0.518692 16:0.0046729 17:0.0233645 18:0.00934579 19:0 20:0.0186916 21:0 22:0 23:0 24:0.0560748 25:0.0280374 26:0 27:0 28:0 29:0 30:0.0420561 31:0.0327103 32:0 33:0.0046729 34:0 35:0.00934579 36:0.0140187 37:0.0186916 38:0 39:0 40:0.0747664 41:0 42:0.0233645 43:0.0373832 44:0 45:0 46:0 47:0 48:0 49:0 50:0 51:0 52:0 53:0 54:0 55:0.0327103 56:0 57:0 58:0 59:0.00934579 60:0 61:0 62:0 63:0.0327103 64:0 
0.5130765199456262 1:0.350161 2:0.354248 3:0.306991 4:0.345098 5:0.133333 6:0.352941 7:0 8:0 9:1 10:0 11:0 12:1 13:0 14:0 15:0.50211 16:0 17:0.0337553 18:0.0506329 19:0 20:0 21:0 22:0 23:0 24:0.0632911 25:0 26:0 27:0 28:0 29:0 30:0 31:0 32:0 33:0 34:0 35:0 36:0 37:0 38:0 39:0 40:0.0126582 41:0 42:0.105485 43:0 44:0 45:0 46:0 47:0 48:0 49:0 50:0 51:0 52:0 53:0 54:0 55:0 56:0 57:0 58:0 59:0 60:0 61:0 62:0.232068 63:0 64:0 
0.9293503768343556 1:0.314451 2:0.316337 3:0.272703 4:0.352941 5:0.137255 6:0.313726 7:0 8:0 9:1 10:0 11:0 12:1 13:0 14:0 15:0.503018 16:0 17:0.197183 18:0.0301811 19:0 20:0 21:0 22:0 23:0 24:0.0442656 25:0 26:0 27:0 28:0 29:0 30:0 31:0.0704225 32:0 33:0 34:0 35:0 36:0 37:0 38:0 39:0 40:0.0422535 41:0 42:0.0120724 43:0 44:0 45:0 46:0 47:0 48:0 49:0 50:0 51:0 52:0 53:0 54:0 55:0 56:0 57:0 58:0 59:0 60:0 61:0 62:0.100604 63:0 64:0 
1 1:0.307386 2:0.306607 3:0.263681 4:0.352941 5:0.141176 6:0.305882 7:0 8:0 9:1 10:0 11:0 12:1 13:0 14:0 15:0.497159 16:0 17:0.130682 18:0.0113636 19:0 20:0 21:0 22:0 23:0 24:0.107955 25:0 26:0 27:0 28:0 29:0 30:0 31:0.102273 32:0 33:0.00284091 34:0 35:0 36:0 37:0 38:0 39:0 40:0.0653409 41:0 42:0.0340909 43:0 44:0 45:0 46:0 47:0 48:0 49:0 50:0 51:0.0198864 52:0 53:0 54:0 55:0 56:0 57:0 58:0 59:0 60:0 61:0 62:0.0284091 63:0 64:0 
0.03561584942683014 1:0.299744 2:0.298764 3:0.25503 4:0.352941 5:0.145098 6:0.298039 7:0 8:0 9:1 10:0 11:0 12:1 13:0 14:0 15:0.516304 16:0 17:0.163043 18:0 19:0 20:0 21:0 22:0 23:0 24:0.0543478 25:0 26:0 27:0 28:0 29:0 30:0 31:0.0706522 32:0 33:0 34:0 35:0 36:0 37:0 38:0 39:0 40:0.0869565 41:0 42:0 43:0 44:0 45:0 46:0 47:0 48:0 49:0 50:0 51:0 52:0 53:0 54:0 55:0 56:0 57:0 58:0 59:0 60:0 61:0 62:0.108696 63:0 64:0 
0.4436367079043 1:0.29991 2:0.297706 3:0.257029 4:0.364706 5:0.145098 6:0.298039 7:0 8:0 9:1 10:0 11:0 12:1 13:0 14:0 15:0.477124 16:0 17:0.212418 18:0 19:0 20:0.0163399 21:0 22:0 23:0 24:0.0915033 25:0 26:0 27:0 28:0 29:0 30:0.00326797 31:0.0359477 32:0 33:0.00326797 34:0 35:0 36:0 37:0 38:0 39:0 40:0.0490196 41:0 42:0.0718954 43:0 44:0 45:0 46:0 47:0 48:0 49:0 50:0 51:0 52:0 53:0 54:0 55:0 56:0 57:0 58:0 59:0 60:0 61:0 62:0.0392157 63:0 64:0 
1 1:0.318631 2:0.320584 3:0.270846 4:0.352941 5:0.14902 6:0.317647 7:0 8:0 9:1 10:0 11:0 12:1 13:0 14:0 15:0.505791 16:0 17:0.494208 18:0 19:0 20:0 21:0 22:0 23:0 24:0 25:0 26:0 27:0 28:0 29:0 30:0 31:0 32:0 33:0 34:0 35:0 36:0 37:0 38:0 39:0 40:0 41:0 42:0 43:0 44:0 45:0 46:0 47:0 48:0 49:0 50:0 51:0 52:0 53:0 54:0 55:0 56:0 57:0 58:0 59:0 60:0 61:0 62:0 63:0 64:0 
0.0224418622636475 1:0.286813 2:0.281722 3:0.240446 4:0.372549 5:0.164706 6:0.286275 7:0 8:0 9:1 10:0 11:0 12:1 13:0 14:0 15:0.47451 16:0 17:0.101961 18:0 19:0 20:0 21:0 22:0 23:0 24:0.12549 25:0 26:0 27:0 28:0 29:0 30:0 31:0.054902 32:0 33:0 34:0 35:0 36:0 37:0 38:0 39:0 40:0.0627451 41:0 42:0.0431373 43:0 44:0 45:0 46:0 47:0 48:0 49:0 50:0 51:0.0627451 52:0 53:0 54:0 55:0 56:0 57:0 58:0 59:0 60:0 61:0 62:0.0745098 63:0 64:0 
1 1:0.312948 2:0.314023 3:0.272375 4:0.341176 5:0.137255 6:0.313726 7:0 8:0 9:1 10:0 11:0 12:1 13:0 14:0 15:0.493671 16:0 17:0.421941 18:0 19:0 20:0 21:0 22:0 23:0 24:0 25:0 26:0 27:0 28:0 29:0 30:0 31:0 32:0 33:0 34:0 35:0 36:0 37:0 38:0 39:0 40:0 41:0 42:0 43:0 44:0 45:0 46:0 47:0 48:0 49:0 50:0 51:0 52:0 53:0 54:0 55:0 56:0 57:0 58:0 59:0 60:0 61:0 62:0.0843882 63:0 64:0 
1 1:0.333147 2:0.335738 3:0.28772 4:0.345098 5:0.141176 6:0.333333 7:0 8:0 9:1 10:0 11:0 12:1 13:0 14:0 15:0.50365 16:0 17:0.49635 18:0 19:0 20:0 21:0 22:0 23:0 24:0 25:0 26:0 27:0 28:0 29:0 30:0 31:0 32:0 33:0 34:0 35:0 36:0 37:0 38:0 39:0 40:0 41:0 42:0 43:0 44:0 45:0 46:0 47:0 48:0 49:0 50:0 51:0 52:0 53:0 54:0 55:0 56:0 57:0 58:0 59:0 60:0 61:0 62:0 63:0 64:0 
1 1:0.319179 2:0.321415 3:0.273483 4:0.352941 5:0.14902 6:0.317647 7:0 8:0 9:1 10:0 11:0 12:1 13:0 14:0 15:0.484375 16:0 17:0.515625 18:0 19:0 20:0 21:0 22:0 23:0 24:0 25:0 26:0 27:0 28:0 29:0 30:0 31:0 32:0 33:0 34:0 35:0 36:0 37:0 38:0 39:0 40:0 41:0 42:0 43:0 44:0 45:0 46:0 47:0 48:0 49:0 50:0 51:0 52:0 53:0 54:0 55:0 56:0 57:0 58:0 59:0 60:0 61:0 62:0 63:0 64:0 
1 1:0.309157 2:0.310174 3:0.26293 4:0.345098 5:0.152941 6:0.309804 7:0 8:0 9:1 10:0 11:0 12:1 13:0 14:0 15:0.501683 16:0 17:0.498316 18:0 19:0 20:0 21:0 22:0 23:0 24:0 25:0 26:0 27:0 28:0 29:0 30:0 31:0 32:0 33:0 34:0 35:0 36:0 37:0 38:0 39:0 40:0 41:0 42:0 43:0 44:0 45:0 46:0 47:0 48:0 49:0 50:0 51:0 52:0 53:0 54:0 55:0 56:0 57:0 58:0 59:0 60:0 61:0 62:0 63:0 64:0 
1 1:0.336016 2:0.336486 3:0.293725 4:0.352941 5:0.129412 6:0.333333 7:0 8:0 9:1 10:0 11:0 12:1 13:0 14:0 15:0.504 16:0 17:0.48 18:0 19:0 20:0 21:0 22:0 23:0 24:0 25:0 26:0 27:0 28:0 29:0 30:0 31:0 32:0 33:0 34:0 35:0 36:0 37:0 38:0 39:0 40:0 41:0 42:0 43:0 44:0 45:0 46:0 47:0 48:0 49:0 50:0 51:0 52:0 53:0 54:0 55:0 56:0 57:0 58:0 59:0 60:0 61:0 62:0.016 63:0 64:0 
1 1:0.316176 2:0.315959 3:0.267974 4:0.352941 5:0.14902 6:0.313726 7:0 8:0 9:1 10:0 11:0 12:1 13:0 14:0 15:0.5 16:0 17:0.5 18:0 19:0 20:0 21:0 22:0 23:0 24:0 25:0 26:0 27:0 28:0 29:0 30:0 31:0 32:0 33:0 34:0 35:0 36:0 37:0 38:0 39:0 40:0 41:0 42:0 43:0 44:0 45:0 46:0 47:0 48:0 49:0 50:0 51:0 52:0 53:0 54:0 55:0 56:0 57:0 58:0 59:0 60:0 61:0 62:0 63:0 64:0 
0.08528736101063253 1:0.286275 2:0.281231 3:0.241988 4:0.372549 5:0.164706 6:0.286275 7:0 8:0 9:1 10:0 11:0 12:1 13:0 14:0 15:0.510345 16:0 17:0.396552 18:0 19:0 20:0 21:0 22:0 23:0 24:0.00689655 25:0 26:0 27:0 28:0 29:0 30:0 31:0 32:0 33:0 34:0 35:0 36:0 37:0 38:0 39:0 40:0 41:0 42:0.0241379 43:0 44:0 45:0 46:0 47:0 48:0 49:0 50:0 51:0.0172414 52:0 53:0 54:0 55:0 56:0 57:0 58:0 59:0 60:0 61:0 62:0.0448276 63:0 64:0 
0.9504219787948941 1:0.284799 2:0.278417 3:0.237417 4:0.372549 5:0.168627 6:0.282353 7:0 8:0 9:1 10:0 11:0 12:1 13:0 14:0 15:0.512545 16:0 17:0.387097 18:0 19:0 20:0 21:0 22:0 23:0 24:0.00358423 25:0 26:0 27:0 28:0 29:0 30:0 31:0 32:0 33:0 34:0 35:0 36:0 37:0 38:0 39:0 40:0 41:0 42:0.0394265 43:0 44:0 45:0 46:0 47:0 48:0 49:0 50:0 51:0.00716846 52:0 53:0 54:0 55:0 56:0 57:0 58:0 59:0 60:0 61:0 62:0.0501792 63:0 64:0 
1 1:0.278187 2:0.273045 3:0.235337 4:0.364706 5:0.141176 6:0.27451 7:0 8:0 9:1 10:0 11:0 12:1 13:0 14:0 15:0.490842 16:0 17:0.509158 18:0 19:0 20:0 21:0 22:0 23:0 24:0 25:0 26:0 27:0 28:0 29:0 30:0 31:0 32:0 33:0 34:0 35:0 36:0 37:0 38:0 39:0 40:0 41:0 42:0 43:0 44:0 45:0 46:0 47:0 48:0 49:0 50:0 51:0 52:0 53:0 54:0 55:0 56:0 57:0 58:0 59:0 60:0 61:0 62:0 63:0 64:0 
1 1:0.296288 2:0.294707 3:0.254778 4:0.352941 5:0.145098 6:0.294118 7:0 8:0 9:1 10:0 11:0 12:1 13:0 14:0 15:0.513834 16:0 17:0.486166 18:0 19:0 20:0 21:0 22:0 23:0 24:0 25:0 26:0 27:0 28:0 29:0 30:0 31:0 32:0 33:0 34:0 35:0 36:0 37:0 38:0 39:0 40:0 41:0 42:0 43:0 44:0 45:0 46:0 47:0 48:0 49:0 50:0 51:0 52:0 53:0 54:0 55:0 56:0 57:0 58:0 59:0 60:0 61:0 62:0 63:0 64:0 
1 1:0.299941 2:0.302049 3:0.261311 4:0.341176 5:0.141176 6:0.301961 7:0 8:0 9:1 10:0 11:0 12:1 13:0 14:0 15:0.485075 16:0 17:0.514925 18:0 19:0 20:0 21:0 22:0 23:0 24:0 25:0 26:0 27:0 28:0 29:0 30:0 31:0 32:0 33:0 34:0 35:0 36:0 37:0 38:0 39:0 40:0 41:0 42:0 43:0 44:0 45:0 46:0 47:0 48:0 49:0 50:0 51:0 52:0 53:0 54:0 55:0 56:0 57:0 58:0 59:0 60:0 61:0 62:0 63:0 64:0 
1 1:0.298896 2:0.299811 3:0.253856 4:0.352941 5:0.156863 6:0.298039 7:0 8:0 9:1 10:0 11:0 12:1 13:0 14:0 15:0.492593 16:0 17:0.507407 18:0 19:0 20:0 21:0 22:0 23:0 24:0 25:0 26:0 27:0 28:0 29:0 30:0 31:0 32:0 33:0 34:0 35:0 36:0 37:0 38:0 39:0 40:0 41:0 42:0 43:0 44:0 45:0 46:0 47:0 48:0 49:0 50:0 51:0 52:0 53:0 54:0 55:0 56:0 57:0 58:0 59:0 60:0 61:0 62:0 63:0 64:0 
1 1:0.278269 2:0.272343 3:0.235958 4:0.364706 5:0.141176 6:0.27451 7:0 8:0 9:1 10:0 11:0 12:1 13:0 14:0 15:0.503759 16:0 17:0.488722 18:0 19:0 20:0 21:0 22:0 23:0 24:0 25:0 26:0 27:0 28:0 29:0 30:0 31:0 32:0 33:0 34:0 35:0 36:0 37:0 38:0 39:0 40:0 41:0 42:0 43:0 44:0 45:0 46:0 47:0 48:0 49:0 50:0 51:0 52:0 53:0 54:0 55:0 56:0 57:0 58:0 59:0 60:0 61:0 62:0.0075188 63:0 64:0 
1 1:0.322476 2:0.323845 3:0.278293 4:0.352941 5:0.145098 6:0.321569 7:0 8:0 9:1 10:0 11:0 12:1 13:0 14:0 15:0.521569 16:0 17:0.478431 18:0 19:0 20:0 21:0 22:0 23:0 24:0 25:0 26:0 27:0 28:0 29:0 30:0 31:0 32:0 33:0 34:0 35:0 36:0 37:0 38:0 39:0 40:0 41:0 42:0 43:0 44:0 45:0 46:0 47:0 48:0 49:0 50:0 51:0 52:0 53:0 54:0 55:0 56:0 57:0 58:0 59:0 60:0 61:0 62:0 63:0 64:0 
1 1:0.32056 2:0.321975 3:0.278122 4:0.345098 5:0.145098 6:0.321569 7:0 8:0 9:1 10:0 11:0 12:1 13:0 14:0 15:0.497925 16:0 17:0.502075 18:0 19:0 20:0 21:0 22:0 23:0 24:0 25:0 26:0 27:0 28:0 29:0 30:0 31:0 32:0 33:0 34:0 35:0 36:0 37:0 38:0 39:0 40:0 41:0 42:0 43:0 44:0 45:0 46:0 47:0 48:0 49:0 50:0 51:0 52:0 53:0 54:0 55:0 56:0 57:0 58:0 59:0 60:0 61:0 62:0 63:0 64:0 
1 1:0.292012 2:0.285616 3:0.247332 4:0.372549 5:0.14902 6:0.290196 7:0 8:0 9:1 10:0 11:0 12:1 13:0 14:0 15:0.508197 16:0 17:0.491803 18:0 19:0 20:0 21:0 22:0 23:0 24:0 25:0 26:0 27:0 28:0 29:0 30:0 31:0 32:0 33:0 34:0 35:0 36:0 37:0 38:0 39:0 40:0 41:0 42:0 43:0 44:0 45:0 46:0 47:0 48:0 49:0 50:0 51:0 52:0 53:0 54:0 55:0 56:0 57:0 58:0 59:0 60:0 61:0 62:0 63:0 64:0 
1 1:0.292346 2:0.294358 3:0.253492 4:0.341176 5:0.145098 6:0.294118 7:0 8:0 9:1 10:0 11:0 12:1 13:0 14:0 15:0.504386 16:0 17:0.495614 18:0 19:0 20:0 21:0 22:0 23:0 24:0 25:0 26:0 27:0 28:0 29:0 30:0 31:0 32:0 33:0 34:0 35:0 36:0 37:0 38:0 39:0 40:0 41:0 42:0 43:0 44:0 45:0 46:0 47:0 48:0 49:0 50:0 51:0 52:0 53:0 54:0 55:0 56:0 57:0 58:0 59:0 60:0 61:0 62:0 63:0 64:0 
1 1:0.290582 2:0.290766 3:0.244411 4:0.352941 5:0.160784 6:0.290196 7:0 8:0 9:1 10:0 11:0 12:1 13:0 14:0 15:0.495726 16:0 17:0.504274 18:0 19:0 20:0 21:0 22:0 23:0 24:0 25:0 26:0 27:0 28:0 29:0 30:0 31:0 32:0 33:0 34:0 35:0 36:0 37:0 38:0 39:0 40:0 41:0 42:0 43:0 44:0 45:0 46:0 47:0 48:0 49:0 50:0 51:0 52:0 53:0 54:0 55:0 56:0 57:0 58:0 59:0 60:0 61:0 62:0 63:0 64:0 
1 1:0.287323 2:0.287194 3:0.243315 4:0.352941 5:0.14902 6:0.286275 7:0 8:0 9:1 10:0 11:0 12:1 13:0 14:0 15:0.506173 16:0 17:0.473251 18:0 19:0 20:0 21:0 22:0 23:0 24:0 25:0 26:0 27:0 28:0 29:0 30:0 31:0 32:0 33:0 34:0 35:0 36:0 37:0 38:0 39:0 40:0 41:0 42:0 43:0 44:0 45:0 46:0 47:0 48:0 49:0 50:0 51:0 52:0 53:0 54:0 55:0 56:0 57:0 58:0 59:0 60:0 61:0 62:0.0205761 63:0 64:0 
1 1:0.282498 2:0.282462 3:0.240712 4:0.352941 5:0.152941 6:0.282353 7:0 8:0 9:1 10:0 11:0 12:1 13:0 14:0 15:0.492308 16:0 17:0.507692 18:0 19:0 20:0 21:0 22:0 23:0 24:0 25:0 26:0 27:0 28:0 29:0 30:0 31:0 32:0 33:0 34:0 35:0 36:0 37:0 38:0 39:0 40:0 41:0 42:0 43:0 44:0 45:0 46:0 47:0 48:0 49:0 50:0 51:0 52:0 53:0 54:0 55:0 56:0 57:0 58:0 59:0 60:0 61:0 62:0 63:0 64:0 
1 1:0.26369 2:0.260241 3:0.22397 4:0.364706 5:0.14902 6:0.262745 7:0 8:0 9:1 10:0 11:0 12:1 13:0 14:0 15:0.493976 16:0 17:0.506024 18:0 19:0 20:0 21:0 22:0 23:0 24:0 25:0 26:0 27:0 28:0 29:0 30:0 31:0 32:0 33:0 34:0 35:0 36:0 37:0 38:0 39:0 40:0 41:0 42:0 43:0 44:0 45:0 46:0 47:0 48:0 49:0 50:0 51:0 52:0 53:0 54:0 55:0 56:0 57:0 58:0 59:0 60:0 61:0 62:0 63:0 64:0 
1 1:0.303072 2:0.303721 3:0.262668 4:0.352941 5:0.141176 6:0.301961 7:0 8:0 9:1 10:0 11:0 12:1 13:0 14:0 15:0.5 16:0 17:0.5 18:0 19:0 20:0 21:0 22:0 23:0 24:0 25:0 26:0 27:0 28:0 29:0 30:0 31:0 32:0 33:0 34:0 35:0 36:0 37:0 38:0 39:0 40:0 41:0 42:0 43:0 44:0 45:0 46:0 47:0 48:0 49:0 50:0 51:0 52:0 53:0 54:0 55:0 56:0 57:0 58:0 59:0 60:0 61:0 62:0 63:0 64:0 
1 1:0.310594 2:0.311628 3:0.268171 4:0.352941 5:0.141176 6:0.309804 7:0 8:0 9:1 10:0 11:0 12:1 13:0 14:0 15:0.496124 16:0 17:0.503876 18:0 19:0 20:0 21:0 22:0 23:0 24:0 25:0 26:0 27:0 28:0 29:0 30:0 31:0 32:0 33:0 34:0 35:0 36:0 37:0 38:0 39:0 40:0 41:0 42:0 43:0 44:0 45:0 46:0 47:0 48:0 49:0 50:0 51:0 52:0 53:0 54:0 55:0 56:0 57:0 58:0 59:0 60:0 61:0 62:0 63:0 64:0 
1 1:0.285701 2:0.287096 3:0.244873 4:0.341176 5:0.14902 6:0.286275 7:0 8:0 9:1 10:0 11:0 12:1 13:0 14:0 15:0.505929 16:0 17:0.470356 18:0 19:0 20:0 21:0 22:0 23:0 24:0 25:0 26:0 27:0 28:0 29:0 30:0 31:0 32:0 33:0 34:0 35:0 36:0 37:0 38:0 39:0 40:0 41:0 42:0 43:0 44:0 45:0 46:0 47:0 48:0 49:0 50:0 51:0 52:0 53:0 54:0 55:0 56:0 57:0 58:0 59:0 60:0 61:0 62:0.0237154 63:0 64:0 
1 1:0.275996 2:0.274923 3:0.233441 4:0.352941 5:0.156863 6:0.27451 7:0 8:0 9:1 10:0 11:0 12:1 13:0 14:0 15:0.507812 16:0 17:0.351562 18:0 19:0 20:0 21:0 22:0 23:0 24:0 25:0 26:0 27:0 28:0 29:0 30:0 31:0 32:0 33:0 34:0 35:0 36:0 37:0 38:0 39:0 40:0 41:0 42:0 43:0 44:0 45:0 46:0 47:0 48:0 49:0 50:0 51:0 52:0 53:0 54:0 55:0 56:0 57:0 58:0 59:0 60:0 61:0 62:0.140625 63:0 64:0 
0.09150869754433469 1:0.275912 2:0.280302 3:0.237979 4:0.341176 5:0.156863 6:0.278431 7:0 8:0 9:1 10:0 11:0 12:1 13:0 14:0 15:0.492308 16:0 17:0.353846 18:0 19:0 20:0 21:0 22:0 23:0 24:0 25:0 26:0 27:0 28:0 29:0 30:0 31:0 32:0 33:0 34:0 35:0 36:0 37:0 38:0 39:0 40:0 41:0 42:0 43:0 44:0 45:0 46:0 47:0 48:0 49:0 50:0 51:0 52:0 53:0 54:0 55:0 56:0 57:0 58:0 59:0 60:0 61:0 62:0.153846 63:0 64:0 
1 1:0.272763 2:0.264189 3:0.229358 4:0.372549 5:0.160784 6:0.270588 7:0 8:0 9:0.986364 10:0.0136364 11:0 12:1 13:0 14:0 15:0.5 16:0 17:0.5 18:0 19:0 20:0 21:0 22:0 23:0 24:0 25:0 26:0 27:0 28:0 29:0 30:0 31:0 32:0 33:0 34:0 35:0 36:0 37:0 38:0 39:0 40:0 41:0 42:0 43:0 44:0 45:0 46:0 47:0 48:0 49:0 50:0 51:0 52:0 53:0 54:0 55:0 56:0 57:0 58:0 59:0 60:0 61:0 62:0 63:0 64:0 
1 1:0.268185 2:0.26207 3:0.225005 4:0.372549 5:0.160784 6:0.266667 7:0 8:0 9:1 10:0 11:0 12:1 13:0 14:0 15:0.505376 16:0 17:0.494624 18:0 19:0 20:0 21:0 22:0 23:0 24:0 25:0 26:0 27:0 28:0 29:0 30:0 31:0 32:0 33:0 34:0 35:0 36:0 37:0 38:0 39:0 40:0 41:0 42:0 43:0 44:0 45:0 46:0 47:0 48:0 49:0 50:0 51:0 52:0 53:0 54:0 55:0 56:0 57:0 58:0 59:0 60:0 61:0 62:0 63:0 64:0 
1 1:0.27866 2:0.278374 3:0.238446 4:0.364706 5:0.156863 6:0.278431 7:0 8:0 9:1 10:0 11:0 12:1 13:0 14:0 15:0.472727 16:0 17:0.527273 18:0 19:0 20:0 21:0 22:0 23:0 24:0 25:0 26:0 27:0 28:0 29:0 30:0 31:0 32:0 33:0 34:0 35:0 36:0 37:0 38:0 39:0 40:0 41:0 42:0 43:0 44:0 45:0 46:0 47:0 48:0 49:0 50:0 51:0 52:0 53:0 54:0 55:0 56:0 57:0 58:0 59:0 60:0 61:0 62:0 63:0 64:0 
1 1:0.284886 2:0.287033 3:0.244941 4:0.341176 5:0.14902 6:0.286275 7:0 8:0 9:1 10:0 11:0 12:1 13:0 14:0 15:0.50365 16:0 17:0.437956 18:0 19:0 20:0 21:0 22:0 23:0 24:0 25:0 26:0 27:0 28:0 29:0 30:0 31:0 32:0 33:0 34:0 35:0 36:0 37:0 38:0 39:0 40:0 41:0 42:0 43:0 44:0 45:0 46:0 47:0 48:0 49:0 50:0 51:0 52:0 53:0 54:0 55:0 56:0 57:0 58:0 59:0 60:0 61:0 62:0.0583942 63:0 64:0 
1 1:0.273393 2:0.269839 3:0.229657 4:0.364706 5:0.160784 6:0.270588 7:0 8:0 9:1 10:0 11:0 12:1 13:0 14:0 15:0.5 16:0 17:0.5 18:0 19:0 20:0 21:0 22:0 23:0 24:0 25:0 26:0 27:0 28:0 29:0 30:0 31:0 32:0 33:0 34:0 35:0 36:0 37:0 38:0 39:0 40:0 41:0 42:0 43:0 44:0 45:0 46:0 47:0 48:0 49:0 50:0 51:0 52:0 53:0 54:0 55:0 56:0 57:0 58:0 59:0 60:0 61:0 62:0 63:0 64:0 
1 1:0.283655 2:0.288482 3:0.247059 4:0.341176 5:0.137255 6:0.286275 7:0 8:0 9:1 10:0 11:0 12:1 13:0 14:0 15:0.512605 16:0 17:0.487395 18:0 19:0 20:0 21:0 22:0 23:0 24:0 25:0 26:0 27:0 28:0 29:0 30:0 31:0 32:0 33:0 34:0 35:0 36:0 37:0 38:0 39:0 40:0 41:0 42:0 43:0 44:0 45:0 46:0 47:0 48:0 49:0 50:0 51:0 52:0 53:0 54:0 55:0 56:0 57:0 58:0 59:0 60:0 61:0 62:0 63:0 64:0 
1 1:0.280935 2:0.284962 3:0.243801 4:0.341176 5:0.137255 6:0.282353 7:0 8:0 9:1 10:0 11:0 12:1 13:0 14:0 15:0.488462 16:0 17:0.511538 18:0 19:0 20:0 21:0 22:0 23:0 24:0 25:0 26:0 27:0 28:0 29:0 30:0 31:0 32:0 33:0 34:0 35:0 36:0 37:0 38:0 39:0 40:0 41:0 42:0 43:0 44:0 45:0 46:0 47:0 48:0 49:0 50:0 51:0 52:0 53:0 54:0 55:0 56:0 57:0 58:0 59:0 60:0 61:0 62:0 63:0 64:0 
1 1:0.279371 2:0.278577 3:0.238179 4:0.352941 5:0.156863 6:0.278431 7:0 8:0 9:1 10:0 11:0 12:1 13:0 14:0 15:0.520661 16:0 17:0.466942 18:0 19:0 20:0 21:0 22:0 23:0 24:0 25:0 26:0 27:0 28:0 29:0 30:0 31:0 32:0 33:0 34:0 35:0 36:0 37:0 38:0 39:0 40:0 41:0 42:0 43:0 44:0 45:0 46:0 47:0 48:0 49:0 50:0 51:0 52:0 53:0 54:0 55:0 56:0 57:0 58:0 59:0 60:0 61:0 62:0.0123967 63:0 64:0 
1 1:0.262393 2:0.260047 3:0.222356 4:0.352941 5:0.152941 6:0.258824 7:0 8:0 9:1 10:0 11:0 12:1 13:0 14:0 15:0.512821 16:0 17:0.487179 18:0 19:0 20:0 21:0 22:0 23:0 24:0 25:0 26:0 27:0 28:0 29:0 30:0 31:0 32:0 33:0 34:0 35:0 36:0 37:0 38:0 39:0 40:0 41:0 42:0 43:0 44:0 45:0 46:0 47:0 48:0 49:0 50:0 51:0 52:0 53:0 54:0 55:0 56:0 57:0 58:0 59:0 60:0 61:0 62:0 63:0 64:0 
1 1:0.277599 2:0.277728 3:0.234924 4:0.352941 5:0.156863 6:0.27451 7:0 8:0 9:1 10:0 11:0 12:1 13:0 14:0 15:0.481132 16:0 17:0.410377 18:0 19:0 20:0 21:0 22:0 23:0 24:0 25:0 26:0 27:0 28:0 29:0 30:0 31:0 32:0 33:0 34:0 35:0 36:0 37:0 38:0 39:0 40:0 41:0 42:0 43:0 44:0 45:0 46:0 47:0 48:0 49:0 50:0 51:0 52:0 53:0 54:0 55:0 56:0 57:0 58:0 59:0 60:0 61:0 62:0.108491 63:0 64:0 
1 1:0.278728 2:0.277377 3:0.23564 4:0.364706 5:0.156863 6:0.278431 7:0 8:0 9:1 10:0 11:0 12:1 13:0 14:0 15:0.487395 16:0 17:0.504202 18:0 19:0 20:0 21:0 22:0 23:0 24:0 25:0 26:0 27:0 28:0 29:0 30:0 31:0 32:0 33:0 34:0 35:0 36:0 37:0 38:0 39:0 40:0 41:0 42:0 43:0 44:0 45:0 46:0 47:0 48:0 49:0 50:0 51:0 52:0 53:0 54:0 55:0 56:0 57:0 58:0 59:0 60:0 61:0 62:0.00840336 63:0 64:0 
1 1:0.267587 2:0.262305 3:0.223129 4:0.372549 5:0.176471 6:0.266667 7:0 8:0 9:1 10:0 11:0 12:1 13:0 14:0 15:0.484694 16:0 17:0.515306 18:0 19:0 20:0 21:0 22:0 23:0 24:0 25:0 26:0 27:0 28:0 29:0 30:0 31:0 32:0 33:0 34:0 35:0 36:0 37:0 38:0 39:0 40:0 41:0 42:0 43:0 44:0 45:0 46:0 47:0 48:0 49:0 50:0 51:0 52:0 53:0 54:0 55:0 56:0 57:0 58:0 59:0 60:0 61:0 62:0 63:0 64:0 
1 1:0.260857 2:0.255283 3:0.215432 4:0.364706 5:0.180392 6:0.258824 7:0 8:0 9:1 10:0 11:0 12:1 13:0 14:0 15:0.509259 16:0 17:0.490741 18:0 19:0 20:0 21:0 22:0 23:0 24:0 25:0 26:0 27:0 28:0 29:0 30:0 31:0 32:0 33:0 34:0 35:0 36:0 37:0 38:0 39:0 40:0 41:0 42:0 43:0 44:0 45:0 46:0 47:0 48:0 49:0 50:0 51:0 52:0 53:0 54:0 55:0 56:0 57:0 58:0 59:0 60:0 61:0 62:0 63:0 64:0 
1 1:0.247846 2:0.243571 3:0.205818 4:0.364706 5:0.176471 6:0.247059 7:0 8:0 9:1 10:0 11:0 12:1 13:0 14:0 15:0.504098 16:0 17:0.495902 18:0 19:0 20:0 21:0 22:0 23:0 24:0 25:0 26:0 27:0 28:0 29:0 30:0 31:0 32:0 33:0 34:0 35:0 36:0 37:0 38:0 39:0 40:0 41:0 42:0 43:0 44:0 45:0 46:0 47:0 48:0 49:0 50:0 51:0 52:0 53:0 54:0 55:0 56:0 57:0 58:0 59:0 60:0 61:0 62:0 63:0 64:0 
1 1:0.254225 2:0.265961 3:0.228495 4:0.313726 5:0.133333 6:0.262745 7:0 8:0.0611511 9:0.938849 10:0 11:0 12:1 13:0 14:0 15:0.485611 16:0 17:0.406475 18:0 19:0 20:0 21:0 22:0 23:0 24:0 25:0 26:0 27:0 28:0 29:0 30:0 31:0 32:0 33:0.0215827 34:0 35:0 36:0 37:0 38:0 39:0 40:0 41:0 42:0 43:0 44:0 45:0 46:0 47:0 48:0 49:0 50:0 51:0 52:0 53:0 54:0 55:0 56:0 57:0 58:0 59:0 60:0 61:0 62:0.0863309 63:0 64:0 
1 1:0.25438 2:0.249099 3:0.208602 4:0.364706 5:0.172549 6:0.25098 7:0 8:0 9:1 10:0 11:0 12:1 13:0 14:0 15:0.495968 16:0 17:0.504032 18:0 19:0 20:0 21:0 22:0 23:0 24:0 25:0 26:0 27:0 28:0 29:0 30:0 31:0 32:0 33:0 34:0 35:0 36:0 37:0 38:0 39:0 40:0 41:0 42:0 43:0 44:0 45:0 46:0 47:0 48:0 49:0 50:0 51:0 52:0 53:0 54:0 55:0 56:0 57:0 58:0 59:0 60:0 61:0 62:0 63:0 64:0 
1 1:0.254837 2:0.24663 3:0.210648 4:0.372549 5:0.172549 6:0.25098 7:0 8:0 9:0.996689 10:0.00331126 11:0 12:1 13:0 14:0 15:0.47351 16:0 17:0.52649 18:0 19:0 20:0 21:0 22:0 23:0 24:0 25:0 26:0 27:0 28:0 29:0 30:0 31:0 32:0 33:0 34:0 35:0 36:0 37:0 38:0 39:0 40:0 41:0 42:0 43:0 44:0 45:0 46:0 47:0 48:0 49:0 50:0 51:0 52:0 53:0 54:0 55:0 56:0 57:0 58:0 59:0 60:0 61:0 62:0 63:0 64:0 
1 1:0.246822 2:0.250443 3:0.212824 4:0.341176 5:0.141176 6:0.247059 7:0 8:0 9:1 10:0 11:0 12:1 13:0 14:0 15:0.512097 16:0 17:0.487903 18:0 19:0 20:0 21:0 22:0 23:0 24:0 25:0 26:0 27:0 28:0 29:0 30:0 31:0 32:0 33:0 34:0 35:0 36:0 37:0 38:0 39:0 40:0 41:0 42:0 43:0 44:0 45:0 46:0 47:0 48:0 49:0 50:0 51:0 52:0 53:0 54:0 55:0 56:0 57:0 58:0 59:0 60:0 61:0 62:0 63:0 64:0 
1 1:0.288665 2:0.29532 3:0.253256 4:0.333333 5:0.145098 6:0.294118 7:0 8:0 9:1 10:0 11:0 12:1 13:0 14:0 15:0.514599 16:0 17:0.485401 18:0 19:0 20:0 21:0 22:0 23:0 24:0 25:0 26:0 27:0 28:0 29:0 30:0 31:0 32:0 33:0 34:0 35:0 36:0 37:0 38:0 39:0 40:0 41:0 42:0 43:0 44:0 45:0 46:0 47:0 48:0 49:0 50:0 51:0 52:0 53:0 54:0 55:0 56:0 57:0 58:0 59:0 60:0 61:0 62:0 63:0 64:0 
1 1:0.274975 2:0.273268 3:0.232826 4:0.364706 5:0.156863 6:0.27451 7:0 8:0 9:1 10:0 11:0 12:1 13:0 14:0 15:0.532374 16:0 17:0.453237 18:0 19:0 20:0 21:0 22:0 23:0 24:0 25:0 26:0 27:0 28:0 29:0 30:0 31:0 32:0 33:0 34:0 35:0 36:0 37:0 38:0 39:0 40:0 41:0 42:0 43:0 44:0 45:0 46:0 47:0 48:0 49:0 50:0 51:0 52:0 53:0 54:0 55:0 56:0 57:0 58:0 59:0 60:0 61:0 62:0.0143885 63:0 64:0 
1 1:0.267955 2:0.265591 3:0.225455 4:0.364706 5:0.160784 6:0.266667 7:0 8:0 9:1 10:0 11:0 12:1 13:0 14:0 15:0.501805 16:0 17:0.498195 18:0 19:0 20:0 21:0 22:0 23:0 24:0 25:0 26:0 27:0 28:0 29:0 30:0 31:0 32:0 33:0 34:0 35:0 36:0 37:0 38:0 39:0 40:0 41:0 42:0 43:0 44:0 45:0 46:0 47:0 48:0 49:0 50:0 51:0 52:0 53:0 54:0 55:0 56:0 57:0 58:0 59:0 60:0 61:0 62:0 63:0 64:0 
1 1:0.263335 2:0.262288 3:0.222571 4:0.364706 5:0.164706 6:0.262745 7:0 8:0 9:1 10:0 11:0 12:1 13:0 14:0 15:0.503759 16:0 17:0.496241 18:0 19:0 20:0 21:0 22:0 23:0 24:0 25:0 26:0 27:0 28:0 29:0 30:0 31:0 32:0 33:0 34:0 35:0 36:0 37:0 38:0 39:0 40:0 41:0 42:0 43:0 44:0 45:0 46:0 47:0 48:0 49:0 50:0 51:0 52:0 53:0 54:0 55:0 56:0 57:0 58:0 59:0 60:0 61:0 62:0 63:0 64:0 
1 1:0.23933 2:0.23299 3:0.193775 4:0.372549 5:0.196078 6:0.239216 7:0 8:0 9:1 10:0 11:0 12:1 13:0 14:0 15:0.516667 16:0 17:0.483333 18:0 19:0 20:0 21:0 22:0 23:0 24:0 25:0 26:0 27:0 28:0 29:0 30:0 31:0 32:0 33:0 34:0 35:0 36:0 37:0 38:0 39:0 40:0 41:0 42:0 43:0 44:0 45:0 46:0 47:0 48:0 49:0 50:0 51:0 52:0 53:0 54:0 55:0 56:0 57:0 58:0 59:0 60:0 61:0 62:0 63:0 64:0 
1 1:0.244405 2:0.238038 3:0.202341 4:0.372549 5:0.176471 6:0.243137 7:0 8:0 9:1 10:0 11:0 12:1 13:0 14:0 15:0.532319 16:0 17:0.467681 18:0 19:0 20:0 21:0 22:0 23:0 24:0 25:0 26:0 27:0 28:0 29:0 30:0 31:0 32:0 33:0 34:0 35:0 36:0 37:0 38:0 39:0 40:0 41:0 42:0 43:0 44:0 45:0 46:0 47:0 48:0 49:0 50:0 51:0 52:0 53:0 54:0 55:0 56:0 57:0 58:0 59:0 60:0 61:0 62:0 63:0 64:0 
1 1:0.263989 2:0.263354 3:0.222786 4:0.352941 5:0.164706 6:0.262745 7:0 8:0 9:1 10:0 11:0 12:1 13:0 14:0 15:0.486207 16:0 17:0.513793 18:0 19:0 20:0 21:0 22:0 23:0 24:0 25:0 26:0 27:0 28:0 29:0 30:0 31:0 32:0 33:0 34:0 35:0 36:0 37:0 38:0 39:0 40:0 41:0 42:0 43:0 44:0 45:0 46:0 47:0 48:0 49:0 50:0 51:0 52:0 53:0 54:0 55:0 56:0 57:0 58:0 59:0 60:0 61:0 62:0 63:0 64:0 
1 1:0.24907 2:0.242735 3:0.203677 4:0.372549 5:0.192157 6:0.247059 7:0 8:0 9:1 10:0 11:0 12:1 13:0 14:0 15:0.47619 16:0 17:0.52381 18:0 19:0 20:0 21:0 22:0 23:0 24:0 25:0 26:0 27:0 28:0 29:0 30:0 31:0 32:0 33:0 34:0 35:0 36:0 37:0 38:0 39:0 40:0 41:0 42:0 43:0 44:0 45:0 46:0 47:0 48:0 49:0 50:0 51:0 52:0 53:0 54:0 55:0 56:0 57:0 58:0 59:0 60:0 61:0 62:0 63:0 64:0 
1 1:0.238304 2:0.235954 3:0.194555 4:0.352941 5:0.184314 6:0.235294 7:0 8:0 9:1 10:0 11:0 12:1 13:0 14:0 15:0.501529 16:0 17:0.498471 18:0 19:0 20:0 21:0 22:0 23:0 24:0 25:0 26:0 27:0 28:0 29:0 30:0 31:0 32:0 33:0 34:0 35:0 36:0 37:0 38:0 39:0 40:0 41:0 42:0 43:0 44:0 45:0 46:0 47:0 48:0 49:0 50:0 51:0 52:0 53:0 54:0 55:0 56:0 57:0 58:0 59:0 60:0 61:0 62:0 63:0 64:0 
1 1:0.233952 2:0.235808 3:0.192629 4:0.341176 5:0.184314 6:0.235294 7:0 8:0 9:1 10:0 11:0 12:1 13:0 14:0 15:0.502674 16:0 17:0.497326 18:0 19:0 20:0 21:0 22:0 23:0 24:0 25:0 26:0 27:0 28:0 29:0 30:0 31:0 32:0 33:0 34:0 35:0 36:0 37:0 38:0 39:0 40:0 41:0 42:0 43:0 44:0 45:0 46:0 47:0 48:0 49:0 50:0 51:0 52:0 53:0 54:0 55:0 56:0 57:0 58:0 59:0 60:0 61:0 62:0 63:0 64:0 
1 1:0.242318 2:0.239778 3:0.19815 4:0.352941 5:0.180392 6:0.239216 7:0 8:0 9:1 10:0 11:0 12:1 13:0 14:0 15:0.498507 16:0 17:0.501493 18:0 19:0 20:0 21:0 22:0 23:0 24:0 25:0 26:0 27:0 28:0 29:0 30:0 31:0 32:0 33:0 34:0 35:0 36:0 37:0 38:0 39:0 40:0 41:0 42:0 43:0 44:0 45:0 46:0 47:0 48:0 49:0 50:0 51:0 52:0 53:0 54:0 55:0 56:0 57:0 58:0 59:0 60:0 61:0 62:0 63:0 64:0 
1 1:0.236867 2:0.235652 3:0.196676 4:0.352941 5:0.168627 6:0.235294 7:0 8:0 9:0.997462 10:0.00253807 11:0 12:1 13:0 14:0 15:0.5 16:0 17:0.5 18:0 19:0 20:0 21:0 22:0 23:0 24:0 25:0 26:0 27:0 28:0 29:0 30:0 31:0 32:0 33:0 34:0 35:0 36:0 37:0 38:0 39:0 40:0 41:0 42:0 43:0 44:0 45:0 46:0 47:0 48:0 49:0 50:0 51:0 52:0 53:0 54:0 55:0 56:0 57:0 58:0 59:0 60:0 61:0 62:0 63:0 64:0 
1 1:0.274198 2:0.275746 3:0.235606 4:0.341176 5:0.141176 6:0.27451 7:0 8:0 9:1 10:0 11:0 12:1 13:0 14:0 15:0.516129 16:0 17:0.483871 18:0 19:0 20:0 21:0 22:0 23:0 24:0 25:0 26:0 27:0 28:0 29:0 30:0 31:0 32:0 33:0 34:0 35:0 36:0 37:0 38:0 39:0 40:0 41:0 42:0 43:0 44:0 45:0 46:0 47:0 48:0 49:0 50:0 51:0 52:0 53:0 54:0 55:0 56:0 57:0 58:0 59:0 60:0 61:0 62:0 63:0 64:0 
1 1:0.247871 2:0.246409 3:0.202402 4:0.364706 5:0.192157 6:0.247059 7:0 8:0 9:1 10:0 11:0 12:1 13:0 14:0 15:0.511834 16:0 17:0.488166 18:0 19:0 20:0 21:0 22:0 23:0 24:0 25:0 26:0 27:0 28:0 29:0 30:0 31:0 32:0 33:0 34:0 35:0 36:0 37:0 38:0 39:0 40:0 41:0 42:0 43:0 44:0 45:0 46:0 47:0 48:0 49:0 50:0 51:0 52:0 53:0 54:0 55:0 56:0 57:0 58:0 59:0 60:0 61:0 62:0 63:0 64:0 
1 1:0.231557 2:0.232378 3:0.191336 4:0.352941 5:0.188235 6:0.231373 7:0 8:0 9:1 10:0 11:0 12:1 13:0 14:0 15:0.501805 16:0 17:0.490975 18:0 19:0 20:0 21:0 22:0 23:0 24:0 25:0 26:0 27:0 28:0 29:0 30:0 31:0 32:0 33:0 34:0 35:0 36:0 37:0 38:0 39:0 40:0 41:0 42:0 43:0 44:0 45:0 46:0 47:0 48:0 49:0 50:0 51:0 52:0 53:0 54:0 55:0 56:0 57:0 58:0 59:0 60:0 61:0 62:0.00722022 63:0 64:0 
1 1:0.237938 2:0.23135 3:0.195966 4:0.372549 5:0.184314 6:0.235294 7:0 8:0 9:1 10:0 11:0 12:1 13:0 14:0 15:0.505714 16:0 17:0.465714 18:0 19:0 20:0 21:0 22:0 23:0 24:0 25:0 26:0 27:0 28:0 29:0 30:0 31:0 32:0 33:0 34:0 35:0 36:0 37:0 38:0 39:0 40:0 41:0 42:0 43:0 44:0 45:0 46:0 47:0 48:0 49:0 50:0 51:0 52:0 53:0 54:0 55:0 56:0 57:0 58:0 59:0 60:0 61:0 62:0.0285714 63:0 64:0 
1 1:0.25109 2:0.254792 3:0.212681 4:0.352941 5:0.156863 6:0.25098 7:0 8:0 9:1 10:0 11:0 12:1 13:0 14:0 15:0.495327 16:0 17:0.345794 18:0 19:0 20:0 21:0 22:0 23:0 24:0 25:0 26:0 27:0 28:0 29:0 30:0 31:0 32:0 33:0.0140187 34:0 35:0 36:0 37:0 38:0 39:0 40:0 41:0 42:0 43:0 44:0 45:0 46:0 47:0 48:0 49:0 50:0 51:0 52:0 53:0 54:0 55:0 56:0 57:0 58:0 59:0 60:0 61:0 62:0.14486 63:0 64:0 
1 1:0.256824 2:0.258086 3:0.21715 4:0.352941 5:0.152941 6:0.254902 7:0 8:0 9:1 10:0 11:0 12:1 13:0 14:0 15:0.495726 16:0 17:0.373219 18:0 19:0 20:0 21:0 22:0 23:0 24:0 25:0 26:0 27:0 28:0 29:0 30:0 31:0 32:0 33:0 34:0 35:0 36:0 37:0 38:0 39:0 40:0 41:0 42:0 43:0 44:0 45:0 46:0 47:0 48:0 49:0 50:0 51:0 52:0 53:0 54:0 55:0 56:0 57:0 58:0 59:0 60:0 61:0 62:0.131054 63:0 64:0 
1 1:0.257892 2:0.25927 3:0.215842 4:0.341176 5:0.164706 6:0.258824 7:0 8:0 9:1 10:0 11:0 12:1 13:0 14:0 15:0.512376 16:0 17:0.415842 18:0 19:0 20:0 21:0 22:0 23:0 24:0 25:0 26:0 27:0 28:0 29:0 30:0 31:0 32:0 33:0 34:0 35:0 36:0 37:0 38:0 39:0 40:0 41:0 42:0 43:0 44:0 45:0 46:0 47:0 48:0 49:0 50:0 51:0 52:0 53:0 54:0 55:0 56:0 57:0 58:0 59:0 60:0 61:0 62:0.0717822 63:0 64:0 
1 1:0.244971 2:0.247354 3:0.206387 4:0.341176 5:0.176471 6:0.247059 7:0 8:0 9:1 10:0 11:0 12:1 13:0 14:0 15:0.477922 16:0 17:0.522078 18:0 19:0 20:0 21:0 22:0 23:0 24:0 25:0 26:0 27:0 28:0 29:0 30:0 31:0 32:0 33:0 34:0 35:0 36:0 37:0 38:0 39:0 40:0 41:0 42:0 43:0 44:0 45:0 46:0 47:0 48:0 49:0 50:0 51:0 52:0 53:0 54:0 55:0 56:0 57:0 58:0 59:0 60:0 61:0 62:0 63:0 64:0 
1 1:0.234732 2:0.232789 3:0.193128 4:0.352941 5:0.168627 6:0.231373 7:0 8:0 9:1 10:0 11:0 12:1 13:0 14:0 15:0.498507 16:0 17:0.501493 18:0 19:0 20:0 21:0 22:0 23:0 24:0 25:0 26:0 27:0 28:0 29:0 30:0 31:0 32:0 33:0 34:0 35:0 36:0 37:0 38:0 39:0 40:0 41:0 42:0 43:0 44:0 45:0 46:0 47:0 48:0 49:0 50:0 51:0 52:0 53:0 54:0 55:0 56:0 57:0 58:0 59:0 60:0 61:0 62:0 63:0 64:0 
1 1:0.244872 2:0.244217 3:0.201928 4:0.352941 5:0.176471 6:0.243137 7:0 8:0 9:1 10:0 11:0 12:1 13:0 14:0 15:0.489412 16:0 17:0.510588 18:0 19:0 20:0 21:0 22:0 23:0 24:0 25:0 26:0 27:0 28:0 29:0 30:0 31:0 32:0 33:0 34:0 35:0 36:0 37:0 38:0 39:0 40:0 41:0 42:0 43:0 44:0 45:0 46:0 47:0 48:0 49:0 50:0 51:0 52:0 53:0 54:0 55:0 56:0 57:0 58:0 59:0 60:0 61:0 62:0 63:0 64:0 
1 1:0.229006 2:0.230038 3:0.18818 4:0.352941 5:0.188235 6:0.227451 7:0 8:0 9:1 10:0 11:0 12:1 13:0 14:0 15:0.501754 16:0 17:0.498246 18:0 19:0 20:0 21:0 22:0 23:0 24:0 25:0 26:0 27:0 28:0 29:0 30:0 31:0 32:0 33:0 34:0 35:0 36:0 37:0 38:0 39:0 40:0 41:0 42:0 43:0 44:0 45:0 46:0 47:0 48:0 49:0 50:0 51:0 52:0 53:0 54:0 55:0 56:0 57:0 58:0 59:0 60:0 61:0 62:0 63:0 64:0 
1 1:0.488984 2:0.482064 3:0.452592 4:0.380392 5:0.0745098 6:0.486275 7:0.134617 8:0.16082 9:0.609025 10:0.0883766 11:0.00716068 12:0.949435 13:0.0497664 14:0.000787525 15:0.500008 16:0.00405994 17:0.240315 18:0.0141261 19:0.000551482 20:0.0075126 21:0.00200851 22:0.00134974 23:0.000841171 24:0.0109696 25:0.0025557 26:0.00219949 27:0.00521226 28:0.00505776 29:0.000927005 30:0.00471871 31:0.0224563 32:0.00149565 33:0.0156325 34:0.00261578 35:0.000424877 36:0.00168449 37:0.00182397 38:0.00723793 39:0.000545044 40:0.0131562 41:0.000126605 42:0.016596 43:0.00449554 44:0.00312864 45:0.00115232 46:0.000766066 47:0.00111155 48:0.00126605 49:0.00197418 50:0.00279174 51:0.00618218 52:0.000570795 53:0.00588391 54:0.00137334 55:0.0068946 56:0.000680233 57:0.000656628 58:0.000502128 59:0.000517149 60:0.0011094 61:0.00104932 62:0.0617638 63:0.0060148 64:0.0028411 
0.07040431163002364 1:0.417415 2:0.42654 3:0.388235 4:0.32549 5:0.0823529 6:0.423529 7:0 8:0 9:1 10:0 11:0 12:1 13:0 14:0 15:0.503937 16:0 17:0.185039 18:0 19:0 20:0 21:0 22:0 23:0 24:0 25:0 26:0 27:0 28:0 29:0 30:0 31:0.00393701 32:0 33:0 34:0 35:0 36:0 37:0 38:0 39:0 40:0.0590551 41:0 42:0 43:0.011811 44:0.011811 45:0 46:0 47:0 48:0 49:0 50:0.019685 51:0 52:0.015748 53:0 54:0 55:0 56:0 57:0 58:0 59:0 60:0 61:0 62:0.129921 63:0.0314961 64:0.015748 
1 1:0.404415 2:0.404935 3:0.379779 4:0.352941 5:0.0666667 6:0.403922 7:0 8:0 9:0.996599 10:0.00340136 11:0 12:1 13:0 14:0 15:0.506803 16:0 17:0.163265 18:0 19:0 20:0 21:0 22:0 23:0 24:0 25:0 26:0 27:0 28:0 29:0 30:0 31:0.0714286 32:0 33:0.00680272 34:0 35:0 36:0 37:0 38:0.00680272 39:0 40:0.0102041 41:0 42:0 43:0 44:0 45:0 46:0 47:0 48:0 49:0 50:0.00340136 51:0 52:0 53:0 54:0 55:0 56:0 57:0 58:0 59:0 60:0 61:0 62:0.204082 63:0.0238095 64:0 
0.1225034532661552 1:0.431224 2:0.42228 3:0.396697 4:0.384314 5:0.0745098 6:0.427451 7:0 8:0 9:1 10:0 11:0 12:1 13:0 14:0 15:0.485804 16:0.0252366 17:0.0536278 18:0 19:0.00315457 20:0.00315457 21:0 22:0.00630915 23:0 24:0 25:0.0126183 26:0.00946372 27:0 28:0.0473186 29:0 30:0.044164 31:0.0347003 32:0.00630915 33:0.0189274 34:0.00315457 35:0.0126183 36:0.00946372 37:0 38:0 39:0 40:0.0347003 41:0.00946372 42:0 43:0.00946372 44:0 45:0.00315457 46:0 47:0 48:0 49:0.00630915 50:0 51:0.00946372 52:0.00315457 53:0 54:0 55:0.0157729 56:0 57:0.00630915 58:0 59:0.00946372 60:0.00630915 61:0.0126183 62:0.0788644 63:0.00630915 64:0.0126183 
0.3439152785635156 1:0.416525 2:0.424423 3:0.384806 4:0.329412 5:0.0941176 6:0.423529 7:0 8:0 9:1 10:0 11:0 12:1 13:0 14:0 15:0.502326 16:0 17:0.181395 18:0 19:0 20:0 21:0 22:0 23:0 24:0.00930233 25:0 26:0 27:0 28:0 29:0 30:0 31:0.0186047 32:0 33:0.00930233 34:0 35:0 36:0 37:0 38:0 39:0 40:0.111628 41:0 42:0 43:0.0186047 44:0.00930233 45:0 46:0 47:0 48:0 49:0 50:0.0232558 51:0 52:0 53:0 54:0 55:0.0418605 56:0 57:0 58:0 59:0 60:0 61:0 62:0.0465116 63:0.0139535 64:0.0139535 
0.1804388777053175 1:0.432097 2:0.424723 3:0.393521 4:0.376471 5:0.0901961 6:0.431373 7:0 8:0 9:1 10:0 11:0 12:1 13:0 14:0 15:0.51087 16:0.00362319 17:0.0108696 18:0.0615942 19:0 20:0 21:0 22:0 23:0 24:0.0507246 25:0.0253623 26:0 27:0 28:0.0181159 29:0 30:0.00362319 31:0.0289855 32:0 33:0.00362319 34:0 35:0 36:0 37:0 38:0 39:0 40:0.0362319 41:0 42:0.0942029 43:0 44:0.00362319 45:0 46:0 47:0 48:0 49:0.0253623 50:0 51:0.00724638 52:0 53:0 54:0 55:0.0253623 56:0 57:0 58:0 59:0 60:0 61:0 62:0.0434783 63:0.0471014 64:0 
0.09589336861162338 1:0.448011 2:0.446583 3:0.408467 4:0.364706 5:0.0862745 6:0.447059 7:0 8:0 9:1 10:0 11:0 12:1 13:0 14:0 15:0.506276 16:0 17:0.0083682 18:0 19:0 20:0.0376569 21:0 22:0 23:0 24:0.0920502 25:0.041841 26:0 27:0 28:0 29:0.0041841 30:0.0083682 31:0.0083682 32:0 33:0.0083682 34:0 35:0 36:0 37:0 38:0 39:0 40:0.0209205 41:0 42:0.0753138 43:0.0041841 44:0 45:0 46:0 47:0 48:0 49:0.0083682 50:0.0041841 51:0 52:0 53:0.0083682 54:0 55:0.0209205 56:0 57:0 58:0 59:0 60:0 61:0 62:0.121339 63:0.0209205 64:0 
1 1:0.445139 2:0.441217 3:0.402002 4:0.364706 5:0.0980392 6:0.443137 7:0 8:0 9:1 10:0 11:0 12:1 13:0 14:0 15:0.5 16:0 17:0.222222 18:0 19:0 20:0.00347222 21:0 22:0 23:0 24:0.0104167 25:0 26:0 27:0 28:0 29:0 30:0 31:0.00347222 32:0 33:0.00347222 34:0 35:0 36:0 37:0 38:0 39:0 40:0 41:0 42:0.0208333 43:0 44:0 45:0 46:0 47:0 48:0 49:0 50:0 51:0.00347222 52:0 53:0 54:0 55:0 56:0 57:0 58:0 59:0 60:0 61:0 62:0.232639 63:0 64:0 
0.5137941697664599 1:0.439389 2:0.435668 3:0.396452 4:0.364706 5:0.0980392 6:0.439216 7:0 8:0 9:1 10:0 11:0 12:1 13:0 14:0 15:0.502326 16:0 17:0.246512 18:0.00232558 19:0 20:0 21:0 22:0 23:0 24:0.00465116 25:0 26:0 27:0 28:0 29:0 30:0 31:0.00232558 32:0 33:0.0232558 34:0 35:0 36:0 37:0 38:0 39:0 40:0 41:0 42:0.0302326 43:0 44:0 45:0 46:0 47:0 48:0 49:0 50:0 51:0 52:0 53:0 54:0 55:0 56:0 57:0 58:0 59:0 60:0 61:0 62:0.188372 63:0 64:0 
1 1:0.397085 2:0.399935 3:0.373478 4:0.352941 5:0.0588235 6:0.396078 7:0 8:0.00328947 9:0.996711 10:0 11:0 12:1 13:0 14:0 15:0.5 16:0 17:0.194079 18:0 19:0 20:0 21:0 22:0 23:0 24:0.0657895 25:0 26:0 27:0 28:0 29:0 30:0.0197368 31:0.0493421 32:0 33:0.00986842 34:0 35:0 36:0 37:0 38:0 39:0 40:0.0888158 41:0 42:0 43:0 44:0 45:0 46:0 47:0 48:0 49:0 50:0 51:0 52:0 53:0 54:0 55:0 56:0 57:0 58:0 59:0 60:0 61:0 62:0.0657895 63:0.00657895 64:0 
1 1:0.38637 2:0.388729 3:0.36487 4:0.333333 5:0.0588235 6:0.388235 7:0 8:0.00699301 9:0.982517 10:0.0104895 11:0 12:1 13:0 14:0 15:0.493007 16:0 17:0.27972 18:0 19:0 20:0 21:0 22:0 23:0 24:0 25:0 26:0 27:0 28:0 29:0 30:0.0034965 31:0.048951 32:0 33:0.013986 34:0 35:0 36:0 37:0 38:0 39:0 40:0.0104895 41:0 42:0 43:0 44:0 45:0 46:0 47:0 48:0 49:0 50:0 51:0 52:0 53:0 54:0 55:0 56:0 57:0 58:0 59:0 60:0 61:0 62:0.15035 63:0 64:0 
0.3390350557669397 1:0.348814 2:0.341638 3:0.322677 4:0.372549 5:0.0666667 6:0.345098 7:0 8:0.0340314 9:0.740838 10:0.225131 11:0 12:1 13:0 14:0 15:0.507853 16:0 17:0.217277 18:0 19:0 20:0 21:0 22:0 23:0 24:0 25:0 26:0 27:0 28:0 29:0 30:0 31:0.0445026 32:0 33:0 34:0 35:0 36:0 37:0 38:0 39:0 40:0.0497382 41:0 42:0 43:0 44:0 45:0 46:0 47:0 48:0 49:0 50:0 51:0 52:0 53:0 54:0 55:0 56:0 57:0 58:0 59:0 60:0 61:0 62:0.180628 63:0 64:0 
1 1:0.416728 2:0.412653 3:0.384865 4:0.368627 5:0.0745098 6:0.415686 7:0 8:0 9:0.988281 10:0.0117188 11:0 12:1 13:0 14:0 15:0.511719 16:0 17:0.117188 18:0.0078125 19:0 20:0 21:0 22:0 23:0 24:0.128906 25:0 26:0 27:0 28:0 29:0 30:0 31:0.0664062 32:0 33:0 34:0 35:0 36:0 37:0 38:0 39:0 40:0.0898438 41:0 42:0.0195312 43:0 44:0 45:0 46:0 47:0 48:0 49:0 50:0 51:0.0390625 52:0 53:0 54:0 55:0 56:0 57:0 58:0 59:0 60:0 61:0 62:0.0195312 63:0 64:0 
1 1:0.400911 2:0.39013 3:0.370214 4:0.396078 5:0.0784314 6:0.4 7:0 8:0 9:0.996255 10:0.00374532 11:0 12:1 13:0 14:0 15:0.498127 16:0 17:0.082397 18:0.00749064 19:0 20:0 21:0 22:0 23:0 24:0.104869 25:0 26:0 27:0 28:0 29:0 30:0 31:0.071161 32:0 33:0 34:0 35:0 36:0 37:0 38:0 39:0 40:0.0674157 41:0 42:0.0374532 43:0 44:0 45:0 46:0 47:0 48:0 49:0 50:0 51:0.0374532 52:0 53:0 54:0 55:0 56:0 57:0 58:0 59:0 60:0 61:0 62:0.093633 63:0 64:0 
1 1:0.429173 2:0.418954 3:0.395186 4:0.392157 5:0.0823529 6:0.427451 7:0 8:0 9:1 10:0 11:0 12:1 13:0 14:0 15:0.512195 16:0 17:0.158537 18:0.0162602 19:0 20:0 21:0 22:0 23:0 24:0 25:0 26:0 27:0 28:0 29:0 30:0 31:0.0934959 32:0 33:0.0406504 34:0 35:0 36:0 37:0 38:0 39:0 40:0 41:0 42:0.00813008 43:0 44:0 45:0 46:0 47:0 48:0 49:0 50:0 51:0 52:0 53:0 54:0 55:0 56:0 57:0 58:0 59:0 60:0 61:0 62:0.170732 63:0 64:0 
1 1:0.423253 2:0.416817 3:0.383446 4:0.364706 5:0.0941176 6:0.419608 7:0 8:0 9:1 10:0 11:0 12:1 13:0 14:0 15:0.490385 16:0 17:0.24359 18:0 19:0 20:0 21:0 22:0 23:0 24:0 25:0 26:0 27:0 28:0 29:0 30:0 31:0.0224359 32:0 33:0 34:0 35:0 36:0 37:0 38:0 39:0 40:0 41:0 42:0 43:0 44:0 45:0 46:0 47:0 48:0 49:0 50:0 51:0 52:0 53:0 54:0 55:0 56:0 57:0 58:0 59:0 60:0 61:0 62:0.24359 63:0 64:0 
1 1:0.401761 2:0.409066 3:0.372785 4:0.32549 5:0.0862745 6:0.407843 7:0 8:0.00623701 9:0.993763 10:0 11:0 12:1 13:0 14:0 15:0.49896 16:0 17:0.243243 18:0.04158 19:0 20:0 21:0 22:0 23:0 24:0.00831601 25:0 26:0 27:0.004158 28:0 29:0 30:0 31:0.024948 32:0 33:0.02079 34:0 35:0 36:0 37:0 38:0 39:0 40:0.035343 41:0 42:0.045738 43:0 44:0 45:0 46:0 47:0 48:0 49:0 50:0 51:0 52:0 53:0 54:0 55:0 56:0 57:0 58:0 59:0 60:0 61:0 62:0.0769231 63:0 64:0 
0.07382646125219973 1:0.377289 2:0.380256 3:0.357397 4:0.352941 5:0.0509804 6:0.376471 7:0 8:0.00869565 9:0.991304 10:0 11:0 12:1 13:0 14:0 15:0.498551 16:0 17:0.142029 18:0 19:0 20:0.0173913 21:0 22:0 23:0 24:0.133333 25:0 26:0 27:0 28:0 29:0 30:0 31:0.0289855 32:0 33:0 34:0 35:0 36:0 37:0 38:0 39:0 40:0.0550725 41:0 42:0.0492754 43:0 44:0 45:0 46:0 47:0 48:0 49:0 50:0 51:0.0115942 52:0 53:0 54:0 55:0 56:0 57:0 58:0 59:0 60:0 61:0 62:0.0637681 63:0 64:0 
0.2548433788101289 1:0.427287 2:0.416708 3:0.393871 4:0.384314 5:0.0745098 6:0.423529 7:0 8:0 9:1 10:0 11:0 12:1 13:0 14:0 15:0.474419 16:0 17:0 18:0 19:0 20:0.0139535 21:0 22:0 23:0 24:0.0883721 25:0 26:0 27:0 28:0 29:0 30:0 31:0.0790698 32:0 33:0 34:0 35:0 36:0 37:0 38:0 39:0 40:0.0511628 41:0 42:0.0418605 43:0.00930233 44:0 45:0 46:0 47:0 48:0 49:0 50:0 51:0.0744186 52:0 53:0 54:0 55:0.0186047 56:0 57:0 58:0 59:0 60:0 61:0 62:0.148837 63:0 64:0 
0.772263018433639 1:0.429366 2:0.422701 3:0.390076 4:0.376471 5:0.0901961 6:0.427451 7:0 8:0 9:1 10:0 11:0 12:1 13:0 14:0 15:0.507042 16:0 17:0.0234742 18:0 19:0 20:0.0187793 21:0 22:0 23:0 24:0.0469484 25:0 26:0 27:0 28:0 29:0 30:0.0187793 31:0.0938967 32:0 33:0 34:0 35:0 36:0 37:0 38:0 39:0 40:0.0140845 41:0 42:0.0469484 43:0.0187793 44:0 45:0 46:0 47:0 48:0 49:0 50:0 51:0.028169 52:0 53:0 54:0 55:0.0234742 56:0 57:0 58:0 59:0 60:0 61:0 62:0.159624 63:0 64:0 
1 1:0.425932 2:0.416713 3:0.390555 4:0.380392 5:0.0823529 6:0.423529 7:0 8:0 9:1 10:0 11:0 12:1 13:0 14:0 15:0.502618 16:0 17:0.0680628 18:0.052356 19:0 20:0 21:0 22:0 23:0 24:0.0052356 25:0 26:0 27:0 28:0 29:0 30:0 31:0.109948 32:0 33:0.0157068 34:0 35:0 36:0 37:0 38:0 39:0 40:0 41:0 42:0.0994764 43:0 44:0 45:0 46:0 47:0 48:0 49:0 50:0 51:0.0157068 52:0 53:0 54:0 55:0 56:0 57:0 58:0 59:0 60:0 61:0 62:0.13089 63:0 64:0 
1 1:0.397303 2:0.400751 3:0.366435 4:0.341176 5:0.0901961 6:0.4 7:0 8:0.00524934 9:0.994751 10:0 11:0 12:1 13:0 14:0 15:0.503937 16:0 17:0.456693 18:0.00262467 19:0 20:0 21:0 22:0 23:0 24:0 25:0 26:0 27:0 28:0 29:0 30:0 31:0 32:0 33:0.00262467 34:0 35:0 36:0 37:0 38:0 39:0 40:0 41:0 42:0.00787402 43:0 44:0 45:0 46:0 47:0 48:0 49:0 50:0 51:0 52:0 53:0 54:0 55:0 56:0 57:0 58:0 59:0 60:0 61:0 62:0.0262467 63:0 64:0 
1 1:0.406517 2:0.399715 3:0.375501 4:0.384314 5:0.0784314 6:0.403922 7:0 8:0 9:1 10:0 11:0 12:1 13:0 14:0 15:0.516364 16:0 17:0.269091 18:0 19:0 20:0 21:0 22:0 23:0 24:0.0327273 25:0 26:0 27:0 28:0 29:0 30:0 31:0.00727273 32:0 33:0 34:0 35:0 36:0 37:0 38:0 39:0 40:0 41:0 42:0.04 43:0 44:0 45:0 46:0 47:0 48:0 49:0 50:0 51:0.0290909 52:0 53:0 54:0 55:0 56:0 57:0 58:0 59:0 60:0 61:0 62:0.105455 63:0 64:0 
1 1:0.387977 2:0.376881 3:0.356118 4:0.384314 5:0.0823529 6:0.384314 7:0 8:0 9:1 10:0 11:0 12:1 13:0 14:0 15:0.492248 16:0 17:0.27907 18:0.00387597 19:0 20:0 21:0 22:0 23:0 24:0.00387597 25:0 26:0 27:0 28:0 29:0 30:0 31:0.0503876 32:0 33:0 34:0 35:0 36:0 37:0 38:0 39:0 40:0 41:0 42:0.0116279 43:0 44:0 45:0 46:0 47:0 48:0 49:0 50:0 51:0.0232558 52:0 53:0 54:0 55:0 56:0 57:0 58:0 59:0 60:0 61:0 62:0.135659 63:0 64:0 
0.3877512295639899 1:0.384254 2:0.385417 3:0.361346 4:0.333333 5:0.0627451 6:0.384314 7:0 8:0.00255754 9:0.997442 10:0 11:0 12:1 13:0 14:0 15:0.498721 16:0 17:0.209719 18:0 19:0 20:0.0179028 21:0 22:0 23:0 24:0.0741688 25:0 26:0 27:0 28:0 29:0 30:0 31:0 32:0 33:0 34:0 35:0 36:0 37:0 38:0 39:0 40:0.00767263 41:0 42:0.0332481 43:0 44:0 45:0 46:0 47:0 48:0 49:0 50:0 51:0.0255754 52:0 53:0 54:0 55:0 56:0 57:0 58:0 59:0 60:0 61:0 62:0.132992 63:0 64:0 
1 1:0.41145 2:0.410046 3:0.37047 4:0.352941 5:0.0980392 6:0.407843 7:0 8:0 9:1 10:0 11:0 12:1 13:0 14:0 15:0.507163 16:0 17:0.383954 18:0 19:0 20:0 21:0 22:0 23:0 24:0 25:0 26:0 27:0 28:0 29:0 30:0 31:0 32:0 33:0.0143266 34:0 35:0 36:0 37:0 38:0 39:0 40:0 41:0 42:0 43:0 44:0 45:0 46:0 47:0 48:0 49:0 50:0 51:0 52:0 53:0 54:0 55:0 56:0 57:0 58:0 59:0 60:0 61:0 62:0.0945559 63:0 64:0 
1 1:0.408806 2:0.410014 3:0.38027 4:0.352941 5:0.0784314 6:0.407843 7:0 8:0.0758929 9:0.924107 10:0 11:0 12:1 13:0 14:0 15:0.495536 16:0 17:0.303571 18:0 19:0 20:0 21:0 22:0 23:0 24:0.0178571 25:0 26:0 27:0 28:0 29:0 30:0 31:0 32:0 33:0 34:0 35:0 36:0 37:0 38:0 39:0 40:0 41:0 42:0.0357143 43:0 44:0 45:0 46:0 47:0 48:0 49:0 50:0 51:0.0133929 52:0 53:0 54:0 55:0 56:0 57:0 58:0 59:0 60:0 61:0 62:0.133929 63:0 64:0 
1 1:0.408872 2:0.402976 3:0.368544 4:0.372549 5:0.105882 6:0.407843 7:0 8:0 9:1 10:0 11:0 12:1 13:0 14:0 15:0.510638 16:0 17:0.489362 18:0 19:0 20:0 21:0 22:0 23:0 24:0 25:0 26:0 27:0 28:0 29:0 30:0 31:0 32:0 33:0 34:0 35:0 36:0 37:0 38:0 39:0 40:0 41:0 42:0 43:0 44:0 45:0 46:0 47:0 48:0 49:0 50:0 51:0 52:0 53:0 54:0 55:0 56:0 57:0 58:0 59:0 60:0 61:0 62:0 63:0 64:0 
1 1:0.396853 2:0.402595 3:0.366221 4:0.341176 5:0.0901961 6:0.4 7:0 8:0 9:1 10:0 11:0 12:1 13:0 14:0 15:0.488024 16:0 17:0.386228 18:0 19:0 20:0 21:0 22:0 23:0 24:0 25:0 26:0 27:0 28:0 29:0 30:0 31:0 32:0 33:0 34:0 35:0 36:0 37:0 38:0 39:0 40:0 41:0 42:0 43:0 44:0 45:0 46:0 47:0 48:0 49:0 50:0 51:0 52:0 53:0 54:0 55:0 56:0 57:0 58:0 59:0 60:0 61:0 62:0.125749 63:0 64:0 
1 1:0.377072 2:0.382131 3:0.35902 4:0.333333 5:0.0627451 6:0.380392 7:0 8:0 9:1 10:0 11:0 12:1 13:0 14:0 15:0.5 16:0 17:0.363333 18:0 19:0 20:0.0133333 21:0 22:0 23:0 24:0.0233333 25:0 26:0 27:0 28:0 29:0 30:0 31:0 32:0 33:0 34:0 35:0 36:0 37:0 38:0 39:0 40:0 41:0 42:0.0266667 43:0 44:0 45:0 46:0 47:0 48:0 49:0 50:0 51:0.00333333 52:0 53:0 54:0 55:0 56:0 57:0 58:0 59:0 60:0 61:0 62:0.07 63:0 64:0 
1 1:0.418515 2:0.413142 3:0.375857 4:0.364706 5:0.101961 6:0.415686 7:0 8:0 9:1 10:0 11:0 12:1 13:0 14:0 15:0.496183 16:0 17:0.473282 18:0 19:0 20:0 21:0 22:0 23:0 24:0 25:0 26:0 27:0 28:0 29:0 30:0 31:0 32:0 33:0 34:0 35:0 36:0 37:0 38:0 39:0 40:0 41:0 42:0 43:0 44:0 45:0 46:0 47:0 48:0 49:0 50:0 51:0 52:0 53:0 54:0 55:0 56:0 57:0 58:0 59:0 60:0 61:0 62:0.0305344 63:0 64:0 
1 1:0.408918 2:0.397153 3:0.377545 4:0.396078 5:0.0784314 6:0.407843 7:0 8:0 9:1 10:0 11:0 12:1 13:0 14:0 15:0.508897 16:0 17:0.3879 18:0 19:0 20:0 21:0 22:0 23:0 24:0 25:0 26:0 27:0 28:0 29:0 30:0 31:0 32:0 33:0 34:0 35:0 36:0 37:0 38:0 39:0 40:0 41:0 42:0 43:0 44:0 45:0 46:0 47:0 48:0 49:0 50:0 51:0 52:0 53:0 54:0 55:0 56:0 57:0 58:0 59:0 60:0 61:0 62:0.103203 63:0 64:0 
1 1:0.41451 2:0.404012 3:0.381071 4:0.384314 5:0.0745098 6:0.411765 7:0 8:0 9:1 10:0 11:0 12:1 13:0 14:0 15:0.507692 16:0 17:0.434615 18:0 19:0 20:0 21:0 22:0 23:0 24:0 25:0 26:0 27:0 28:0 29:0 30:0 31:0 32:0 33:0 34:0 35:0 36:0 37:0 38:0 39:0 40:0 41:0 42:0 43:0 44:0 45:0 46:0 47:0 48:0 49:0 50:0 51:0 52:0 53:0 54:0 55:0 56:0 57:0 58:0 59:0 60:0 61:0 62:0.0576923 63:0 64:0 
1 1:0.407407 2:0.399162 3:0.370488 4:0.380392 5:0.0862745 6:0.403922 7:0 8:0 9:1 10:0 11:0 12:1 13:0 14:0 15:0.487179 16:0 17:0.482906 18:0 19:0 20:0 21:0 22:0 23:0 24:0 25:0 26:0 27:0 28:0 29:0 30:0 31:0 32:0 33:0 34:0 35:0 36:0 37:0 38:0 39:0 40:0 41:0 42:0 43:0 44:0 45:0 46:0 47:0 48:0 49:0 50:0 51:0 52:0 53:0 54:0 55:0 56:0 57:0 58:0 59:0 60:0 61:0 62:0.0299145 63:0 64:0 
1 1:0.401038 2:0.391173 3:0.366728 4:0.392157 5:0.0901961 6:0.4 7:0 8:0 9:1 10:0 11:0 12:1 13:0 14:0 15:0.498258 16:0 17:0.498258 18:0 19:0 20:0 21:0 22:0 23:0 24:0 25:0 26:0 27:0 28:0 29:0 30:0 31:0 32:0 33:0 34:0 35:0 36:0 37:0 38:0 39:0 40:0 41:0 42:0 43:0 44:0 45:0 46:0 47:0 48:0 49:0 50:0 51:0 52:0 53:0 54:0 55:0 56:0 57:0 58:0 59:0 60:0 61:0 62:0.00348432 63:0 64:0 
1 1:0.388235 2:0.378547 3:0.357472 4:0.396078 5:0.0823529 6:0.388235 7:0 8:0 9:1 10:0 11:0 12:1 13:0 14:0 15:0.504202 16:0 17:0.445378 18:0 19:0 20:0 21:0 22:0 23:0 24:0 25:0 26:0 27:0 28:0 29:0 30:0 31:0 32:0 33:0 34:0 35:0 36:0 37:0 38:0 39:0 40:0 41:0 42:0 43:0 44:0 45:0 46:0 47:0 48:0 49:0 50:0 51:0 52:0 53:0 54:0 55:0 56:0 57:0 58:0 59:0 60:0 61:0 62:0.0504202 63:0 64:0 
1 1:0.388511 2:0.387978 3:0.357295 4:0.368627 5:0.0823529 6:0.388235 7:0 8:0 9:0.995305 10:0.00469484 11:0 12:1 13:0 14:0 15:0.492958 16:0 17:0.504695 18:0 19:0 20:0 21:0 22:0 23:0 24:0 25:0 26:0 27:0 28:0 29:0 30:0 31:0 32:0 33:0.00234742 34:0 35:0 36:0 37:0 38:0 39:0 40:0 41:0 42:0 43:0 44:0 45:0 46:0 47:0 48:0 49:0 50:0 51:0 52:0 53:0 54:0 55:0 56:0 57:0 58:0 59:0 60:0 61:0 62:0 63:0 64:0 
1 1:0.354116 2:0.36196 3:0.33843 4:0.313726 5:0.0666667 6:0.360784 7:0 8:0 9:1 10:0 11:0 12:1 13:0 14:0 15:0.498423 16:0 17:0.501577 18:0 19:0 20:0 21:0 22:0 23:0 24:0 25:0 26:0 27:0 28:0 29:0 30:0 31:0 32:0 33:0 34:0 35:0 36:0 37:0 38:0 39:0 40:0 41:0 42:0 43:0 44:0 45:0 46:0 47:0 48:0 49:0 50:0 51:0 52:0 53:0 54:0 55:0 56:0 57:0 58:0 59:0 60:0 61:0 62:0 63:0 64:0 
1 1:0.368822 2:0.375518 3:0.352091 4:0.333333 5:0.0627451 6:0.372549 7:0 8:0 9:1 10:0 11:0 12:1 13:0 14:0 15:0.516971 16:0 17:0.483029 18:0 19:0 20:0 21:0 22:0 23:0 24:0 25:0 26:0 27:0 28:0 29:0 30:0 31:0 32:0 33:0 34:0 35:0 36:0 37:0 38:0 39:0 40:0 41:0 42:0 43:0 44:0 45:0 46:0 47:0 48:0 49:0 50:0 51:0 52:0 53:0 54:0 55:0 56:0 57:0 58:0 59:0 60:0 61:0 62:0 63:0 64:0 
1 1:0.358731 2:0.365648 3:0.342242 4:0.313726 5:0.0627451 6:0.364706 7:0 8:0 9:1 10:0 11:0 12:1 13:0 14:0 15:0.492126 16:0 17:0.507874 18:0 19:0 20:0 21:0 22:0 23:0 24:0 25:0 26:0 27:0 28:0 29:0 30:0 31:0 32:0 33:0 34:0 35:0 36:0 37:0 38:0 39:0 40:0 41:0 42:0 43:0 44:0 45:0 46:0 47:0 48:0 49:0 50:0 51:0 52:0 53:0 54:0 55:0 56:0 57:0 58:0 59:0 60:0 61:0 62:0 63:0 64:0 
1 1:0.393137 2:0.381373 3:0.361765 4:0.396078 5:0.0784314 6:0.392157 7:0 8:0 9:1 10:0 11:0 12:1 13:0 14:0 15:0.481343 16:0 17:0.496269 18:0 19:0 20:0 21:0 22:0 23:0 24:0 25:0 26:0 27:0 28:0 29:0 30:0 31:0 32:0 33:0 34:0 35:0 36:0 37:0 38:0 39:0 40:0 41:0 42:0 43:0 44:0 45:0 46:0 47:0 48:0 49:0 50:0 51:0 52:0 53:0 54:0 55:0 56:0 57:0 58:0 59:0 60:0 61:0 62:0.0223881 63:0 64:0 
1 1:0.377989 2:0.382703 3:0.356242 4:0.337255 5:0.0705882 6:0.380392 7:0 8:0 9:1 10:0 11:0 12:1 13:0 14:0 15:0.498316 16:0 17:0.481481 18:0 19:0 20:0 21:0 22:0 23:0 24:0 25:0 26:0 27:0 28:0 29:0 30:0 31:0 32:0 33:0 34:0 35:0 36:0 37:0 38:0 39:0 40:0 41:0 42:0 43:0 44:0 45:0 46:0 47:0 48:0 49:0 50:0 51:0 52:0 53:0 54:0 55:0 56:0 57:0 58:0 59:0 60:0 61:0 62:0.020202 63:0 64:0 
1 1:0.387845 2:0.383761 3:0.362442 4:0.372549 5:0.0627451 6:0.384314 7:0 8:0 9:1 10:0 11:0 12:1 13:0 14:0 15:0.483425 16:0 17:0.516575 18:0 19:0 20:0 21:0 22:0 23:0 24:0 25:0 26:0 27:0 28:0 29:0 30:0 31:0 32:0 33:0 34:0 35:0 36:0 37:0 38:0 39:0 40:0 41:0 42:0 43:0 44:0 45:0 46:0 47:0 48:0 49:0 50:0 51:0 52:0 53:0 54:0 55:0 56:0 57:0 58:0 59:0 60:0 61:0 62:0 63:0 64:0 
1 1:0.402697 2:0.397925 3:0.37396 4:0.368627 5:0.0705882 6:0.4 7:0 8:0 9:1 10:0 11:0 12:1 13:0 14:0 15:0.513228 16:0 17:0.470899 18:0 19:0 20:0 21:0 22:0 23:0 24:0 25:0 26:0 27:0 28:0 29:0 30:0 31:0 32:0 33:0.015873 34:0 35:0 36:0 37:0 38:0 39:0 40:0 41:0 42:0 43:0 44:0 45:0 46:0 47:0 48:0 49:0 50:0 51:0 52:0 53:0 54:0 55:0 56:0 57:0 58:0 59:0 60:0 61:0 62:0 63:0 64:0 
1 1:0.390019 2:0.381792 3:0.360369 4:0.384314 5:0.0823529 6:0.388235 7:0 8:0.027451 9:0.972549 10:0 11:0 12:1 13:0 14:0 15:0.490196 16:0 17:0.509804 18:0 19:0 20:0 21:0 22:0 23:0 24:0 25:0 26:0 27:0 28:0 29:0 30:0 31:0 32:0 33:0 34:0 35:0 36:0 37:0 38:0 39:0 40:0 41:0 42:0 43:0 44:0 45:0 46:0 47:0 48:0 49:0 50:0 51:0 52:0 53:0 54:0 55:0 56:0 57:0 58:0 59:0 60:0 61:0 62:0 63:0 64:0 
1 1:0.38724 2:0.378352 3:0.35804 4:0.388235 5:0.0705882 6:0.384314 7:0 8:0.00619195 9:0.993808 10:0 11:0 12:1 13:0 14:0 15:0.510836 16:0 17:0.489164 18:0 19:0 20:0 21:0 22:0 23:0 24:0 25:0 26:0 27:0 28:0 29:0 30:0 31:0 32:0 33:0 34:0 35:0 36:0 37:0 38:0 39:0 40:0 41:0 42:0 43:0 44:0 45:0 46:0 47:0 48:0 49:0 50:0 51:0 52:0 53:0 54:0 55:0 56:0 57:0 58:0 59:0 60:0 61:0 62:0 63:0 64:0 
1 1:0.40433 2:0.392565 3:0.372957 4:0.396078 5:0.0784314 6:0.403922 7:0 8:0 9:1 10:0 11:0 12:1 13:0 14:0 15:0.498141 16:0 17:0.486989 18:0 19:0 20:0 21:0 22:0 23:0 24:0 25:0 26:0 27:0 28:0 29:0 30:0 31:0 32:0 33:0 34:0 35:0 36:0 37:0 38:0 39:0 40:0 41:0 42:0 43:0 44:0 45:0 46:0 47:0 48:0 49:0 50:0 51:0 52:0 53:0 54:0 55:0 56:0 57:0 58:0 59:0 60:0 61:0 62:0.0148699 63:0 64:0 
1 1:0.401828 2:0.390273 3:0.370065 4:0.396078 5:0.0784314 6:0.4 7:0 8:0 9:1 10:0 11:0 12:1 13:0 14:0 15:0.508897 16:0 17:0.480427 18:0 19:0 20:0 21:0 22:0 23:0 24:0 25:0 26:0 27:0 28:0 29:0 30:0 31:0 32:0 33:0 34:0 35:0 36:0 37:0 38:0 39:0 40:0 41:0 42:0 43:0 44:0 45:0 46:0 47:0 48:0 49:0 50:0 51:0 52:0 53:0 54:0 55:0 56:0 57:0 58:0 59:0 60:0 61:0 62:0.0106762 63:0 64:0 
1 1:0.376046 2:0.379309 3:0.355517 4:0.333333 5:0.0627451 6:0.376471 7:0 8:0.011194 9:0.988806 10:0 11:0 12:1 13:0 14:0 15:0.496269 16:0 17:0.339552 18:0 19:0 20:0 21:0 22:0 23:0 24:0 25:0 26:0 27:0 28:0 29:0 30:0 31:0.0298507 32:0 33:0.0485075 34:0 35:0 36:0 37:0 38:0 39:0 40:0 41:0 42:0 43:0 44:0 45:0 46:0 47:0 48:0 49:0 50:0 51:0 52:0 53:0 54:0 55:0 56:0 57:0 58:0 59:0 60:0 61:0 62:0.0820896 63:0.00373134 64:0 
1 1:0.403704 2:0.391939 3:0.372331 4:0.396078 5:0.0784314 6:0.4 7:0 8:0 9:1 10:0 11:0 12:1 13:0 14:0 15:0.511905 16:0 17:0.468254 18:0 19:0 20:0 21:0 22:0 23:0 24:0 25:0 26:0 27:0 28:0 29:0 30:0 31:0 32:0 33:0 34:0 35:0 36:0 37:0 38:0 39:0 40:0 41:0 42:0 43:0 44:0 45:0 46:0 47:0 48:0 49:0 50:0 51:0 52:0 53:0 54:0 55:0 56:0 57:0 58:0 59:0 60:0 61:0 62:0.0198413 63:0 64:0 
1 1:0.393935 2:0.385108 3:0.364912 4:0.388235 5:0.0705882 6:0.392157 7:0 8:0 9:1 10:0 11:0 12:1 13:0 14:0 15:0.48583 16:0 17:0.408907 18:0 19:0 20:0 21:0 22:0 23:0 24:0 25:0 26:0 27:0 28:0 29:0 30:0 31:0 32:0 33:0.00809717 34:0 35:0 36:0 37:0 38:0 39:0 40:0 41:0 42:0 43:0 44:0 45:0 46:0 47:0 48:0 49:0 50:0 51:0 52:0 53:0 54:0 55:0 56:0 57:0 58:0 59:0 60:0 61:0 62:0.097166 63:0 64:0 
1 1:0.388811 2:0.391126 3:0.35887 4:0.352941 5:0.0823529 6:0.388235 7:0 8:0 9:1 10:0 11:0 12:1 13:0 14:0 15:0.498294 16:0 17:0.348123 18:0 19:0 20:0 21:0 22:0 23:0 24:0 25:0 26:0 27:0 28:0 29:0 30:0 31:0.0102389 32:0 33:0.0477816 34:0 35:0 36:0 37:0 38:0 39:0 40:0 41:0 42:0 43:0 44:0 45:0 46:0 47:0 48:0 49:0 50:0 51:0 52:0 53:0 54:0 55:0 56:0 57:0 58:0 59:0 60:0 61:0 62:0.0955631 63:0 64:0 
1 1:0.39235 2:0.393629 3:0.360495 4:0.352941 5:0.0901961 6:0.392157 7:0 8:0.0350877 9:0.964912 10:0 11:0 12:1 13:0 14:0 15:0.501754 16:0 17:0.34386 18:0 19:0 20:0 21:0 22:0 23:0 24:0 25:0 26:0 27:0 28:0 29:0 30:0 31:0 32:0 33:0.0526316 34:0 35:0 36:0 37:0 38:0 39:0 40:0 41:0 42:0 43:0 44:0 45:0 46:0 47:0 48:0 49:0 50:0 51:0 52:0 53:0 54:0 55:0 56:0 57:0 58:0 59:0 60:0 61:0 62:0.101754 63:0 64:0 
1 1:0.385645 2:0.383446 3:0.35628 4:0.368627 5:0.0823529 6:0.384314 7:0 8:0 9:1 10:0 11:0 12:1 13:0 14:0 15:0.506061 16:0 17:0.372727 18:0 19:0 20:0 21:0 22:0 23:0 24:0 25:0 26:0 27:0 28:0 29:0 30:0 31:0 32:0 33:0.030303 34:0 35:0 36:0 37:0 38:0 39:0 40:0 41:0 42:0 43:0 44:0 45:0 46:0 47:0 48:0 49:0 50:0 51:0 52:0 53:0 54:0 55:0 56:0 57:0 58:0 59:0 60:0 61:0 62:0.0909091 63:0 64:0 
1 1:0.379396 2:0.376852 3:0.355358 4:0.352941 5:0.0627451 6:0.376471 7:0 8:0 9:1 10:0 11:0 12:1 13:0 14:0 15:0.513514 16:0 17:0.324324 18:0 19:0 20:0 21:0 22:0 23:0 24:0 25:0 26:0 27:0 28:0 29:0 30:0 31:0 32:0 33:0.027027 34:0 35:0 36:0 37:0 38:0 39:0 40:0 41:0 42:0 43:0 44:0 45:0 46:0 47:0 48:0 49:0 50:0 51:0 52:0 53:0 54:0 55:0 56:0 57:0 58:0 59:0 60:0 61:0 62:0.135135 63:0 64:0 
1 1:0.368377 2:0.367543 3:0.345617 4:0.352941 5:0.054902 6:0.364706 7:0 8:0.00472813 9:0.995272 10:0 11:0 12:1 13:0 14:0 15:0.501182 16:0 17:0.498818 18:0 19:0 20:0 21:0 22:0 23:0 24:0 25:0 26:0 27:0 28:0 29:0 30:0 31:0 32:0 33:0 34:0 35:0 36:0 37:0 38:0 39:0 40:0 41:0 42:0 43:0 44:0 45:0 46:0 47:0 48:0 49:0 50:0 51:0 52:0 53:0 54:0 55:0 56:0 57:0 58:0 59:0 60:0 61:0 62:0 63:0 64:0 
1 1:0.346012 2:0.353855 3:0.330326 4:0.313726 5:0.0666667 6:0.352941 7:0 8:0 9:1 10:0 11:0 12:1 13:0 14:0 15:0.502427 16:0 17:0.497573 18:0 19:0 20:0 21:0 22:0 23:0 24:0 25:0 26:0 27:0 28:0 29:0 30:0 31:0 32:0 33:0 34:0 35:0 36:0 37:0 38:0 39:0 40:0 41:0 42:0 43:0 44:0 45:0 46:0 47:0 48:0 49:0 50:0 51:0 52:0 53:0 54:0 55:0 56:0 57:0 58:0 59:0 60:0 61:0 62:0 63:0 64:0 
1 1:0.356421 2:0.358846 3:0.336201 4:0.333333 5:0.0666667 6:0.356863 7:0 8:0.00289017 9:0.99711 10:0 11:0 12:1 13:0 14:0 15:0.50578 16:0 17:0.49422 18:0 19:0 20:0 21:0 22:0 23:0 24:0 25:0 26:0 27:0 28:0 29:0 30:0 31:0 32:0 33:0 34:0 35:0 36:0 37:0 38:0 39:0 40:0 41:0 42:0 43:0 44:0 45:0 46:0 47:0 48:0 49:0 50:0 51:0 52:0 53:0 54:0 55:0 56:0 57:0 58:0 59:0 60:0 61:0 62:0 63:0 64:0 
1 1:0.346598 2:0.354356 3:0.330826 4:0.313726 5:0.0666667 6:0.352941 7:0 8:0 9:1 10:0 11:0 12:1 13:0 14:0 15:0.497268 16:0 17:0.502732 18:0 19:0 20:0 21:0 22:0 23:0 24:0 25:0 26:0 27:0 28:0 29:0 30:0 31:0 32:0 33:0 34:0 35:0 36:0 37:0 38:0 39:0 40:0 41:0 42:0 43:0 44:0 45:0 46:0 47:0 48:0 49:0 50:0 51:0 52:0 53:0 54:0 55:0 56:0 57:0 58:0 59:0 60:0 61:0 62:0 63:0 64:0 
1 1:0.374368 2:0.364288 3:0.344303 4:0.396078 5:0.0823529 6:0.372549 7:0 8:0 9:1 10:0 11:0 12:1 13:0 14:0 15:0.491409 16:0 17:0.457045 18:0 19:0 20:0 21:0 22:0 23:0 24:0 25:0 26:0 27:0 28:0 29:0 30:0 31:0 32:0 33:0.0206186 34:0 35:0 36:0 37:0 38:0 39:0 40:0 41:0 42:0 43:0 44:0 45:0 46:0 47:0 48:0 49:0 50:0 51:0 52:0 53:0 54:0 55:0 56:0 57:0 58:0 59:0 60:0 61:0 62:0.0309278 63:0 64:0 
1 1:0.362641 2:0.370915 3:0.346777 4:0.313726 5:0.0627451 6:0.368627 7:0 8:0.132576 9:0.867424 10:0 11:0 12:1 13:0 14:0 15:0.507576 16:0 17:0.492424 18:0 19:0 20:0 21:0 22:0 23:0 24:0 25:0 26:0 27:0 28:0 29:0 30:0 31:0 32:0 33:0 34:0 35:0 36:0 37:0 38:0 39:0 40:0 41:0 42:0 43:0 44:0 45:0 46:0 47:0 48:0 49:0 50:0 51:0 52:0 53:0 54:0 55:0 56:0 57:0 58:0 59:0 60:0 61:0 62:0 63:0 64:0 
1 1:0.348028 2:0.354137 3:0.330811 4:0.313726 5:0.0666667 6:0.352941 7:0 8:0.00371747 9:0.996283 10:0 11:0 12:1 13:0 14:0 15:0.494424 16:0 17:0.505576 18:0 19:0 20:0 21:0 22:0 23:0 24:0 25:0 26:0 27:0 28:0 29:0 30:0 31:0 32:0 33:0 34:0 35:0 36:0 37:0 38:0 39:0 40:0 41:0 42:0 43:0 44:0 45:0 46:0 47:0 48:0 49:0 50:0 51:0 52:0 53:0 54:0 55:0 56:0 57:0 58:0 59:0 60:0 61:0 62:0 63:0 64:0 
1 1:0.389052 2:0.377288 3:0.35768 4:0.396078 5:0.0823529 6:0.388235 7:0 8:0 9:1 10:0 11:0 12:1 13:0 14:0 15:0.493056 16:0 17:0.333333 18:0 19:0 20:0 21:0 22:0 23:0 24:0 25:0 26:0 27:0 28:0 29:0 30:0 31:0 32:0 33:0.00347222 34:0 35:0 36:0 37:0 38:0 39:0 40:0 41:0 42:0 43:0 44:0 45:0 46:0 47:0 48:0 49:0 50:0 51:0 52:0 53:0 54:0 55:0 56:0 57:0 58:0 59:0 60:0 61:0 62:0.170139 63:0 64:0 
1 1:0.37533 2:0.371089 3:0.34635 4:0.368627 5:0.0745098 6:0.372549 7:0 8:0 9:0.978723 10:0.0212766 11:0 12:1 13:0 14:0 15:0.492908 16:0 17:0.269504 18:0 19:0 20:0 21:0 22:0 23:0 24:0 25:0 26:0 27:0 28:0 29:0 30:0 31:0.0070922 32:0 33:0.0673759 34:0 35:0 36:0 37:0 38:0 39:0 40:0 41:0 42:0 43:0 44:0 45:0 46:0 47:0 48:0 49:0 50:0 51:0 52:0 53:0 54:0 55:0 56:0 57:0 58:0 59:0 60:0 61:0 62:0.163121 63:0 64:0 
1 1:0.35978 2:0.369 3:0.344563 4:0.301961 5:0.0745098 6:0.368627 7:0 8:0.119835 9:0.880165 10:0 11:0 12:1 13:0 14:0 15:0.504132 16:0 17:0.495868 18:0 19:0 20:0 21:0 22:0 23:0 24:0 25:0 26:0 27:0 28:0 29:0 30:0 31:0 32:0 33:0 34:0 35:0 36:0 37:0 38:0 39:0 40:0 41:0 42:0 43:0 44:0 45:0 46:0 47:0 48:0 49:0 50:0 51:0 52:0 53:0 54:0 55:0 56:0 57:0 58:0 59:0 60:0 61:0 62:0 63:0 64:0 
1 1:0.369323 2:0.371545 3:0.347748 4:0.352941 5:0.0627451 6:0.368627 7:0 8:0.00341297 9:0.996587 10:0 11:0 12:1 13:0 14:0 15:0.491468 16:0 17:0.508532 18:0 19:0 20:0 21:0 22:0 23:0 24:0 25:0 26:0 27:0 28:0 29:0 30:0 31:0 32:0 33:0 34:0 35:0 36:0 37:0 38:0 39:0 40:0 41:0 42:0 43:0 44:0 45:0 46:0 47:0 48:0 49:0 50:0 51:0 52:0 53:0 54:0 55:0 56:0 57:0 58:0 59:0 60:0 61:0 62:0 63:0 64:0 
1 1:0.358279 2:0.361165 3:0.338475 4:0.333333 5:0.0666667 6:0.360784 7:0 8:0.00334448 9:0.996656 10:0 11:0 12:1 13:0 14:0 15:0.488294 16:0 17:0.511706 18:0 19:0 20:0 21:0 22:0 23:0 24:0 25:0 26:0 27:0 28:0 29:0 30:0 31:0 32:0 33:0 34:0 35:0 36:0 37:0 38:0 39:0 40:0 41:0 42:0 43:0 44:0 45:0 46:0 47:0 48:0 49:0 50:0 51:0 52:0 53:0 54:0 55:0 56:0 57:0 58:0 59:0 60:0 61:0 62:0 63:0 64:0 
1 1:0.376653 2:0.36542 3:0.344414 4:0.392157 5:0.0941176 6:0.376471 7:0 8:0 9:1 10:0 11:0 12:1 13:0 14:0 15:0.5 16:0 17:0.496124 18:0 19:0 20:0 21:0 22:0 23:0 24:0 25:0 26:0 27:0 28:0 29:0 30:0 31:0 32:0 33:0.00387597 34:0 35:0 36:0 37:0 38:0 39:0 40:0 41:0 42:0 43:0 44:0 45:0 46:0 47:0 48:0 49:0 50:0 51:0 52:0 53:0 54:0 55:0 56:0 57:0 58:0 59:0 60:0 61:0 62:0 63:0 64:0 
1 1:0.377639 2:0.370213 3:0.349645 4:0.388235 5:0.0745098 6:0.376471 7:0 8:0.0283688 9:0.971631 10:0 11:0 12:1 13:0 14:0 15:0.503546 16:0 17:0.460993 18:0 19:0 20:0 21:0 22:0 23:0 24:0 25:0 26:0 27:0 28:0 29:0 30:0 31:0 32:0 33:0 34:0 35:0 36:0 37:0 38:0 39:0 40:0 41:0 42:0 43:0 44:0 45:0 46:0 47:0 48:0 49:0 50:0 51:0 52:0 53:0 54:0 55:0 56:0 57:0 58:0 59:0 60:0 61:0 62:0.035461 63:0 64:0 
1 1:0.384039 2:0.372275 3:0.352667 4:0.396078 5:0.0823529 6:0.380392 7:0 8:0 9:1 10:0 11:0 12:1 13:0 14:0 15:0.496667 16:0 17:0.47 18:0 19:0 20:0 21:0 22:0 23:0 24:0 25:0 26:0 27:0 28:0 29:0 30:0 31:0 32:0 33:0 34:0 35:0 36:0 37:0 38:0 39:0 40:0 41:0 42:0 43:0 44:0 45:0 46:0 47:0 48:0 49:0 50:0 51:0 52:0 53:0 54:0 55:0 56:0 57:0 58:0 59:0 60:0 61:0 62:0.0333333 63:0 64:0 
1 1:0.377025 2:0.368834 3:0.348259 4:0.384314 5:0.0823529 6:0.376471 7:0 8:0.0110803 9:0.98892 10:0 11:0 12:1 13:0 14:0 15:0.515235 16:0 17:0.484765 18:0 19:0 20:0 21:0 22:0 23:0 24:0 25:0 26:0 27:0 28:0 29:0 30:0 31:0 32:0 33:0 34:0 35:0 36:0 37:0 38:0 39:0 40:0 41:0 42:0 43:0 44:0 45:0 46:0 47:0 48:0 49:0 50:0 51:0 52:0 53:0 54:0 55:0 56:0 57:0 58:0 59:0 60:0 61:0 62:0 63:0 64:0 
1 1:0.364473 2:0.352708 3:0.3331 4:0.396078 5:0.0862745 6:0.360784 7:0 8:0 9:1 10:0 11:0 12:1 13:0 14:0 15:0.502703 16:0 17:0.497297 18:0 19:0 20:0 21:0 22:0 23:0 24:0 25:0 26:0 27:0 28:0 29:0 30:0 31:0 32:0 33:0 34:0 35:0 36:0 37:0 38:0 39:0 40:0 41:0 42:0 43:0 44:0 45:0 46:0 47:0 48:0 49:0 50:0 51:0 52:0 53:0 54:0 55:0 56:0 57:0 58:0 59:0 60:0 61:0 62:0 63:0 64:0 
1 1:0.393342 2:0.381577 3:0.36197 4:0.396078 5:0.0784314 6:0.392157 7:0 8:0 9:1 10:0 11:0 12:1 13:0 14:0 15:0.504823 16:0 17:0.221865 18:0 19:0 20:0 21:0 22:0 23:0 24:0 25:0 26:0 27:0 28:0 29:0 30:0 31:0 32:0 33:0.0578778 34:0 35:0 36:0 37:0 38:0 39:0 40:0 41:0 42:0 43:0 44:0 45:0 46:0 47:0 48:0 49:0 50:0 51:0 52:0 53:0 54:0 55:0 56:0 57:0 58:0 59:0 60:0 61:0 62:0.215434 63:0 64:0 
1 1:0.356863 2:0.363747 3:0.337406 4:0.333333 5:0.0666667 6:0.360784 7:0 8:0 9:1 10:0 11:0 12:1 13:0 14:0 15:0.48927 16:0 17:0.48927 18:0 19:0 20:0 21:0 22:0 23:0 24:0 25:0 26:0 27:0 28:0 29:0 30:0 31:0 32:0 33:0.0128755 34:0 35:0 36:0 37:0 38:0 39:0 40:0 41:0 42:0 43:0 44:0 45:0 46:0 47:0 48:0 49:0 50:0 51:0 52:0 53:0 54:0 55:0 56:0 57:0 58:0 59:0 60:0 61:0 62:0.00858369 63:0 64:0 
1 1:0.387605 2:0.37584 3:0.356232 4:0.396078 5:0.0823529 6:0.384314 7:0 8:0 9:1 10:0 11:0 12:1 13:0 14:0 15:0.508039 16:0 17:0.254019 18:0 19:0 20:0 21:0 22:0 23:0 24:0 25:0 26:0 27:0 28:0 29:0 30:0 31:0.00643087 32:0 33:0.0160772 34:0 35:0 36:0 37:0 38:0 39:0 40:0 41:0 42:0 43:0 44:0 45:0 46:0 47:0 48:0 49:0 50:0 51:0 52:0 53:0 54:0 55:0 56:0 57:0 58:0 59:0 60:0 61:0 62:0.215434 63:0 64:0 
1 1:0.352495 2:0.362163 3:0.332479 4:0.309804 5:0.0862745 6:0.360784 7:0 8:0.00990099 9:0.990099 10:0 11:0 12:1 13:0 14:0 15:0.5 16:0 17:0.49505 18:0 19:0 20:0 21:0 22:0 23:0 24:0 25:0 26:0 27:0 28:0 29:0 30:0 31:0 32:0 33:0.00495049 34:0 35:0 36:0 37:0 38:0 39:0 40:0 41:0 42:0 43:0 44:0 45:0 46:0 47:0 48:0 49:0 50:0 51:0 52:0 53:0 54:0 55:0 56:0 57:0 58:0 59:0 60:0 61:0 62:0 63:0 64:0 
1 1:0.331565 2:0.33509 3:0.311789 4:0.333333 5:0.0705882 6:0.333333 7:0 8:0.00306748 9:0.996933 10:0 11:0 12:1 13:0 14:0 15:0.493865 16:0 17:0.506135 18:0 19:0 20:0 21:0 22:0 23:0 24:0 25:0 26:0 27:0 28:0 29:0 30:0 31:0 32:0 33:0 34:0 35:0 36:0 37:0 38:0 39:0 40:0 41:0 42:0 43:0 44:0 45:0 46:0 47:0 48:0 49:0 50:0 51:0 52:0 53:0 54:0 55:0 56:0 57:0 58:0 59:0 60:0 61:0 62:0 63:0 64:0 
1 1:0.35715 2:0.365822 3:0.336596 4:0.32549 5:0.0862745 6:0.364706 7:0 8:0 9:1 10:0 11:0 12:1 13:0 14:0 15:0.49569 16:0 17:0.50431 18:0 19:0 20:0 21:0 22:0 23:0 24:0 25:0 26:0 27:0 28:0 29:0 30:0 31:0 32:0 33:0 34:0 35:0 36:0 37:0 38:0 39:0 40:0 41:0 42:0 43:0 44:0 45:0 46:0 47:0 48:0 49:0 50:0 51:0 52:0 53:0 54:0 55:0 56:0 57:0 58:0 59:0 60:0 61:0 62:0 63:0 64:0 
1 1:0.337288 2:0.343129 3:0.319925 4:0.333333 5:0.0705882 6:0.341176 7:0 8:0.00425532 9:0.995745 10:0 11:0 12:1 13:0 14:0 15:0.497872 16:0 17:0.365957 18:0 19:0 20:0 21:0 22:0 23:0 24:0 25:0 26:0 27:0 28:0 29:0 30:0 31:0 32:0 33:0.00425532 34:0 35:0 36:0 37:0 38:0 39:0 40:0 41:0 42:0 43:0 44:0 45:0 46:0 47:0 48:0 49:0 50:0 51:0 52:0 53:0 54:0 55:0 56:0 57:0 58:0 59:0 60:0 61:0 62:0.131915 63:0 64:0 
1 1:0.349761 2:0.353874 3:0.323171 4:0.337255 5:0.0901961 6:0.352941 7:0 8:0 9:1 10:0 11:0 12:1 13:0 14:0 15:0.493902 16:0 17:0.506098 18:0 19:0 20:0 21:0 22:0 23:0 24:0 25:0 26:0 27:0 28:0 29:0 30:0 31:0 32:0 33:0 34:0 35:0 36:0 37:0 38:0 39:0 40:0 41:0 42:0 43:0 44:0 45:0 46:0 47:0 48:0 49:0 50:0 51:0 52:0 53:0 54:0 55:0 56:0 57:0 58:0 59:0 60:0 61:0 62:0 63:0 64:0 
1 1:0.337018 2:0.343014 3:0.319267 4:0.313726 5:0.0705882 6:0.341176 7:0 8:0 9:1 10:0 11:0 12:1 13:0 14:0 15:0.490338 16:0 17:0.509662 18:0 19:0 20:0 21:0 22:0 23:0 24:0 25:0 26:0 27:0 28:0 29:0 30:0 31:0 32:0 33:0 34:0 35:0 36:0 37:0 38:0 39:0 40:0 41:0 42:0 43:0 44:0 45:0 46:0 47:0 48:0 49:0 50:0 51:0 52:0 53:0 54:0 55:0 56:0 57:0 58:0 59:0 60:0 61:0 62:0 63:0 64:0 
1 1:0.335386 2:0.341822 3:0.316909 4:0.317647 5:0.0823529 6:0.341176 7:0 8:0.00882353 9:0.991176 10:0 11:0 12:1 13:0 14:0 15:0.508824 16:0 17:0.491176 18:0 19:0 20:0 21:0 22:0 23:0 24:0 25:0 26:0 27:0 28:0 29:0 30:0 31:0 32:0 33:0 34:0 35:0 36:0 37:0 38:0 39:0 40:0 41:0 42:0 43:0 44:0 45:0 46:0 47:0 48:0 49:0 50:0 51:0 52:0 53:0 54:0 55:0 56:0 57:0 58:0 59:0 60:0 61:0 62:0 63:0 64:0 
1 1:0.361733 2:0.362207 3:0.339895 4:0.352941 5:0.0666667 6:0.360784 7:0 8:0.0620915 9:0.937908 10:0 11:0 12:1 13:0 14:0 15:0.513072 16:0 17:0.486928 18:0 19:0 20:0 21:0 22:0 23:0 24:0 25:0 26:0 27:0 28:0 29:0 30:0 31:0 32:0 33:0 34:0 35:0 36:0 37:0 38:0 39:0 40:0 41:0 42:0 43:0 44:0 45:0 46:0 47:0 48:0 49:0 50:0 51:0 52:0 53:0 54:0 55:0 56:0 57:0 58:0 59:0 60:0 61:0 62:0 63:0 64:0 
1 1:0.364769 2:0.364063 3:0.341517 4:0.372549 5:0.0627451 6:0.364706 7:0 8:0.0289389 9:0.971061 10:0 11:0 12:1 13:0 14:0 15:0.524116 16:0 17:0.475884 18:0 19:0 20:0 21:0 22:0 23:0 24:0 25:0 26:0 27:0 28:0 29:0 30:0 31:0 32:0 33:0 34:0 35:0 36:0 37:0 38:0 39:0 40:0 41:0 42:0 43:0 44:0 45:0 46:0 47:0 48:0 49:0 50:0 51:0 52:0 53:0 54:0 55:0 56:0 57:0 58:0 59:0 60:0 61:0 62:0 63:0 64:0 
1 1:0.373227 2:0.374014 3:0.346998 4:0.352941 5:0.0745098 6:0.372549 7:0 8:0.00308642 9:0.996914 10:0 11:0 12:1 13:0 14:0 15:0.496914 16:0 17:0.503086 18:0 19:0 20:0 21:0 22:0 23:0 24:0 25:0 26:0 27:0 28:0 29:0 30:0 31:0 32:0 33:0 34:0 35:0 36:0 37:0 38:0 39:0 40:0 41:0 42:0 43:0 44:0 45:0 46:0 47:0 48:0 49:0 50:0 51:0 52:0 53:0 54:0 55:0 56:0 57:0 58:0 59:0 60:0 61:0 62:0 63:0 64:0 
1 1:0.349131 2:0.35123 3:0.328567 4:0.352941 5:0.0666667 6:0.34902 7:0 8:0 9:1 10:0 11:0 12:1 13:0 14:0 15:0.484419 16:0 17:0.515581 18:0 19:0 20:0 21:0 22:0 23:0 24:0 25:0 26:0 27:0 28:0 29:0 30:0 31:0 32:0 33:0 34:0 35:0 36:0 37:0 38:0 39:0 40:0 41:0 42:0 43:0 44:0 45:0 46:0 47:0 48:0 49:0 50:0 51:0 52:0 53:0 54:0 55:0 56:0 57:0 58:0 59:0 60:0 61:0 62:0 63:0 64:0 
