svm_type c_svc
kernel_type polynomial
degree 5
gamma 3
coef0 1
nr_class 2
total_sv 453
rho -11.217
label 1 -1
nr_sv 241 212
SV
0.0002911987685025939 1:0.991409 2:0.98927 3:0.988431 4:0 5:0 6:0.988235 7:0.809384 8:0.0381232 9:0.0381232 10:0.11437 11:0 12:1 13:0 14:0 15:0 16:0.0498534 17:0 18:0.00293255 19:0 20:0 21:0 22:0 23:0 24:0.674487 25:0 26:0.0058651 27:0 28:0 29:0 30:0 31:0 32:0 33:0.0117302 34:0 35:0 36:0 37:0 38:0 39:0 40:0.0322581 41:0 42:0.0557185 43:0.0234604 44:0.0146628 45:0 46:0.0351906 47:0 48:0.0557185 49:0 50:0 51:0.00879765 52:0 53:0 54:0 55:0 56:0 57:0 58:0 59:0 60:0 61:0 62:0 63:0.00293255 64:0 
9.599082130035756e-05 1:0.998876 2:0.999397 3:0.997312 4:0 5:0 6:0.996078 7:0.730769 8:0.013986 9:0.255245 10:0 11:0 12:1 13:0 14:0 15:0 16:0.0384615 17:0 18:0 19:0 20:0 21:0 22:0 23:0 24:0.856643 25:0 26:0.0034965 27:0 28:0 29:0 30:0 31:0 32:0 33:0.0034965 34:0 35:0 36:0 37:0 38:0 39:0 40:0.034965 41:0 42:0.020979 43:0.0104895 44:0 45:0 46:0 47:0 48:0.0034965 49:0 50:0 51:0 52:0 53:0 54:0 55:0 56:0 57:0 58:0 59:0 60:0 61:0 62:0 63:0 64:0 
0.7326600516626138 1:0.96732 2:0.912576 3:0.824305 4:0.4 5:0.145098 6:0.964706 7:0 8:0 9:1 10:0 11:0 12:1 13:0 14:0 15:0 16:0.0622711 17:0 18:0 19:0 20:0 21:0 22:0 23:0 24:0.864469 25:0 26:0 27:0 28:0 29:0 30:0 31:0 32:0 33:0 34:0 35:0 36:0 37:0 38:0.0732601 39:0 40:0 41:0 42:0 43:0 44:0 45:0 46:0 47:0 48:0 49:0 50:0 51:0 52:0 53:0 54:0 55:0 56:0 57:0 58:0 59:0 60:0 61:0 62:0 63:0 64:0 
0.0008871726398441377 1:0.882799 2:0.754248 3:0.592941 4:0.403922 5:0.329412 6:0.882353 7:0 8:0 9:1 10:0 11:0 12:0.576471 13:0.423529 14:0 15:0 16:0 17:0 18:0 19:0 20:0 21:0 22:0 23:0 24:1 25:0 26:0 27:0 28:0 29:0 30:0 31:0 32:0 33:0 34:0 35:0 36:0 37:0 38:0 39:0 40:0 41:0 42:0 43:0 44:0 45:0 46:0 47:0 48:0 49:0 50:0 51:0 52:0 53:0 54:0 55:0 56:0 57:0 58:0 59:0 60:0 61:0 62:0 63:0 64:0 
0.01889729973355423 1:0.914237 2:0.86445 3:0.776456 4:0.396078 5:0.152941 6:0.913725 7:0 8:0 9:1 10:0 11:0 12:1 13:0 14:0 15:0 16:0.431159 17:0 18:0 19:0 20:0 21:0 22:0 23:0 24:0.23913 25:0 26:0 27:0 28:0 29:0 30:0 31:0 32:0 33:0 34:0 35:0 36:0 37:0 38:0.228261 39:0 40:0.0217391 41:0 42:0 43:0.0362319 44:0 45:0 46:0 47:0 48:0 49:0 50:0 51:0 52:0.0434783 53:0 54:0 55:0 56:0 57:0 58:0 59:0 60:0 61:0 62:0 63:0 64:0 
0.02128718858948587 1:0.87959 2:0.803908 3:0.687838 4:0.4 5:0.219608 6:0.878431 7:0 8:0 9:1 10:0 11:0 12:1 13:0 14:0 15:0 16:0.285223 17:0 18:0 19:0 20:0 21:0 22:0 23:0 24:0.0756014 25:0 26:0 27:0 28:0 29:0 30:0 31:0 32:0 33:0 34:0 35:0 36:0 37:0 38:0.639175 39:0 40:0 41:0 42:0 43:0 44:0 45:0 46:0 47:0 48:0 49:0 50:0 51:0 52:0 53:0 54:0 55:0 56:0 57:0 58:0 59:0 60:0 61:0 62:0 63:0 64:0 
0.0007975958144269696 1:0.56367 2:0.526208 3:0.458505 4:0.392157 5:0.188235 6:0.560784 7:0 8:0 9:1 10:0 11:0 12:0.979675 13:0.0203252 14:0 15:0 16:0.0121951 17:0.142276 18:0 19:0.134146 20:0.113821 21:0.00406504 22:0 23:0 24:0 25:0 26:0.0650406 27:0 28:0 29:0.105691 30:0 31:0 32:0.0162602 33:0 34:0 35:0 36:0 37:0.0284553 38:0.0162602 39:0 40:0.170732 41:0 42:0.0162602 43:0 44:0 45:0 46:0 47:0.0162602 48:0 49:0 50:0 51:0.0203252 52:0.00813008 53:0 54:0 55:0 56:0 57:0.0650406 58:0 59:0 60:0 61:0 62:0.0203252 63:0 64:0 
0.0005173625944466005 1:0.946266 2:0.901293 3:0.830038 4:0.4 5:0.12549 6:0.945098 7:0 8:0 9:1 10:0 11:0 12:1 13:0 14:0 15:0 16:0 17:0 18:0.0212766 19:0 20:0 21:0 22:0.212766 23:0 24:0 25:0 26:0 27:0.0212766 28:0 29:0 30:0 31:0 32:0 33:0 34:0 35:0 36:0 37:0 38:0 39:0 40:0 41:0.0212766 42:0.0212766 43:0 44:0.0638298 45:0 46:0 47:0.0851064 48:0.0851064 49:0 50:0 51:0 52:0 53:0 54:0 55:0 56:0.0425532 57:0 58:0.0638298 59:0.276596 60:0 61:0 62:0 63:0 64:0.0212766 
0.001247027320691914 1:0.884506 2:0.809112 3:0.70169 4:0.4 5:0.207843 6:0.882353 7:0 8:0 9:0.992727 10:0.00727273 11:0 12:1 13:0 14:0 15:0 16:0.269091 17:0 18:0 19:0 20:0 21:0 22:0 23:0 24:0.0545455 25:0 26:0.0181818 27:0 28:0 29:0.00363636 30:0 31:0 32:0 33:0 34:0 35:0 36:0 37:0 38:0.232727 39:0 40:0.0690909 41:0.00727273 42:0.0327273 43:0.0254545 44:0.0218182 45:0 46:0 47:0.00363636 48:0.0327273 49:0.0727273 50:0 51:0 52:0.0254545 53:0.0327273 54:0.00363636 55:0 56:0 57:0 58:0.0218182 59:0 60:0 61:0 62:0 63:0.0618182 64:0 
0.005761645281961793 1:0.352322 2:0.288014 3:0.239894 4:0.419608 5:0.313726 6:0.34902 7:0 8:0 9:0.616541 10:0.383459 11:0 12:0.56391 13:0.428571 14:0.0075188 15:0 16:0.0225564 17:0 18:0.075188 19:0.0451128 20:0 21:0.0676692 22:0 23:0 24:0.0300752 25:0.0902256 26:0.0601504 27:0.0601504 28:0 29:0.0075188 30:0 31:0 32:0.0150376 33:0.0225564 34:0.037594 35:0.0827068 36:0.0150376 37:0.075188 38:0.0075188 39:0.0075188 40:0.0526316 41:0 42:0 43:0.0300752 44:0 45:0 46:0 47:0 48:0 49:0 50:0.0300752 51:0.0075188 52:0 53:0 54:0 55:0 56:0 57:0.0977444 58:0 59:0 60:0 61:0.0225564 62:0.037594 63:0 64:0 
0.004090878831778097 1:0.49448 2:0.49163 3:0.428177 4:0.360784 5:0.133333 6:0.494118 7:0 8:0 9:0.828194 10:0.171806 11:0 12:1 13:0 14:0 15:0 16:0.00881057 17:0 18:0.0220264 19:0.0396476 20:0 21:0.0396476 22:0.0132159 23:0.0396476 24:0.00440529 25:0.0132159 26:0.0132159 27:0.0352423 28:0 29:0 30:0.0132159 31:0.061674 32:0.030837 33:0.0176211 34:0.0748899 35:0.030837 36:0 37:0.0528634 38:0.0132159 39:0.0220264 40:0 41:0.0484582 42:0 43:0.0660793 44:0 45:0 46:0 47:0.0352423 48:0.00440529 49:0.0352423 50:0.0484582 51:0.0220264 52:0.0352423 53:0 54:0 55:0 56:0.0396476 57:0.0132159 58:0.0132159 59:0 60:0.00881057 61:0 62:0.0220264 63:0.030837 64:0.030837 
0.00317381518717225 1:0.357909 2:0.355792 3:0.293894 4:0.360784 5:0.188235 6:0.356863 7:0 8:0.0253968 9:0.847619 10:0.126984 11:0 12:1 13:0 14:0 15:0 16:0.212698 17:0.00634921 18:0.0031746 19:0.0412698 20:0.00634921 21:0.0349206 22:0 23:0 24:0.0380952 25:0.0380952 26:0 27:0.015873 28:0.0031746 29:0.00952381 30:0 31:0.0603175 32:0.0031746 33:0.0031746 34:0.0444444 35:0 36:0 37:0.031746 38:0.307937 39:0 40:0 41:0.0031746 42:0 43:0 44:0 45:0.015873 46:0 47:0.0285714 48:0 49:0.00952381 50:0 51:0.0031746 52:0.0285714 53:0 54:0.0031746 55:0 56:0.0031746 57:0.0190476 58:0.00634921 59:0 60:0 61:0 62:0.0190476 63:0 64:0 
0.002807638717646078 1:0.324434 2:0.272934 3:0.23293 4:0.419608 5:0.282353 6:0.321569 7:0 8:0 9:0.703196 10:0.296804 11:0 12:0.707763 13:0.287671 14:0.00456621 15:0 16:0 17:0.0639269 18:0.00456621 19:0.0684932 20:0.0182648 21:0.00913242 22:0 23:0.00913242 24:0.0273973 25:0.0182648 26:0.0319635 27:0.00456621 28:0 29:0.0547945 30:0 31:0.00456621 32:0.0319635 33:0.0182648 34:0.0365297 35:0.0502283 36:0 37:0.0730594 38:0.0456621 39:0.00456621 40:0 41:0 42:0 43:0.0319635 44:0 45:0.0730594 46:0 47:0 48:0 49:0 50:0.00913242 51:0 52:0.0182648 53:0.0273973 54:0.00456621 55:0 56:0.00456621 57:0.0776256 58:0.0182648 59:0 60:0.00913242 61:0.0410959 62:0.0456621 63:0.0273973 64:0.0136986 
0.002658061387336667 1:0.427568 2:0.408949 3:0.34359 4:0.380392 5:0.2 6:0.427451 7:0 8:0 9:1 10:0 11:0 12:0.970085 13:0.0299145 14:0 15:0 16:0 17:0.0042735 18:0.0042735 19:0.0598291 20:0 21:0.034188 22:0.0042735 23:0.017094 24:0 25:0.0213675 26:0.00854701 27:0.0128205 28:0.025641 29:0.0598291 30:0.034188 31:0 32:0.025641 33:0 34:0 35:0.00854701 36:0.0982906 37:0.0683761 38:0 39:0 40:0.00854701 41:0.017094 42:0 43:0 44:0 45:0.00854701 46:0 47:0 48:0 49:0.0042735 50:0.0641026 51:0 52:0.0128205 53:0.00854701 54:0.034188 55:0.0470085 56:0.00854701 57:0.0769231 58:0 59:0 60:0.0854701 61:0.034188 62:0.0940171 63:0.0042735 64:0.0042735 
0.0001455005102103703 1:0.996322 2:0.996671 3:0.995881 4:0.352941 5:0.00392157 6:0.996078 7:0.887597 8:0 9:0.112403 10:0 11:0 12:1 13:0 14:0 15:0 16:0 17:0 18:0 19:0 20:0 21:0 22:0 23:0 24:1 25:0 26:0 27:0 28:0 29:0 30:0 31:0 32:0 33:0 34:0 35:0 36:0 37:0 38:0 39:0 40:0 41:0 42:0 43:0 44:0 45:0 46:0 47:0 48:0 49:0 50:0 51:0 52:0 53:0 54:0 55:0 56:0 57:0 58:0 59:0 60:0 61:0 62:0 63:0 64:0 
0.09523642414640714 1:0.991784 2:0.965943 3:0.915202 4:0.388235 5:0.0745098 6:0.988235 7:0 8:0 9:1 10:0 11:0 12:1 13:0 14:0 15:0 16:0 17:0 18:0 19:0 20:0 21:0 22:0 23:0 24:0.813688 25:0 26:0 27:0 28:0 29:0 30:0 31:0 32:0 33:0 34:0 35:0 36:0 37:0 38:0.186312 39:0 40:0 41:0 42:0 43:0 44:0 45:0 46:0 47:0 48:0 49:0 50:0 51:0 52:0 53:0 54:0 55:0 56:0 57:0 58:0 59:0 60:0 61:0 62:0 63:0 64:0 
0.03734691676573314 1:0.956429 2:0.887918 3:0.762458 4:0.392157 5:0.2 6:0.952941 7:0 8:0 9:1 10:0 11:0 12:1 13:0 14:0 15:0 16:0.0988142 17:0 18:0 19:0 20:0 21:0 22:0 23:0 24:0.636364 25:0 26:0 27:0 28:0 29:0 30:0 31:0 32:0 33:0 34:0 35:0 36:0 37:0 38:0.264822 39:0 40:0 41:0 42:0 43:0 44:0 45:0 46:0 47:0 48:0 49:0 50:0 51:0 52:0 53:0 54:0 55:0 56:0 57:0 58:0 59:0 60:0 61:0 62:0 63:0 64:0 
0.004608960994405103 1:0.927595 2:0.851948 3:0.744521 4:0.4 5:0.2 6:0.92549 7:0 8:0 9:0.991342 10:0.00865801 11:0 12:1 13:0 14:0 15:0 16:0.190476 17:0 18:0 19:0 20:0 21:0 22:0 23:0 24:0.134199 25:0 26:0 27:0.025974 28:0 29:0 30:0 31:0 32:0.00865801 33:0 34:0 35:0 36:0 37:0 38:0.147186 39:0 40:0 41:0 42:0 43:0.264069 44:0 45:0 46:0 47:0 48:0 49:0 50:0 51:0 52:0.199134 53:0 54:0 55:0 56:0 57:0 58:0 59:0 60:0 61:0 62:0 63:0.030303 64:0 
0.01462573627955262 1:0.915663 2:0.848886 3:0.741586 4:0.4 5:0.188235 6:0.913725 7:0 8:0 9:1 10:0 11:0 12:1 13:0 14:0 15:0 16:0.409639 17:0 18:0 19:0 20:0 21:0 22:0 23:0 24:0.120482 25:0 26:0 27:0 28:0 29:0 30:0 31:0 32:0.0120482 33:0 34:0 35:0 36:0 37:0 38:0.381526 39:0 40:0 41:0 42:0 43:0.064257 44:0 45:0 46:0 47:0 48:0 49:0 50:0 51:0 52:0.0120482 53:0 54:0 55:0 56:0 57:0 58:0 59:0 60:0 61:0 62:0 63:0 64:0 
0.0006188193012629952 1:0.900948 2:0.840389 3:0.731276 4:0.392157 5:0.188235 6:0.898039 7:0 8:0 9:1 10:0 11:0 12:1 13:0 14:0 15:0 16:0.237705 17:0.0245902 18:0.00409836 19:0 20:0.0327869 21:0 22:0 23:0 24:0.110656 25:0 26:0.0368852 27:0 28:0 29:0.00409836 30:0 31:0 32:0.00819672 33:0.0286885 34:0 35:0 36:0 37:0 38:0.0368852 39:0 40:0.110656 41:0 42:0 43:0.147541 44:0 45:0.00409836 46:0 47:0 48:0 49:0 50:0 51:0.00409836 52:0.102459 53:0 54:0 55:0 56:0.00819672 57:0.00409836 58:0.00409836 59:0 60:0 61:0 62:0 63:0.0122951 64:0 
0.003398666634280219 1:0.362036 2:0.360275 3:0.290972 4:0.360784 5:0.196078 6:0.360784 7:0 8:0 9:0.983051 10:0.0169492 11:0 12:0.997175 13:0.00282486 14:0 15:0 16:0.0932203 17:0.00564972 18:0 19:0.0706215 20:0 21:0.0677966 22:0.00847458 23:0.00282486 24:0.0254237 25:0.0282486 26:0 27:0.00847458 28:0.019774 29:0.0423729 30:0.0112994 31:0.0254237 32:0.0706215 33:0 34:0.039548 35:0.0169492 36:0.00564972 37:0.0367232 38:0.211864 39:0 40:0 41:0 42:0.00282486 43:0 44:0 45:0.00564972 46:0 47:0 48:0 49:0 50:0 51:0 52:0.0847458 53:0 54:0.00564972 55:0.0141243 56:0 57:0.0480226 58:0.00282486 59:0 60:0.00282486 61:0 62:0.0282486 63:0 64:0.0112994 
0.003113310931232688 1:0.595405 2:0.562496 3:0.500546 4:0.392157 5:0.160784 6:0.592157 7:0 8:0 9:1 10:0 11:0 12:1 13:0 14:0 15:0 16:0.024055 17:0.140893 18:0.0171821 19:0.0927835 20:0.0412371 21:0 22:0 23:0.00687285 24:0 25:0 26:0.147766 27:0.0996564 28:0.0103093 29:0 30:0 31:0 32:0.00687285 33:0 34:0 35:0.0756014 36:0 37:0.00343643 38:0 39:0 40:0.0309278 41:0.0206186 42:0.0103093 43:0.0618557 44:0 45:0.0137457 46:0 47:0 48:0 49:0 50:0 51:0.0515464 52:0 53:0.0824742 54:0 55:0 56:0 57:0 58:0 59:0 60:0 61:0 62:0.0515464 63:0.00343643 64:0.00687285 
0.3880222234378352 1:0.948844 2:0.911955 3:0.85755 4:0.4 5:0.0941176 6:0.945098 7:0 8:0 9:1 10:0 11:0 12:1 13:0 14:0 15:0 16:0.171642 17:0 18:0 19:0 20:0 21:0 22:0 23:0 24:0.798507 25:0 26:0 27:0 28:0 29:0 30:0 31:0 32:0 33:0 34:0 35:0 36:0 37:0 38:0.0298507 39:0 40:0 41:0 42:0 43:0 44:0 45:0 46:0 47:0 48:0 49:0 50:0 51:0 52:0 53:0 54:0 55:0 56:0 57:0 58:0 59:0 60:0 61:0 62:0 63:0 64:0 
1 1:0.993824 2:0.987263 3:0.947522 4:0.372549 5:0.0470588 6:0.992157 7:0 8:0 9:1 10:0 11:0 12:1 13:0 14:0 15:0 16:0 17:0 18:0 19:0 20:0 21:0 22:0 23:0 24:1 25:0 26:0 27:0 28:0 29:0 30:0 31:0 32:0 33:0 34:0 35:0 36:0 37:0 38:0 39:0 40:0 41:0 42:0 43:0 44:0 45:0 46:0 47:0 48:0 49:0 50:0 51:0 52:0 53:0 54:0 55:0 56:0 57:0 58:0 59:0 60:0 61:0 62:0 63:0 64:0 
1 1:0.997703 2:0.979111 3:0.935583 4:0.388235 5:0.0627451 6:0.996078 7:0 8:0 9:1 10:0 11:0 12:1 13:0 14:0 15:0 16:0 17:0 18:0 19:0 20:0 21:0 22:0 23:0 24:0.932271 25:0 26:0 27:0 28:0 29:0 30:0 31:0 32:0 33:0 34:0 35:0 36:0 37:0 38:0.0677291 39:0 40:0 41:0 42:0 43:0 44:0 45:0 46:0 47:0 48:0 49:0 50:0 51:0 52:0 53:0 54:0 55:0 56:0 57:0 58:0 59:0 60:0 61:0 62:0 63:0 64:0 
1 1:0.996267 2:0.966609 3:0.907407 4:0.392157 5:0.0901961 6:0.996078 7:0 8:0 9:1 10:0 11:0 12:1 13:0 14:0 15:0 16:0 17:0 18:0 19:0 20:0 21:0 22:0 23:0 24:1 25:0 26:0 27:0 28:0 29:0 30:0 31:0 32:0 33:0 34:0 35:0 36:0 37:0 38:0 39:0 40:0 41:0 42:0 43:0 44:0 45:0 46:0 47:0 48:0 49:0 50:0 51:0 52:0 53:0 54:0 55:0 56:0 57:0 58:0 59:0 60:0 61:0 62:0 63:0 64:0 
1 1:0.994595 2:0.960921 3:0.895874 4:0.392157 5:0.0980392 6:0.992157 7:0 8:0 9:1 10:0 11:0 12:1 13:0 14:0 15:0 16:0 17:0 18:0 19:0 20:0 21:0 22:0 23:0 24:1 25:0 26:0 27:0 28:0 29:0 30:0 31:0 32:0 33:0 34:0 35:0 36:0 37:0 38:0 39:0 40:0 41:0 42:0 43:0 44:0 45:0 46:0 47:0 48:0 49:0 50:0 51:0 52:0 53:0 54:0 55:0 56:0 57:0 58:0 59:0 60:0 61:0 62:0 63:0 64:0 
1 1:0.995876 2:0.95763 3:0.891455 4:0.392157 5:0.101961 6:0.992157 7:0 8:0 9:1 10:0 11:0 12:1 13:0 14:0 15:0 16:0 17:0 18:0 19:0 20:0 21:0 22:0 23:0 24:1 25:0 26:0 27:0 28:0 29:0 30:0 31:0 32:0 33:0 34:0 35:0 36:0 37:0 38:0 39:0 40:0 41:0 42:0 43:0 44:0 45:0 46:0 47:0 48:0 49:0 50:0 51:0 52:0 53:0 54:0 55:0 56:0 57:0 58:0 59:0 60:0 61:0 62:0 63:0 64:0 
0.002915938601870389 1:0.922642 2:0.826875 3:0.684827 4:0.4 5:0.258824 6:0.921569 7:0 8:0 9:1 10:0 11:0 12:1 13:0 14:0 15:0 16:0.0873016 17:0 18:0 19:0 20:0 21:0 22:0 23:0 24:0.416667 25:0 26:0 27:0 28:0 29:0 30:0 31:0 32:0.00396825 33:0 34:0 35:0 36:0 37:0 38:0.281746 39:0 40:0 41:0 42:0 43:0.00793651 44:0 45:0 46:0 47:0 48:0 49:0 50:0 51:0 52:0.174603 53:0 54:0 55:0 56:0 57:0 58:0 59:0 60:0 61:0 62:0 63:0.0277778 64:0 
0.001698491466429455 1:0.960425 2:0.917225 3:0.861355 4:0.403922 5:0.101961 6:0.956863 7:0 8:0 9:0.976096 10:0.0239044 11:0 12:1 13:0 14:0 15:0 16:0.310757 17:0 18:0 19:0 20:0 21:0 22:0 23:0 24:0.482072 25:0 26:0 27:0 28:0 29:0 30:0 31:0 32:0 33:0 34:0 35:0 36:0 37:0 38:0.00796813 39:0 40:0 41:0 42:0 43:0.111554 44:0 45:0 46:0 47:0 48:0 49:0 50:0 51:0 52:0.0278884 53:0 54:0 55:0 56:0 57:0 58:0 59:0 60:0 61:0 62:0 63:0.059761 64:0 
0.000875605260929049 1:0.593408 2:0.558114 3:0.500406 4:0.396078 5:0.160784 6:0.592157 7:0 8:0 9:0.952586 10:0.0474138 11:0 12:1 13:0 14:0 15:0 16:0.0344828 17:0.0905172 18:0.00862069 19:0.00431034 20:0.0474138 21:0 22:0 23:0.0258621 24:0 25:0 26:0.0517241 27:0.0215517 28:0 29:0.0344828 30:0 31:0 32:0.0301724 33:0.00431034 34:0 35:0 36:0 37:0.0344828 38:0.0172414 39:0 40:0.112069 41:0.012931 42:0.0258621 43:0.103448 44:0 45:0.00862069 46:0 47:0.0517241 48:0 49:0.0172414 50:0.00862069 51:0.0474138 52:0.0818966 53:0.012931 54:0 55:0 56:0 57:0.0215517 58:0.0258621 59:0 60:0 61:0 62:0.00431034 63:0.0387931 64:0 
0.009238724966101583 1:0.961177 2:0.923725 3:0.861667 4:0.4 5:0.105882 6:0.960784 7:0 8:0 9:0.991667 10:0.00833333 11:0 12:1 13:0 14:0 15:0 16:0.204167 17:0 18:0 19:0 20:0 21:0 22:0 23:0.05 24:0.108333 25:0 26:0.0583333 27:0 28:0 29:0 30:0 31:0 32:0.0333333 33:0 34:0 35:0 36:0 37:0 38:0.0625 39:0 40:0.0708333 41:0.00416667 42:0 43:0.0875 44:0 45:0 46:0 47:0.0416667 48:0 49:0.0916667 50:0 51:0 52:0.0166667 53:0.0208333 54:0 55:0 56:0 57:0 58:0 59:0 60:0 61:0 62:0 63:0.1125 64:0.0375 
1 1:0.998109 2:0.983864 3:0.943223 4:0.388235 5:0.054902 6:0.996078 7:0 8:0 9:1 10:0 11:0 12:1 13:0 14:0 15:0 16:0 17:0 18:0 19:0 20:0 21:0 22:0 23:0 24:1 25:0 26:0 27:0 28:0 29:0 30:0 31:0 32:0 33:0 34:0 35:0 36:0 37:0 38:0 39:0 40:0 41:0 42:0 43:0 44:0 45:0 46:0 47:0 48:0 49:0 50:0 51:0 52:0 53:0 54:0 55:0 56:0 57:0 58:0 59:0 60:0 61:0 62:0 63:0 64:0 
1 1:0.995986 2:0.968612 3:0.910159 4:0.392157 5:0.0823529 6:0.992157 7:0 8:0 9:1 10:0 11:0 12:1 13:0 14:0 15:0 16:0 17:0 18:0 19:0 20:0 21:0 22:0 23:0 24:0.976378 25:0 26:0 27:0 28:0 29:0 30:0 31:0 32:0 33:0 34:0 35:0 36:0 37:0 38:0.023622 39:0 40:0 41:0 42:0 43:0 44:0 45:0 46:0 47:0 48:0 49:0 50:0 51:0 52:0 53:0 54:0 55:0 56:0 57:0 58:0 59:0 60:0 61:0 62:0 63:0 64:0 
1 1:0.99356 2:0.96009 3:0.892398 4:0.392157 5:0.101961 6:0.992157 7:0 8:0 9:1 10:0 11:0 12:1 13:0 14:0 15:0 16:0 17:0 18:0 19:0 20:0 21:0 22:0 23:0 24:1 25:0 26:0 27:0 28:0 29:0 30:0 31:0 32:0 33:0 34:0 35:0 36:0 37:0 38:0 39:0 40:0 41:0 42:0 43:0 44:0 45:0 46:0 47:0 48:0 49:0 50:0 51:0 52:0 53:0 54:0 55:0 56:0 57:0 58:0 59:0 60:0 61:0 62:0 63:0 64:0 
1 1:0.993027 2:0.955459 3:0.886259 4:0.396078 5:0.109804 6:0.992157 7:0 8:0 9:1 10:0 11:0 12:1 13:0 14:0 15:0 16:0 17:0 18:0 19:0 20:0 21:0 22:0 23:0 24:1 25:0 26:0 27:0 28:0 29:0 30:0 31:0 32:0 33:0 34:0 35:0 36:0 37:0 38:0 39:0 40:0 41:0 42:0 43:0 44:0 45:0 46:0 47:0 48:0 49:0 50:0 51:0 52:0 53:0 54:0 55:0 56:0 57:0 58:0 59:0 60:0 61:0 62:0 63:0 64:0 
0.5886145615105519 1:0.992219 2:0.961734 3:0.899844 4:0.392157 5:0.0941176 6:0.992157 7:0 8:0 9:1 10:0 11:0 12:1 13:0 14:0 15:0 16:0.238095 17:0 18:0 19:0 20:0 21:0 22:0 23:0 24:0.496032 25:0 26:0 27:0 28:0 29:0 30:0 31:0 32:0 33:0 34:0 35:0 36:0 37:0 38:0.265873 39:0 40:0 41:0 42:0 43:0 44:0 45:0 46:0 47:0 48:0 49:0 50:0 51:0 52:0 53:0 54:0 55:0 56:0 57:0 58:0 59:0 60:0 61:0 62:0 63:0 64:0 
1 1:0.994048 2:0.959354 3:0.895025 4:0.396078 5:0.0980392 6:0.992157 7:0 8:0 9:1 10:0 11:0 12:1 13:0 14:0 15:0 16:0.117647 17:0 18:0 19:0 20:0 21:0 22:0 23:0 24:0.666667 25:0 26:0 27:0 28:0 29:0 30:0 31:0 32:0 33:0 34:0 35:0 36:0 37:0 38:0.215686 39:0 40:0 41:0 42:0 43:0 44:0 45:0 46:0 47:0 48:0 49:0 50:0 51:0 52:0 53:0 54:0 55:0 56:0 57:0 58:0 59:0 60:0 61:0 62:0 63:0 64:0 
1 1:0.99704 2:0.989512 3:0.962587 4:0.380392 5:0.0352941 6:0.996078 7:0 8:0 9:1 10:0 11:0 12:1 13:0 14:0 15:0 16:0.0268199 17:0 18:0 19:0 20:0 21:0 22:0 23:0 24:0.957854 25:0 26:0 27:0 28:0 29:0 30:0 31:0 32:0 33:0 34:0 35:0 36:0 37:0 38:0.0153257 39:0 40:0 41:0 42:0 43:0 44:0 45:0 46:0 47:0 48:0 49:0 50:0 51:0 52:0 53:0 54:0 55:0 56:0 57:0 58:0 59:0 60:0 61:0 62:0 63:0 64:0 
0.005799844707071443 1:0.973445 2:0.917016 3:0.816949 4:0.396078 5:0.160784 6:0.972549 7:0 8:0 9:1 10:0 11:0 12:1 13:0 14:0 15:0 16:0.164794 17:0 18:0 19:0 20:0 21:0 22:0 23:0 24:0.786517 25:0 26:0.0224719 27:0 28:0 29:0 30:0 31:0 32:0 33:0 34:0 35:0 36:0 37:0 38:0 39:0 40:0 41:0 42:0 43:0 44:0 45:0 46:0 47:0 48:0 49:0 50:0 51:0 52:0 53:0 54:0 55:0 56:0 57:0 58:0 59:0 60:0 61:0 62:0 63:0.0262172 64:0 
0.0037563124596141 1:0.519249 2:0.4747 3:0.425575 4:0.407843 5:0.180392 6:0.517647 7:0 8:0 9:0.870968 10:0.129032 11:0 12:0.956989 13:0.0430108 14:0 15:0 16:0 17:0.129032 18:0.0483871 19:0.0215054 20:0.0483871 21:0.0268817 22:0 23:0 24:0 25:0 26:0 27:0.0483871 28:0.0215054 29:0.0376344 30:0 31:0.0268817 32:0 33:0.0268817 34:0.016129 35:0.112903 36:0 37:0.00537634 38:0 39:0 40:0 41:0 42:0 43:0.00537634 44:0 45:0.0376344 46:0 47:0 48:0 49:0 50:0.0268817 51:0 52:0.00537634 53:0.150538 54:0 55:0.00537634 56:0 57:0.0591398 58:0.00537634 59:0 60:0.00537634 61:0.0215054 62:0.102151 63:0.00537634 64:0 
0.3213889416664427 1:0.171698 2:0.15434 3:0.144186 4:0.419608 5:0.164706 6:0.168627 7:0 8:0 9:0.232558 10:0.767442 11:0 12:1 13:0 14:0 15:0 16:0.0775194 17:0 18:0 19:0 20:0 21:0 22:0 23:0 24:0.802326 25:0 26:0 27:0 28:0 29:0 30:0 31:0 32:0 33:0 34:0 35:0 36:0 37:0 38:0.120155 39:0 40:0 41:0 42:0 43:0 44:0 45:0 46:0 47:0 48:0 49:0 50:0 51:0 52:0 53:0 54:0 55:0 56:0 57:0 58:0 59:0 60:0 61:0 62:0 63:0 64:0 
0.003365295619840513 1:0.52346 2:0.493271 3:0.424492 4:0.392157 5:0.188235 6:0.521569 7:0 8:0 9:1 10:0 11:0 12:0.997041 13:0.00295858 14:0 15:0 16:0.035503 17:0.0621302 18:0 19:0.0650888 20:0.00591716 21:0 22:0.10355 23:0.0384615 24:0.0207101 25:0 26:0.0502959 27:0.0798817 28:0 29:0.0710059 30:0 31:0 32:0.056213 33:0.00295858 34:0 35:0 36:0 37:0.0207101 38:0.0502959 39:0 40:0.0266272 41:0.0266272 42:0.00887574 43:0.035503 44:0 45:0.0118343 46:0 47:0.0147929 48:0 49:0.0325444 50:0.0295858 51:0.00591716 52:0.035503 53:0.00591716 54:0 55:0 56:0.00295858 57:0.00591716 58:0.0118343 59:0 60:0.00591716 61:0 62:0.0266272 63:0.0236686 64:0 
1 1:0.288263 2:0.267964 3:0.223459 4:0.388235 5:0.231373 6:0.286275 7:0 8:0 9:1 10:0 11:0 12:1 13:0 14:0 15:0 16:0.00719424 17:0 18:0 19:0 20:0 21:0 22:0 23:0 24:0.992806 25:0 26:0 27:0 28:0 29:0 30:0 31:0 32:0 33:0 34:0 35:0 36:0 37:0 38:0 39:0 40:0 41:0 42:0 43:0 44:0 45:0 46:0 47:0 48:0 49:0 50:0 51:0 52:0 53:0 54:0 55:0 56:0 57:0 58:0 59:0 60:0 61:0 62:0 63:0 64:0 
1 1:0.98503 2:0.95263 3:0.897106 4:0.4 5:0.0901961 6:0.984314 7:0 8:0 9:1 10:0 11:0 12:1 13:0 14:0 15:0 16:0.126984 17:0 18:0 19:0 20:0 21:0 22:0 23:0 24:0.642857 25:0 26:0 27:0 28:0 29:0 30:0 31:0 32:0 33:0 34:0 35:0 36:0 37:0 38:0.230159 39:0 40:0 41:0 42:0 43:0 44:0 45:0 46:0 47:0 48:0 49:0 50:0 51:0 52:0 53:0 54:0 55:0 56:0 57:0 58:0 59:0 60:0 61:0 62:0 63:0 64:0 
0.002191893327673462 1:0.325948 2:0.302071 3:0.291186 4:0.431373 5:0.109804 6:0.32549 7:0 8:0 9:0.107477 10:0.892523 11:0 12:1 13:0 14:0 15:0 16:0.0046729 17:0.0140187 18:0 19:0 20:0.0046729 21:0.0046729 22:0.0186916 23:0.0140187 24:0 25:0 26:0 27:0.116822 28:0 29:0.088785 30:0 31:0 32:0 33:0.0046729 34:0 35:0.0140187 36:0.0186916 37:0.0140187 38:0 39:0 40:0 41:0.0140187 42:0 43:0.21028 44:0 45:0 46:0 47:0.121495 48:0 49:0.046729 50:0.0046729 51:0.0046729 52:0.158879 53:0.0140187 54:0.00934579 55:0.0046729 56:0.0420561 57:0.0140187 58:0 59:0 60:0 61:0 62:0.0373832 63:0 64:0 
0.0725017848476152 1:0.139708 2:0.117814 3:0.113135 4:0.435294 5:0.2 6:0.137255 7:0 8:0 9:0 10:1 11:0 12:0.992278 13:0.00772201 14:0 15:0 16:0 17:0 18:0 19:0 20:0 21:0 22:0 23:0 24:0.953668 25:0 26:0 27:0 28:0 29:0 30:0 31:0 32:0 33:0 34:0 35:0 36:0 37:0 38:0.046332 39:0 40:0 41:0 42:0 43:0 44:0 45:0 46:0 47:0 48:0 49:0 50:0 51:0 52:0 53:0 54:0 55:0 56:0 57:0 58:0 59:0 60:0 61:0 62:0 63:0 64:0 
0.01592166652456458 1:0.12491 2:0.095201 3:0.087541 4:0.443137 5:0.290196 6:0.121569 7:0 8:0 9:0 10:1 11:0 12:0.521401 13:0.478599 14:0 15:0 16:0 17:0 18:0 19:0 20:0 21:0 22:0 23:0 24:1 25:0 26:0 27:0 28:0 29:0 30:0 31:0 32:0 33:0 34:0 35:0 36:0 37:0 38:0 39:0 40:0 41:0 42:0 43:0 44:0 45:0 46:0 47:0 48:0 49:0 50:0 51:0 52:0 53:0 54:0 55:0 56:0 57:0 58:0 59:0 60:0 61:0 62:0 63:0 64:0 
0.002256946095076595 1:0.30707 2:0.254902 3:0.241017 4:0.443137 5:0.219608 6:0.305882 7:0 8:0 9:0.0228013 10:0.977199 11:0 12:0.944625 13:0.0553746 14:0 15:0 16:0.0684039 17:0.0228013 18:0 19:0.0944625 20:0 21:0.0325733 22:0 23:0.019544 24:0.0651466 25:0.0325733 26:0.0521173 27:0.0944625 28:0 29:0.00325733 30:0 31:0.019544 32:0.0879479 33:0.0130293 34:0.0228013 35:0.00325733 36:0 37:0.0390879 38:0.0586319 39:0.0130293 40:0.0228013 41:0 42:0 43:0.0456026 44:0 45:0 46:0 47:0 48:0 49:0.0260586 50:0.00325733 51:0.00325733 52:0.114007 53:0 54:0 55:0 56:0.00325733 57:0.00651466 58:0 59:0 60:0 61:0.00325733 62:0.0260586 63:0.00325733 64:0 
1 1:0.996556 2:0.980735 3:0.931007 4:0.380392 5:0.0666667 6:0.996078 7:0 8:0 9:1 10:0 11:0 12:1 13:0 14:0 15:0 16:0 17:0 18:0 19:0 20:0 21:0 22:0 23:0 24:0.95057 25:0 26:0 27:0 28:0 29:0 30:0 31:0 32:0 33:0 34:0 35:0 36:0 37:0 38:0.0494297 39:0 40:0 41:0 42:0 43:0 44:0 45:0 46:0 47:0 48:0 49:0 50:0 51:0 52:0 53:0 54:0 55:0 56:0 57:0 58:0 59:0 60:0 61:0 62:0 63:0 64:0 
0.008228890681996752 1:0.206702 2:0.190752 3:0.193284 4:0.501961 5:0.0784314 6:0.203922 7:0 8:0 9:0 10:0.966418 11:0.0335821 12:1 13:0 14:0 15:0 16:0.208955 17:0 18:0 19:0 20:0 21:0 22:0 23:0 24:0.358209 25:0 26:0 27:0 28:0 29:0 30:0 31:0 32:0.00373134 33:0 34:0 35:0 36:0 37:0 38:0.350746 39:0 40:0 41:0 42:0 43:0 44:0 45:0 46:0 47:0.0410448 48:0 49:0.00373134 50:0 51:0 52:0.0335821 53:0 54:0 55:0 56:0 57:0 58:0 59:0 60:0 61:0 62:0 63:0 64:0 
0.01511347056715501 1:0.177185 2:0.158641 3:0.1589 4:0.470588 5:0.109804 6:0.176471 7:0 8:0 9:0 10:1 11:0 12:1 13:0 14:0 15:0 16:0.174419 17:0 18:0 19:0 20:0 21:0 22:0 23:0 24:0.325581 25:0 26:0 27:0 28:0 29:0 30:0 31:0 32:0 33:0 34:0 35:0 36:0 37:0 38:0.5 39:0 40:0 41:0 42:0 43:0 44:0 45:0 46:0 47:0 48:0 49:0 50:0 51:0 52:0 53:0 54:0 55:0 56:0 57:0 58:0 59:0 60:0 61:0 62:0 63:0 64:0 
0.8545192537422006 1:0.21792 2:0.201205 3:0.159691 4:0.384314 5:0.27451 6:0.215686 7:0 8:0 9:0.959016 10:0.0409836 11:0 12:1 13:0 14:0 15:0 16:0 17:0 18:0 19:0 20:0 21:0 22:0 23:0 24:1 25:0 26:0 27:0 28:0 29:0 30:0 31:0 32:0 33:0 34:0 35:0 36:0 37:0 38:0 39:0 40:0 41:0 42:0 43:0 44:0 45:0 46:0 47:0 48:0 49:0 50:0 51:0 52:0 53:0 54:0 55:0 56:0 57:0 58:0 59:0 60:0 61:0 62:0 63:0 64:0 
0.003638616037139294 1:0.624525 2:0.591498 3:0.527007 4:0.396078 5:0.156863 6:0.623529 7:0 8:0 9:0.964844 10:0.0351562 11:0 12:0.996094 13:0.00390625 14:0 15:0 16:0 17:0.0234375 18:0.0234375 19:0.0195312 20:0.0390625 21:0.0195312 22:0.0585938 23:0.0117188 24:0 25:0 26:0.046875 27:0.0625 28:0.0273438 29:0.0234375 30:0 31:0 32:0.0078125 33:0.00390625 34:0 35:0.0078125 36:0 37:0.0195312 38:0.00390625 39:0.0078125 40:0.03125 41:0.0351562 42:0.0273438 43:0.0351562 44:0.0117188 45:0.00390625 46:0.0273438 47:0.046875 48:0.0078125 49:0.0195312 50:0.0390625 51:0.0351562 52:0.00390625 53:0.0273438 54:0 55:0 56:0.0703125 57:0.0273438 58:0.0351562 59:0.00390625 60:0.0117188 61:0 62:0.0273438 63:0.0351562 64:0.0117188 
0.658444162154435 1:0.159192 2:0.142164 3:0.125918 4:0.411765 5:0.2 6:0.156863 7:0 8:0 9:0.593985 10:0.406015 11:0 12:1 13:0 14:0 15:0 16:0.0714286 17:0 18:0 19:0 20:0 21:0 22:0 23:0 24:0.62782 25:0 26:0 27:0 28:0 29:0 30:0 31:0 32:0 33:0 34:0 35:0 36:0 37:0 38:0.300752 39:0 40:0 41:0 42:0 43:0 44:0 45:0 46:0 47:0 48:0 49:0 50:0 51:0 52:0 53:0 54:0 55:0 56:0 57:0 58:0 59:0 60:0 61:0 62:0 63:0 64:0 
0.7816585781299045 1:0.173998 2:0.160501 3:0.129475 4:0.396078 5:0.25098 6:0.172549 7:0 8:0 9:1 10:0 11:0 12:1 13:0 14:0 15:0 16:0 17:0 18:0 19:0 20:0 21:0 22:0 23:0 24:0.947791 25:0 26:0 27:0 28:0 29:0 30:0 31:0 32:0 33:0 34:0 35:0 36:0 37:0 38:0.0522088 39:0 40:0 41:0 42:0 43:0 44:0 45:0 46:0 47:0 48:0 49:0 50:0 51:0 52:0 53:0 54:0 55:0 56:0 57:0 58:0 59:0 60:0 61:0 62:0 63:0 64:0 
0.004451650835083674 1:0.325546 2:0.363361 3:0.378861 4:0.0823529 5:0.137255 6:0.376471 7:0.690476 8:0.0238095 9:0.142857 10:0.12381 11:0.0190476 12:0.87619 13:0.12381 14:0 15:0 16:0.204762 17:0 18:0 19:0.00952381 20:0 21:0.0857143 22:0 23:0 24:0.0619048 25:0.0285714 26:0 27:0 28:0 29:0 30:0 31:0.128571 32:0.0666667 33:0.0047619 34:0.1 35:0 36:0 37:0.0285714 38:0.047619 39:0.0333333 40:0 41:0 42:0 43:0.0333333 44:0.0142857 45:0 46:0 47:0 48:0 49:0.0190476 50:0 51:0.00952381 52:0.0238095 53:0 54:0 55:0 56:0 57:0.0380952 58:0 59:0 60:0 61:0 62:0.047619 63:0.0142857 64:0 
0.01258065839761824 1:0.284742 2:0.273737 3:0.258423 4:0.403922 5:0.0980392 6:0.282353 7:0.116197 8:0 9:0.570423 10:0.232394 11:0.0809859 12:1 13:0 14:0 15:0 16:0.0246479 17:0.0140845 18:0 19:0.0176056 20:0.0176056 21:0 22:0 23:0.0211268 24:0.0457746 25:0 26:0.0528169 27:0.144366 28:0.0140845 29:0.0316901 30:0 31:0 32:0.056338 33:0 34:0 35:0 36:0.00704225 37:0.00352113 38:0.179577 39:0 40:0.0457746 41:0.00352113 42:0.0140845 43:0.0105634 44:0 45:0 46:0 47:0 48:0 49:0.0176056 50:0 51:0.0352113 52:0.126761 53:0 54:0 55:0.00704225 56:0.0704225 57:0 58:0.0140845 59:0 60:0 61:0 62:0.00352113 63:0.00704225 64:0.00352113 
0.2220665567255341 1:0.185379 2:0.179327 3:0.141331 4:0.372549 5:0.235294 6:0.184314 7:0 8:0 9:0.972441 10:0.0275591 11:0 12:1 13:0 14:0 15:0 16:0.192913 17:0 18:0 19:0 20:0 21:0 22:0 23:0 24:0.492126 25:0 26:0 27:0 28:0 29:0 30:0 31:0 32:0 33:0 34:0 35:0 36:0 37:0 38:0.314961 39:0 40:0 41:0 42:0 43:0 44:0 45:0 46:0 47:0 48:0 49:0 50:0 51:0 52:0 53:0 54:0 55:0 56:0 57:0 58:0 59:0 60:0 61:0 62:0 63:0 64:0 
0.04501328534488314 1:0.984839 2:0.949005 3:0.886202 4:0.4 5:0.101961 6:0.984314 7:0 8:0 9:1 10:0 11:0 12:1 13:0 14:0 15:0 16:0 17:0 18:0 19:0 20:0 21:0 22:0 23:0 24:0.925651 25:0 26:0 27:0 28:0 29:0 30:0 31:0 32:0 33:0 34:0 35:0 36:0 37:0 38:0.0743494 39:0 40:0 41:0 42:0 43:0 44:0 45:0 46:0 47:0 48:0 49:0 50:0 51:0 52:0 53:0 54:0 55:0 56:0 57:0 58:0 59:0 60:0 61:0 62:0 63:0 64:0 
0.006961045207190691 1:0.213718 2:0.208735 3:0.207758 4:0.411765 5:0.0352941 6:0.211765 7:0.238267 8:0.0541516 9:0.292419 10:0.111913 11:0.303249 12:1 13:0 14:0 15:0 16:0.148014 17:0 18:0 19:0.032491 20:0 21:0 22:0 23:0 24:0.0722022 25:0 26:0.0794224 27:0.191336 28:0 29:0.00722022 30:0 31:0 32:0.0758123 33:0 34:0 35:0 36:0.00361011 37:0.0361011 38:0.173285 39:0 40:0.00361011 41:0.00722022 42:0 43:0.0216607 44:0 45:0 46:0 47:0 48:0 49:0.0144404 50:0.00361011 51:0 52:0.111913 53:0 54:0 55:0 56:0 57:0.00361011 58:0.00361011 59:0 60:0 61:0 62:0.0108303 63:0 64:0 
0.02980199150157039 1:0.0973472 2:0.0793695 3:0.065298 4:0.411765 5:0.333333 6:0.0941176 7:0 8:0 9:0.368627 10:0.631373 11:0 12:0.427451 13:0.572549 14:0 15:0 16:0 17:0 18:0 19:0 20:0 21:0 22:0 23:0 24:0.988235 25:0 26:0 27:0 28:0 29:0 30:0 31:0 32:0 33:0 34:0 35:0 36:0 37:0 38:0.0117647 39:0 40:0 41:0 42:0 43:0 44:0 45:0 46:0 47:0 48:0 49:0 50:0 51:0 52:0 53:0 54:0 55:0 56:0 57:0 58:0 59:0 60:0 61:0 62:0 63:0 64:0 
0.005258054451141597 1:0.236461 2:0.315164 3:0.365018 4:0.0705882 5:0.352941 6:0.364706 7:1 8:0 9:0 10:0 11:0 12:0.432526 13:0.567474 14:0 15:0 16:0.211073 17:0 18:0 19:0 20:0 21:0 22:0 23:0 24:0.107266 25:0 26:0 27:0 28:0 29:0 30:0 31:0 32:0.0346021 33:0 34:0 35:0 36:0 37:0 38:0.245675 39:0 40:0 41:0.00346021 42:0 43:0.114187 44:0 45:0 46:0 47:0.0519031 48:0 49:0.0415225 50:0 51:0.0138408 52:0.15917 53:0 54:0 55:0 56:0 57:0 58:0.00346021 59:0 60:0 61:0 62:0 63:0.0138408 64:0 
0.007643401113987536 1:0.42665 2:0.408007 3:0.369675 4:0.388235 5:0.129412 6:0.423529 7:0 8:0 9:0.95288 10:0.0471204 11:0 12:1 13:0 14:0 15:0 16:0.0732984 17:0.0628272 18:0.0104712 19:0.0732984 20:0 21:0.026178 22:0 23:0 24:0.0104712 25:0.0157068 26:0.172775 27:0.136126 28:0 29:0.0575916 30:0 31:0 32:0.0104712 33:0.0104712 34:0 35:0.0209424 36:0 37:0 38:0.0104712 39:0.0209424 40:0.078534 41:0 42:0 43:0.078534 44:0 45:0 46:0 47:0 48:0 49:0 50:0 51:0.0314136 52:0.0314136 53:0 54:0 55:0 56:0 57:0 58:0 59:0 60:0.0052356 61:0 62:0.0575916 63:0.0052356 64:0 
0.001910610878398037 1:0.314718 2:0.30752 3:0.306006 4:0.470588 5:0.0235294 6:0.313726 7:0.360759 8:0 9:0.14557 10:0.449367 11:0.0443038 12:1 13:0 14:0 15:0 16:0 17:0 18:0 19:0.0379747 20:0 21:0 22:0.196203 23:0.0379747 24:0.00632911 25:0 26:0.0443038 27:0.151899 28:0 29:0 30:0 31:0 32:0.0506329 33:0 34:0 35:0 36:0 37:0.00632911 38:0.0316456 39:0 40:0.0696203 41:0.0443038 42:0 43:0.0379747 44:0 45:0 46:0 47:0.0632911 48:0 49:0 50:0 51:0.0126582 52:0.0886076 53:0 54:0 55:0.0126582 56:0.0189873 57:0 58:0.0443038 59:0 60:0 61:0 62:0 63:0.00632911 64:0.0379747 
1 1:0.17217 2:0.170825 3:0.138504 4:0.352941 5:0.184314 6:0.168627 7:0 8:0 9:0.967742 10:0.0322581 11:0 12:1 13:0 14:0 15:0 16:0.0362903 17:0 18:0 19:0 20:0 21:0 22:0 23:0 24:0.802419 25:0 26:0 27:0 28:0 29:0 30:0 31:0 32:0 33:0 34:0 35:0 36:0 37:0 38:0.16129 39:0 40:0 41:0 42:0 43:0 44:0 45:0 46:0 47:0 48:0 49:0 50:0 51:0 52:0 53:0 54:0 55:0 56:0 57:0 58:0 59:0 60:0 61:0 62:0 63:0 64:0 
0.01398665018029066 1:0.993474 2:0.959164 3:0.898097 4:0.396078 5:0.0941176 6:0.992157 7:0 8:0 9:1 10:0 11:0 12:1 13:0 14:0 15:0 16:0 17:0 18:0 19:0 20:0 21:0 22:0 23:0 24:1 25:0 26:0 27:0 28:0 29:0 30:0 31:0 32:0 33:0 34:0 35:0 36:0 37:0 38:0 39:0 40:0 41:0 42:0 43:0 44:0 45:0 46:0 47:0 48:0 49:0 50:0 51:0 52:0 53:0 54:0 55:0 56:0 57:0 58:0 59:0 60:0 61:0 62:0 63:0 64:0 
0.0002555296640845426 1:0.183675 2:0.323574 3:0.379447 4:0.0862745 5:0.521569 6:0.376471 7:0.996743 8:0.00325733 9:0 10:0 11:0 12:0.0716612 13:0.921824 14:0.00651466 15:0 16:0.283388 17:0 18:0 19:0 20:0 21:0.029316 22:0 23:0 24:0.315961 25:0 26:0 27:0 28:0 29:0 30:0 31:0 32:0.029316 33:0 34:0.0228013 35:0 36:0 37:0.029316 38:0.0260586 39:0 40:0 41:0.00977199 42:0 43:0.0749186 44:0 45:0 46:0 47:0.00651466 48:0 49:0.0390879 50:0 51:0 52:0.0684039 53:0 54:0 55:0 56:0.00651466 57:0.019544 58:0.00325733 59:0 60:0 61:0 62:0.019544 63:0.0162866 64:0 
0.0005512076333834 1:0.416569 2:0.39451 3:0.354951 4:0.396078 5:0.14902 6:0.415686 7:0 8:0 9:1 10:0 11:0 12:0.9875 13:0.0125 14:0 15:0 16:0 17:0 18:0 19:0 20:0 21:0 22:0.0125 23:0.1375 24:0 25:0 26:0 27:0.0125 28:0 29:0.0875 30:0 31:0 32:0.0125 33:0.0125 34:0 35:0 36:0.0375 37:0 38:0 39:0 40:0 41:0.05 42:0 43:0 44:0 45:0.1 46:0 47:0 48:0 49:0 50:0.05 51:0 52:0 53:0.3 54:0 55:0.0125 56:0 57:0.0125 58:0.05 59:0 60:0.025 61:0.0375 62:0.05 63:0 64:0 
0.2779414555792135 1:0.157827 2:0.148877 3:0.122249 4:0.392157 5:0.223529 6:0.156863 7:0 8:0 9:0.96371 10:0.0362903 11:0 12:1 13:0 14:0 15:0 16:0.0604839 17:0 18:0 19:0 20:0 21:0 22:0 23:0 24:0.66129 25:0 26:0 27:0 28:0 29:0 30:0 31:0 32:0 33:0 34:0 35:0 36:0 37:0 38:0.278226 39:0 40:0 41:0 42:0 43:0 44:0 45:0 46:0 47:0 48:0 49:0 50:0 51:0 52:0 53:0 54:0 55:0 56:0 57:0 58:0 59:0 60:0 61:0 62:0 63:0 64:0 
0.408101668201407 1:0.140612 2:0.129366 3:0.105409 4:0.392157 5:0.258824 6:0.137255 7:0 8:0 9:0.797665 10:0.202335 11:0 12:0.929961 13:0.0700389 14:0 15:0 16:0 17:0 18:0 19:0 20:0 21:0 22:0 23:0 24:0.984436 25:0 26:0 27:0 28:0 29:0 30:0 31:0 32:0 33:0 34:0 35:0 36:0 37:0 38:0.0155642 39:0 40:0 41:0 42:0 43:0 44:0 45:0 46:0 47:0 48:0 49:0 50:0 51:0 52:0 53:0 54:0 55:0 56:0 57:0 58:0 59:0 60:0 61:0 62:0 63:0 64:0 
1 1:0.996872 2:0.972085 3:0.917138 4:0.392157 5:0.0823529 6:0.996078 7:0 8:0 9:1 10:0 11:0 12:1 13:0 14:0 15:0 16:0 17:0 18:0 19:0 20:0 21:0 22:0 23:0 24:1 25:0 26:0 27:0 28:0 29:0 30:0 31:0 32:0 33:0 34:0 35:0 36:0 37:0 38:0 39:0 40:0 41:0 42:0 43:0 44:0 45:0 46:0 47:0 48:0 49:0 50:0 51:0 52:0 53:0 54:0 55:0 56:0 57:0 58:0 59:0 60:0 61:0 62:0 63:0 64:0 
0.001414856539326001 1:0.383529 2:0.351605 3:0.335483 4:0.431373 5:0.12549 6:0.380392 7:0 8:0 9:0.37037 10:0.618519 11:0.0111111 12:0.996296 13:0.0037037 14:0 15:0 16:0.0111111 17:0.0703704 18:0.0148148 19:0.0259259 20:0.0037037 21:0 22:0.0481481 23:0.00740741 24:0 25:0.00740741 26:0.0814815 27:0.118519 28:0 29:0.0555556 30:0 31:0 32:0.0037037 33:0.00740741 34:0 35:0.00740741 36:0 37:0.0037037 38:0 39:0 40:0.0259259 41:0.0111111 42:0 43:0.118519 44:0 45:0 46:0 47:0.0666667 48:0 49:0.0111111 50:0.00740741 51:0.0185185 52:0.0222222 53:0.062963 54:0 55:0 56:0.0185185 57:0.0111111 58:0.0407407 59:0 60:0 61:0.0111111 62:0.0333333 63:0.0592593 64:0 
0.002704193342736309 1:0.178362 2:0.17724 3:0.180008 4:0 5:0 6:0.176471 7:0.423529 8:0 9:0.203922 10:0.0784314 11:0.294118 12:1 13:0 14:0 15:0 16:0.286275 17:0 18:0 19:0 20:0 21:0 22:0 23:0 24:0.180392 25:0 26:0 27:0 28:0 29:0 30:0 31:0 32:0.0117647 33:0 34:0 35:0 36:0 37:0.0235294 38:0.435294 39:0 40:0 41:0 42:0 43:0 44:0 45:0 46:0 47:0.00784314 48:0 49:0.027451 50:0 51:0 52:0.0196078 53:0 54:0 55:0 56:0.00784314 57:0 58:0 59:0 60:0 61:0 62:0 63:0 64:0 
5.664470319407464e-05 1:0.138808 2:0.134917 3:0.134902 4:0.470588 5:0.027451 6:0.137255 7:0.507692 8:0 9:0 10:0.492308 11:0 12:1 13:0 14:0 15:0 16:0.284615 17:0 18:0 19:0 20:0 21:0 22:0 23:0 24:0.303846 25:0 26:0 27:0 28:0 29:0 30:0 31:0 32:0 33:0 34:0 35:0 36:0 37:0 38:0.4 39:0 40:0 41:0 42:0 43:0 44:0 45:0 46:0 47:0.0115385 48:0 49:0 50:0 51:0 52:0 53:0 54:0 55:0 56:0 57:0 58:0 59:0 60:0 61:0 62:0 63:0 64:0 
0.07369081577395636 1:0.222066 2:0.233122 3:0.19006 4:0.321569 5:0.188235 6:0.231373 7:0 8:0 9:1 10:0 11:0 12:1 13:0 14:0 15:0 16:0.280769 17:0 18:0 19:0 20:0 21:0 22:0 23:0 24:0.561538 25:0 26:0 27:0 28:0 29:0 30:0 31:0 32:0 33:0 34:0 35:0 36:0 37:0 38:0.103846 39:0 40:0 41:0 42:0 43:0.0230769 44:0 45:0 46:0 47:0 48:0 49:0 50:0 51:0 52:0.0307692 53:0 54:0 55:0 56:0 57:0 58:0 59:0 60:0 61:0 62:0 63:0 64:0 
0.6713798872756782 1:0.983992 2:0.945098 3:0.875843 4:0.392157 5:0.109804 6:0.980392 7:0 8:0 9:1 10:0 11:0 12:1 13:0 14:0 15:0 16:0 17:0 18:0 19:0 20:0 21:0 22:0 23:0 24:1 25:0 26:0 27:0 28:0 29:0 30:0 31:0 32:0 33:0 34:0 35:0 36:0 37:0 38:0 39:0 40:0 41:0 42:0 43:0 44:0 45:0 46:0 47:0 48:0 49:0 50:0 51:0 52:0 53:0 54:0 55:0 56:0 57:0 58:0 59:0 60:0 61:0 62:0 63:0 64:0 
0.0003072098884011061 1:0.697357 2:0.678943 3:0.630179 4:0.380392 5:0.0941176 6:0.694118 7:0 8:0 9:1 10:0 11:0 12:1 13:0 14:0 15:0 16:0 17:0.0869565 18:0 19:0 20:0 21:0 22:0.565217 23:0 24:0 25:0 26:0.0869565 27:0.0434783 28:0 29:0 30:0 31:0 32:0 33:0 34:0 35:0 36:0 37:0 38:0 39:0 40:0 41:0 42:0 43:0 44:0 45:0 46:0 47:0.0434783 48:0 49:0 50:0 51:0 52:0 53:0 54:0 55:0 56:0 57:0 58:0 59:0 60:0 61:0 62:0 63:0.0434783 64:0.130435 
0.0006060449433218523 1:0.113196 2:0.121099 3:0.116466 4:0.176471 5:0.0666667 6:0.117647 7:0.478764 8:0.389961 9:0.131274 10:0 11:0 12:1 13:0 14:0 15:0 16:0.177606 17:0 18:0 19:0 20:0 21:0 22:0 23:0 24:0.046332 25:0 26:0 27:0.003861 28:0 29:0 30:0 31:0 32:0.0965251 33:0 34:0 35:0 36:0 37:0.034749 38:0.378378 39:0 40:0 41:0.003861 42:0 43:0.023166 44:0 45:0 46:0 47:0.011583 48:0 49:0.003861 50:0 51:0.034749 52:0.135135 53:0 54:0 55:0 56:0.023166 57:0 58:0.019305 59:0 60:0 61:0 62:0 63:0.003861 64:0.003861 
0.3692802592360464 1:0.136245 2:0.132353 3:0.110038 4:0.372549 5:0.176471 6:0.133333 7:0 8:0 9:0.895522 10:0.104478 11:0 12:1 13:0 14:0 15:0 16:0.130597 17:0 18:0 19:0 20:0 21:0 22:0 23:0 24:0.473881 25:0 26:0 27:0 28:0 29:0 30:0 31:0 32:0 33:0 34:0 35:0 36:0 37:0 38:0.395522 39:0 40:0 41:0 42:0 43:0 44:0 45:0 46:0 47:0 48:0 49:0 50:0 51:0 52:0 53:0 54:0 55:0 56:0 57:0 58:0 59:0 60:0 61:0 62:0 63:0 64:0 
0.3536916010584279 1:0.133654 2:0.12721 3:0.104993 4:0.384314 5:0.235294 6:0.133333 7:0 8:0 9:0.97026 10:0.0297398 11:0 12:1 13:0 14:0 15:0 16:0.0557621 17:0 18:0 19:0 20:0 21:0 22:0 23:0 24:0.791822 25:0 26:0 27:0 28:0 29:0 30:0 31:0 32:0 33:0 34:0 35:0 36:0 37:0 38:0.152416 39:0 40:0 41:0 42:0 43:0 44:0 45:0 46:0 47:0 48:0 49:0 50:0 51:0 52:0 53:0 54:0 55:0 56:0 57:0 58:0 59:0 60:0 61:0 62:0 63:0 64:0 
0.01329530727255634 1:0.95572 2:0.90212 3:0.789156 4:0.388235 5:0.172549 6:0.952941 7:0 8:0 9:1 10:0 11:0 12:1 13:0 14:0 15:0 16:0.574899 17:0 18:0 19:0 20:0 21:0 22:0 23:0 24:0.097166 25:0 26:0 27:0 28:0 29:0 30:0 31:0 32:0 33:0 34:0 35:0 36:0 37:0 38:0.190283 39:0 40:0.00809717 41:0 42:0.00809717 43:0 44:0 45:0 46:0 47:0.00809717 48:0.00404858 49:0.0850202 50:0 51:0.0161943 52:0 53:0 54:0 55:0 56:0 57:0 58:0 59:0 60:0 61:0 62:0 63:0 64:0 
1 1:0.139208 2:0.128285 3:0.108184 4:0.396078 5:0.227451 6:0.137255 7:0 8:0 9:0.902834 10:0.097166 11:0 12:1 13:0 14:0 15:0 16:0 17:0 18:0 19:0 20:0 21:0 22:0 23:0 24:0.979757 25:0 26:0 27:0 28:0 29:0 30:0 31:0 32:0 33:0 34:0 35:0 36:0 37:0 38:0.0202429 39:0 40:0 41:0 42:0 43:0 44:0 45:0 46:0 47:0 48:0 49:0 50:0 51:0 52:0 53:0 54:0 55:0 56:0 57:0 58:0 59:0 60:0 61:0 62:0 63:0 64:0 
0.001878301735506523 1:0.42664 2:0.392427 3:0.3643 4:0.411765 5:0.14902 6:0.423529 7:0 8:0 9:0.655172 10:0.344828 11:0 12:1 13:0 14:0 15:0 16:0 17:0.0344828 18:0 19:0.0344828 20:0 21:0 22:0 23:0.241379 24:0 25:0 26:0.0689655 27:0.137931 28:0 29:0.0689655 30:0 31:0 32:0 33:0 34:0 35:0 36:0 37:0 38:0 39:0 40:0.0344828 41:0.0344828 42:0 43:0 44:0 45:0 46:0 47:0 48:0 49:0 50:0.103448 51:0 52:0 53:0 54:0 55:0 56:0 57:0 58:0.0689655 59:0 60:0.103448 61:0 62:0.0344828 63:0 64:0 
0.0002110603020359001 1:0.185061 2:0.171055 3:0.196452 4:0.639216 5:0.141176 6:0.196078 7:0.142857 8:0 9:0 10:0.047619 11:0.809524 12:1 13:0 14:0 15:0 16:0 17:0 18:0 19:0 20:0 21:0 22:0 23:0.238095 24:0 25:0 26:0 27:0 28:0 29:0 30:0 31:0 32:0.0952381 33:0 34:0 35:0 36:0 37:0 38:0 39:0 40:0 41:0.238095 42:0 43:0 44:0 45:0 46:0 47:0.047619 48:0 49:0 50:0.047619 51:0 52:0.0952381 53:0 54:0 55:0 56:0 57:0 58:0.0952381 59:0 60:0 61:0 62:0 63:0.142857 64:0 
0.0005759744978831042 1:0.204542 2:0.336232 3:0.426087 4:0.0705882 5:0.517647 6:0.423529 7:0.992095 8:0.00395257 9:0.00395257 10:0 11:0 12:0.0632411 13:0.928854 14:0.00790514 15:0 16:0.201581 17:0.00790514 18:0 19:0.00395257 20:0 21:0.0316206 22:0 23:0.00395257 24:0.304348 25:0.00790514 26:0.110672 27:0.0237154 28:0 29:0 30:0 31:0.00790514 32:0.027668 33:0 34:0.0118577 35:0 36:0 37:0.00790514 38:0 39:0 40:0.055336 41:0 42:0 43:0.110672 44:0 45:0 46:0 47:0 48:0 49:0 50:0 51:0 52:0 53:0 54:0 55:0 56:0 57:0 58:0 59:0 60:0 61:0 62:0.0355731 63:0.0474308 64:0 
1 1:0.132833 2:0.125834 3:0.102648 4:0.368627 5:0.211765 6:0.129412 7:0 8:0 9:1 10:0 11:0 12:0.992032 13:0.00796813 14:0 15:0 16:0.00398406 17:0 18:0 19:0 20:0 21:0 22:0 23:0 24:0.916335 25:0 26:0 27:0 28:0 29:0 30:0 31:0 32:0 33:0 34:0 35:0 36:0 37:0 38:0.0796813 39:0 40:0 41:0 42:0 43:0 44:0 45:0 46:0 47:0 48:0 49:0 50:0 51:0 52:0 53:0 54:0 55:0 56:0 57:0 58:0 59:0 60:0 61:0 62:0 63:0 64:0 
0.0003839549161041309 1:0.19968 2:0.323521 3:0.4 4:0.0705882 5:0.509804 6:0.4 7:0.930612 8:0.00408163 9:0.0653061 10:0 11:0 12:0.171429 13:0.779592 14:0.0489796 15:0 16:0.0163265 17:0 18:0 19:0.00408163 20:0 21:0.0816327 22:0 23:0 24:0.453061 25:0.0122449 26:0 27:0 28:0 29:0 30:0 31:0.126531 32:0.0204082 33:0 34:0.0734694 35:0 36:0 37:0.0816327 38:0.0285714 39:0.0122449 40:0 41:0 42:0 43:0 44:0.00408163 45:0 46:0 47:0 48:0 49:0 50:0 51:0 52:0 53:0 54:0 55:0 56:0 57:0.0653061 58:0 59:0 60:0 61:0 62:0.0204082 63:0 64:0 
0.001185764746329445 1:0.327366 2:0.299233 3:0.245695 4:0.392157 5:0.254902 6:0.32549 7:0 8:0 9:1 10:0 11:0 12:0.956522 13:0.0434783 14:0 15:0 16:0 17:0 18:0 19:0 20:0 21:0 22:0 23:0.26087 24:0 25:0 26:0 27:0 28:0 29:0 30:0 31:0 32:0 33:0 34:0 35:0 36:0 37:0 38:0 39:0 40:0 41:0.0434783 42:0 43:0 44:0 45:0 46:0 47:0 48:0 49:0 50:0 51:0 52:0 53:0.565217 54:0 55:0 56:0 57:0 58:0.0434783 59:0 60:0.0869565 61:0 62:0 63:0 64:0 
0.0006664636042677572 1:0.297354 2:0.302722 3:0.28736 4:0.294118 5:0.0509804 6:0.301961 7:0.15534 8:0.00485437 9:0.718447 10:0 11:0.121359 12:1 13:0 14:0 15:0 16:0.0145631 17:0.0582524 18:0 19:0.038835 20:0.0145631 21:0.00485437 22:0.0194175 23:0.0436893 24:0.0145631 25:0 26:0.0194175 27:0.0242718 28:0.00970874 29:0.0533981 30:0 31:0 32:0.0582524 33:0.00485437 34:0 35:0 36:0.038835 37:0.038835 38:0.0194175 39:0 40:0.0194175 41:0.0291262 42:0.0145631 43:0.0242718 44:0 45:0.0242718 46:0 47:0.0194175 48:0 49:0.0242718 50:0.0825243 51:0.0194175 52:0.0194175 53:0 54:0.0339806 55:0.0291262 56:0.00485437 57:0.0485437 58:0.0194175 59:0.00485437 60:0.0291262 61:0.00485437 62:0.0339806 63:0.00485437 64:0.0242718 
0.000279674700305722 1:0.116456 2:0.121538 3:0.120452 4:0.117647 5:0.0352941 6:0.117647 7:0.846154 8:0.103846 9:0.0461538 10:0.00384615 11:0 12:0.988462 13:0.0115385 14:0 15:0 16:0.165385 17:0 18:0 19:0 20:0 21:0 22:0 23:0 24:0.142308 25:0 26:0 27:0 28:0 29:0 30:0 31:0 32:0.123077 33:0 34:0 35:0 36:0 37:0.00384615 38:0.288462 39:0 40:0 41:0.0269231 42:0 43:0 44:0 45:0 46:0 47:0.0576923 48:0 49:0.0346154 50:0.00384615 51:0.0307692 52:0.0346154 53:0 54:0 55:0 56:0.0269231 57:0 58:0.0230769 59:0 60:0 61:0 62:0 63:0.0192308 64:0.0192308 
0.0001995741263353576 1:0.350624 2:0.319251 3:0.268093 4:0.396078 5:0.235294 6:0.34902 7:0 8:0 9:1 10:0 11:0 12:1 13:0 14:0 15:0 16:0 17:0 18:0 19:0 20:0 21:0 22:0 23:0.181818 24:0 25:0 26:0 27:0 28:0 29:0 30:0 31:0 32:0 33:0 34:0 35:0 36:0 37:0 38:0 39:0 40:0 41:0 42:0 43:0 44:0 45:0 46:0 47:0 48:0 49:0 50:0 51:0 52:0 53:0.727273 54:0 55:0 56:0 57:0 58:0.0909091 59:0 60:0 61:0 62:0 63:0 64:0 
3.32099663161447e-05 1:0.326879 2:0.315931 3:0.299183 4:0.403922 5:0.0862745 6:0.32549 7:0 8:0 9:0.90625 10:0.09375 11:0 12:1 13:0 14:0 15:0 16:0 17:0 18:0 19:0.135417 20:0 21:0 22:0.03125 23:0.125 24:0 25:0 26:0.0104167 27:0.0833333 28:0 29:0.0208333 30:0 31:0 32:0 33:0 34:0 35:0 36:0 37:0 38:0 39:0 40:0.0104167 41:0.0104167 42:0 43:0 44:0 45:0 46:0 47:0 48:0 49:0 50:0 51:0 52:0 53:0.458333 54:0 55:0 56:0 57:0 58:0 59:0 60:0.114583 61:0 62:0 63:0 64:0 
5.211536517000663e-05 1:0.198628 2:0.180929 3:0.354417 4:0.694118 5:0.490196 6:0.352941 7:0.235741 8:0 9:0 10:0 11:0.764259 12:0.0342205 13:0.965779 14:0 15:0 16:0.00380228 17:0 18:0 19:0.00380228 20:0 21:0 22:0 23:0.0798479 24:0.319392 25:0 26:0.0190114 27:0.0874525 28:0 29:0 30:0 31:0 32:0.0608365 33:0 34:0 35:0 36:0 37:0.00380228 38:0.095057 39:0 40:0.00760456 41:0 42:0 43:0.0152091 44:0 45:0 46:0 47:0 48:0 49:0 50:0 51:0 52:0.277567 53:0 54:0 55:0 56:0.00380228 57:0 58:0 59:0 60:0 61:0 62:0 63:0.0228137 64:0 
0.003870400773182353 1:0.918806 2:0.873782 3:0.791775 4:0.396078 5:0.141176 6:0.917647 7:0 8:0 9:1 10:0 11:0 12:1 13:0 14:0 15:0 16:0.188679 17:0.00314465 18:0.00314465 19:0 20:0.0125786 21:0 22:0 23:0 24:0.0251572 25:0 26:0.00943396 27:0 28:0.00943396 29:0 30:0 31:0 32:0.0534591 33:0 34:0 35:0 36:0 37:0 38:0.00628931 39:0.00628931 40:0.0440252 41:0.0503145 42:0.0534591 43:0.0471698 44:0 45:0 46:0.00314465 47:0.0534591 48:0 49:0.0440252 50:0.00628931 51:0.0943396 52:0.0503145 53:0.0566038 54:0 55:0 56:0.0283019 57:0 58:0.0188679 59:0 60:0 61:0 62:0 63:0.122642 64:0 
0.004802848880122375 1:0.27898 2:0.258418 3:0.245634 4:0.431373 5:0.12549 6:0.278431 7:0.213333 8:0 9:0.326667 10:0.396667 11:0.0633333 12:0.956667 13:0.04 14:0.00333333 15:0 16:0.0233333 17:0 18:0 19:0.00333333 20:0 21:0 22:0 23:0.06 24:0.0166667 25:0 26:0.00333333 27:0.12 28:0 29:0.00666667 30:0 31:0 32:0.0433333 33:0 34:0 35:0 36:0.0133333 37:0.0366667 38:0.0866667 39:0 40:0 41:0.0466667 42:0 43:0.123333 44:0 45:0.00333333 46:0 47:0.08 48:0 49:0.04 50:0.0166667 51:0.01 52:0.133333 53:0.00666667 54:0 55:0.00333333 56:0.02 57:0.00333333 58:0.0233333 59:0 60:0.0166667 61:0.00666667 62:0.01 63:0.04 64:0.00333333 
0.003566840268502203 1:0.226616 2:0.21919 3:0.221619 4:0.529412 5:0.0352941 6:0.223529 7:0.270968 8:0 9:0.0612903 10:0.364516 11:0.303226 12:1 13:0 14:0 15:0 16:0.145161 17:0 18:0 19:0 20:0 21:0 22:0 23:0 24:0.225806 25:0 26:0 27:0.00967742 28:0 29:0 30:0 31:0 32:0.0193548 33:0 34:0 35:0 36:0 37:0.00645161 38:0.354839 39:0 40:0 41:0.00645161 42:0 43:0.0677419 44:0 45:0 46:0 47:0.00645161 48:0 49:0.0419355 50:0.00322581 51:0 52:0.083871 53:0 54:0 55:0 56:0.00645161 57:0 58:0.016129 59:0 60:0 61:0 62:0 63:0.00645161 64:0 
0.004070526009840644 1:0.91789 2:0.876592 3:0.806693 4:0.396078 5:0.12549 6:0.917647 7:0.019544 8:0.0390879 9:0.941368 10:0 11:0 12:1 13:0 14:0 15:0 16:0.140065 17:0 18:0 19:0 20:0 21:0 22:0 23:0 24:0.0814332 25:0 26:0 27:0 28:0 29:0 30:0 31:0.00325733 32:0.019544 33:0.00325733 34:0 35:0 36:0 37:0 38:0.0781759 39:0 40:0.0618892 41:0.0390879 42:0.0651466 43:0.0684039 44:0.0586319 45:0 46:0 47:0.0130293 48:0.0944625 49:0.0423453 50:0 51:0.0749186 52:0.0358306 53:0.00651466 54:0 55:0 56:0.0162866 57:0 58:0.00977199 59:0 60:0 61:0 62:0 63:0.0390879 64:0 
1 1:0.136609 2:0.128363 3:0.105995 4:0.388235 5:0.207843 6:0.133333 7:0 8:0 9:1 10:0 11:0 12:0.99177 13:0.00823045 14:0 15:0 16:0 17:0 18:0 19:0 20:0 21:0 22:0 23:0 24:0.967078 25:0 26:0 27:0 28:0 29:0 30:0 31:0 32:0 33:0 34:0 35:0 36:0 37:0 38:0.0329218 39:0 40:0 41:0 42:0 43:0 44:0 45:0 46:0 47:0 48:0 49:0 50:0 51:0 52:0 53:0 54:0 55:0 56:0 57:0 58:0 59:0 60:0 61:0 62:0 63:0 64:0 
0.001049156024454862 1:0.159218 2:0.159044 3:0.157141 4:0 5:0 6:0.156863 7:0.565089 8:0.130178 9:0.0710059 10:0.221893 11:0.0118343 12:1 13:0 14:0 15:0 16:0.100592 17:0 18:0.00295858 19:0.0266272 20:0 21:0.00887574 22:0 23:0 24:0.319527 25:0.00887574 26:0 27:0 28:0 29:0 30:0 31:0 32:0 33:0.00295858 34:0.0295858 35:0.0384615 36:0 37:0.0384615 38:0.340237 39:0.00295858 40:0 41:0 42:0 43:0 44:0 45:0.00295858 46:0 47:0.0266272 48:0 49:0 50:0 51:0 52:0.00295858 53:0 54:0 55:0 56:0 57:0.0473373 58:0 59:0 60:0 61:0 62:0 63:0 64:0 
0.01405699841698939 1:0.964768 2:0.928162 3:0.85084 4:0.392157 5:0.121569 6:0.964706 7:0 8:0 9:1 10:0 11:0 12:1 13:0 14:0 15:0 16:0 17:0 18:0 19:0 20:0 21:0 22:0 23:0 24:0.952191 25:0 26:0 27:0 28:0 29:0 30:0 31:0 32:0 33:0 34:0 35:0 36:0 37:0 38:0.0438247 39:0 40:0 41:0.00398406 42:0 43:0 44:0 45:0 46:0 47:0 48:0 49:0 50:0 51:0 52:0 53:0 54:0 55:0 56:0 57:0 58:0 59:0 60:0 61:0 62:0 63:0 64:0 
0.4006467243773557 1:0.961979 2:0.920619 3:0.840349 4:0.396078 5:0.12549 6:0.960784 7:0 8:0 9:1 10:0 11:0 12:1 13:0 14:0 15:0 16:0.0546875 17:0 18:0 19:0 20:0 21:0 22:0 23:0 24:0.796875 25:0 26:0 27:0 28:0 29:0 30:0 31:0 32:0 33:0 34:0 35:0 36:0 37:0 38:0.109375 39:0 40:0 41:0 42:0 43:0 44:0 45:0 46:0 47:0 48:0 49:0.0390625 50:0 51:0 52:0 53:0 54:0 55:0 56:0 57:0 58:0 59:0 60:0 61:0 62:0 63:0 64:0 
0.003196288324534047 1:0.59079 2:0.592294 3:0.556535 4:0.341176 5:0.0666667 6:0.592157 7:0 8:0 9:0.993031 10:0.00696864 11:0 12:0.996516 13:0.00348432 14:0 15:0 16:0.087108 17:0 18:0.00348432 19:0 20:0.0174216 21:0.00348432 22:0 23:0.00696864 24:0.0313589 25:0.00348432 26:0.0452962 27:0.0174216 28:0.00696864 29:0.00348432 30:0 31:0 32:0 33:0.0452962 34:0 35:0 36:0 37:0 38:0.0243902 39:0 40:0.097561 41:0.00696864 42:0.10453 43:0.0731707 44:0.00348432 45:0 46:0.0278746 47:0.00348432 48:0.0557491 49:0.0243902 50:0.010453 51:0.0348432 52:0 53:0.0209059 54:0.0139373 55:0 56:0.0487805 57:0 58:0.0174216 59:0 60:0 61:0 62:0 63:0.0836237 64:0.0209059 
0.6345798528536761 1:0.125143 2:0.112005 3:0.0926371 4:0.396078 5:0.258824 6:0.121569 7:0 8:0 9:1 10:0 11:0 12:0.972789 13:0.0272109 14:0 15:0 16:0.0918367 17:0 18:0 19:0 20:0 21:0 22:0 23:0 24:0.802721 25:0 26:0 27:0 28:0 29:0 30:0 31:0 32:0 33:0 34:0 35:0 36:0 37:0 38:0.105442 39:0 40:0 41:0 42:0 43:0 44:0 45:0 46:0 47:0 48:0 49:0 50:0 51:0 52:0 53:0 54:0 55:0 56:0 57:0 58:0 59:0 60:0 61:0 62:0 63:0 64:0 
0.6904026089981068 1:0.114389 2:0.098733 3:0.0826697 4:0.411765 5:0.27451 6:0.113725 7:0 8:0 9:0.634615 10:0.365385 11:0 12:1 13:0 14:0 15:0 16:0 17:0 18:0 19:0 20:0 21:0 22:0 23:0 24:1 25:0 26:0 27:0 28:0 29:0 30:0 31:0 32:0 33:0 34:0 35:0 36:0 37:0 38:0 39:0 40:0 41:0 42:0 43:0 44:0 45:0 46:0 47:0 48:0 49:0 50:0 51:0 52:0 53:0 54:0 55:0 56:0 57:0 58:0 59:0 60:0 61:0 62:0 63:0 64:0 
0.7153099370687028 1:0.112227 2:0.0942058 3:0.0815011 4:0.411765 5:0.286275 6:0.109804 7:0 8:0 9:0.224719 10:0.775281 11:0 12:0.985019 13:0.0149813 14:0 15:0 16:0 17:0 18:0 19:0 20:0 21:0 22:0 23:0 24:0.981273 25:0 26:0 27:0 28:0 29:0 30:0 31:0 32:0 33:0 34:0 35:0 36:0 37:0 38:0.0187266 39:0 40:0 41:0 42:0 43:0 44:0 45:0 46:0 47:0 48:0 49:0 50:0 51:0 52:0 53:0 54:0 55:0 56:0 57:0 58:0 59:0 60:0 61:0 62:0 63:0 64:0 
0.0007825886841812903 1:0.92095 2:0.878414 3:0.794065 4:0.392157 5:0.137255 6:0.917647 7:0 8:0 9:1 10:0 11:0 12:1 13:0 14:0 15:0 16:0.103604 17:0.027027 18:0.0135135 19:0 20:0.0495495 21:0 22:0 23:0 24:0.238739 25:0 26:0.036036 27:0 28:0.018018 29:0 30:0 31:0 32:0 33:0.036036 34:0 35:0 36:0 37:0 38:0.0225225 39:0.00900901 40:0.045045 41:0 42:0.045045 43:0.0720721 44:0 45:0.018018 46:0.0315315 47:0 48:0.00900901 49:0.027027 50:0 51:0.018018 52:0 53:0 54:0.018018 55:0.0045045 56:0 57:0 58:0 59:0 60:0 61:0 62:0 63:0.0315315 64:0 
0.0002196862488171044 1:0.343862 2:0.313994 3:0.230083 4:0.380392 5:0.333333 6:0.341176 7:0 8:0 9:1 10:0 11:0 12:0.520548 13:0.328767 14:0.150685 15:0 16:0 17:0 18:0.0136986 19:0 20:0 21:0 22:0 23:0 24:0 25:0.0410959 26:0 27:0 28:0 29:0 30:0 31:0 32:0 33:0 34:0 35:0.0410959 36:0.0136986 37:0 38:0 39:0.0821918 40:0 41:0 42:0 43:0 44:0 45:0.0958904 46:0 47:0 48:0 49:0 50:0 51:0 52:0 53:0.589041 54:0 55:0 56:0 57:0 58:0 59:0 60:0 61:0.109589 62:0.0136986 63:0 64:0 
0.00145930096049389 1:0.782015 2:0.781609 3:0.757809 4:0.352941 5:0.0313726 6:0.780392 7:0 8:0.137931 9:0.862069 10:0 11:0 12:1 13:0 14:0 15:0 16:0 17:0 18:0 19:0 20:0.172414 21:0 22:0 23:0 24:0 25:0 26:0 27:0 28:0.172414 29:0 30:0.206897 31:0 32:0 33:0.0344828 34:0 35:0 36:0 37:0 38:0 39:0 40:0 41:0 42:0 43:0 44:0 45:0 46:0.0689655 47:0 48:0 49:0 50:0 51:0 52:0 53:0 54:0.0689655 55:0 56:0 57:0 58:0 59:0.172414 60:0 61:0 62:0 63:0 64:0.103448 
0.001631864330342788 1:0.683502 2:0.669033 3:0.636782 4:0.392157 5:0.0705882 6:0.682353 7:0 8:0 9:1 10:0 11:0 12:1 13:0 14:0 15:0 16:0 17:0.0172414 18:0.0172414 19:0 20:0.0172414 21:0 22:0.0344828 23:0.0172414 24:0 25:0.0172414 26:0 27:0 28:0 29:0.0172414 30:0.137931 31:0 32:0 33:0.0172414 34:0 35:0 36:0.0344828 37:0 38:0 39:0 40:0 41:0.0172414 42:0 43:0 44:0 45:0 46:0.0517241 47:0.0862069 48:0 49:0 50:0 51:0 52:0 53:0.0517241 54:0.172414 55:0.0862069 56:0.0172414 57:0 58:0.0344828 59:0.0344828 60:0.0689655 61:0.0517241 62:0 63:0 64:0 
0.003277201766725519 1:0.5342 2:0.524026 3:0.493456 4:0.384314 5:0.0823529 6:0.533333 7:0 8:0 9:0.907631 10:0.0923695 11:0 12:0.995984 13:0.00401606 14:0 15:0 16:0 17:0 18:0.0361446 19:0.00401606 20:0.0120482 21:0.00401606 22:0.00401606 23:0 24:0 25:0 26:0 27:0.00803213 28:0.0160643 29:0 30:0 31:0 32:0 33:0.0441767 34:0 35:0 36:0 37:0.00803213 38:0 39:0.0120482 40:0.0522088 41:0.0160643 42:0.0923695 43:0 44:0 45:0.00803213 46:0.0682731 47:0.0522088 48:0.0481928 49:0.00401606 50:0.0200803 51:0.0321285 52:0.0160643 53:0.100402 54:0.00803213 55:0 56:0.100402 57:0 58:0.0562249 59:0 60:0 61:0.0522088 62:0 63:0.0441767 64:0.0160643 
0.3804498310311885 1:0.143569 2:0.124294 3:0.112181 4:0.427451 5:0.223529 6:0.141176 7:0 8:0 9:0.0849421 10:0.915058 11:0 12:0.984556 13:0.015444 14:0 15:0 16:0.138996 17:0 18:0 19:0 20:0 21:0 22:0 23:0 24:0.772201 25:0 26:0 27:0 28:0 29:0 30:0 31:0 32:0 33:0 34:0 35:0 36:0 37:0 38:0.0888031 39:0 40:0 41:0 42:0 43:0 44:0 45:0 46:0 47:0 48:0 49:0 50:0 51:0 52:0 53:0 54:0 55:0 56:0 57:0 58:0 59:0 60:0 61:0 62:0 63:0 64:0 
0.8108194521119679 1:0.146514 2:0.130299 3:0.111718 4:0.403922 5:0.243137 6:0.145098 7:0 8:0 9:0.789683 10:0.210317 11:0 12:0.988095 13:0.0119048 14:0 15:0 16:0.111111 17:0 18:0 19:0 20:0 21:0 22:0 23:0 24:0.698413 25:0 26:0 27:0 28:0 29:0 30:0 31:0 32:0 33:0 34:0 35:0 36:0 37:0 38:0.190476 39:0 40:0 41:0 42:0 43:0 44:0 45:0 46:0 47:0 48:0 49:0 50:0 51:0 52:0 53:0 54:0 55:0 56:0 57:0 58:0 59:0 60:0 61:0 62:0 63:0 64:0 
0.02362385981450956 1:0.115567 2:0.103802 3:0.0868778 4:0.403922 5:0.243137 6:0.113725 7:0 8:0 9:1 10:0 11:0 12:1 13:0 14:0 15:0 16:0 17:0 18:0 19:0 20:0 21:0 22:0 23:0 24:1 25:0 26:0 27:0 28:0 29:0 30:0 31:0 32:0 33:0 34:0 35:0 36:0 37:0 38:0 39:0 40:0 41:0 42:0 43:0 44:0 45:0 46:0 47:0 48:0 49:0 50:0 51:0 52:0 53:0 54:0 55:0 56:0 57:0 58:0 59:0 60:0 61:0 62:0 63:0 64:0 
0.001185119164894244 1:0.904295 2:0.878711 3:0.786835 4:0.376471 5:0.129412 6:0.901961 7:0 8:0 9:1 10:0 11:0 12:1 13:0 14:0 15:0 16:0 17:0.047619 18:0.0238095 19:0 20:0.404762 21:0 22:0 23:0 24:0 25:0 26:0.0238095 27:0.047619 28:0 29:0.047619 30:0 31:0 32:0 33:0 34:0 35:0 36:0.0238095 37:0 38:0 39:0 40:0.0238095 41:0 42:0.0714286 43:0 44:0 45:0 46:0 47:0 48:0 49:0 50:0 51:0 52:0 53:0.119048 54:0 55:0 56:0 57:0 58:0 59:0 60:0 61:0 62:0 63:0 64:0 
0.01049658596338129 1:0.31779 2:0.299708 3:0.292211 4:0.435294 5:0.0862745 6:0.317647 7:0 8:0 9:0.18845 10:0.799392 11:0.0121581 12:1 13:0 14:0 15:0 16:0.130699 17:0.0334347 18:0.00303951 19:0 20:0.0273556 21:0 22:0 23:0 24:0.0851064 25:0 26:0.151976 27:0.0486322 28:0.0425532 29:0 30:0 31:0 32:0.0182371 33:0 34:0 35:0 36:0 37:0.00911854 38:0.0607903 39:0 40:0.12462 41:0 42:0.0212766 43:0.0607903 44:0 45:0 46:0 47:0 48:0 49:0.0121581 50:0 51:0.0516717 52:0.0486322 53:0 54:0 55:0 56:0.00303951 57:0 58:0 59:0 60:0 61:0 62:0 63:0.0273556 64:0.00911854 
0.005411679234673692 1:0.937658 2:0.902378 3:0.830065 4:0.392157 5:0.117647 6:0.937255 7:0 8:0 9:1 10:0 11:0 12:1 13:0 14:0 15:0 16:0.148936 17:0 18:0 19:0 20:0.0106383 21:0 22:0 23:0 24:0.361702 25:0 26:0.0567376 27:0.0319149 28:0 29:0 30:0 31:0 32:0 33:0 34:0 35:0 36:0 37:0 38:0.102837 39:0 40:0.0673759 41:0.0035461 42:0 43:0.070922 44:0 45:0 46:0 47:0 48:0 49:0.0070922 50:0 51:0.0070922 52:0 53:0.0531915 54:0 55:0 56:0 57:0 58:0.0141844 59:0 60:0 61:0 62:0 63:0.0638298 64:0 
0.01077126809672621 1:0.949095 2:0.914364 3:0.837549 4:0.388235 5:0.121569 6:0.94902 7:0 8:0 9:1 10:0 11:0 12:1 13:0 14:0 15:0 16:0.194888 17:0.00958466 18:0.00638978 19:0 20:0.00958466 21:0 22:0 23:0 24:0.408946 25:0 26:0.00958466 27:0 28:0 29:0 30:0 31:0 32:0 33:0.00958466 34:0 35:0 36:0 37:0 38:0.124601 39:0 40:0.0479233 41:0 42:0.0191693 43:0.0223642 44:0.00958466 45:0 46:0 47:0 48:0.0351438 49:0.0383387 50:0 51:0.0159744 52:0 53:0 54:0 55:0 56:0 57:0 58:0 59:0 60:0 61:0 62:0 63:0 64:0 
0.02026776021668288 1:0.169748 2:0.127474 3:0.117662 4:0.45098 5:0.301961 6:0.168627 7:0 8:0 9:0 10:1 11:0 12:0.752896 13:0.247104 14:0 15:0 16:0 17:0 18:0 19:0 20:0 21:0 22:0 23:0 24:0.803089 25:0 26:0 27:0.015444 28:0 29:0 30:0 31:0 32:0.046332 33:0 34:0 35:0 36:0 37:0.003861 38:0.0617761 39:0 40:0 41:0.003861 42:0 43:0 44:0 45:0 46:0 47:0.00772201 48:0 49:0 50:0 51:0 52:0.0540541 53:0 54:0 55:0 56:0.003861 57:0 58:0 59:0 60:0 61:0 62:0 63:0 64:0 
0.0003238008102287164 1:0.18739 2:0.183366 3:0.193279 4:0.666667 5:0.0627451 6:0.192157 7:0.00371747 8:0 9:0 10:0.0223048 11:0.973978 12:1 13:0 14:0 15:0 16:0.00371747 17:0 18:0 19:0 20:0 21:0 22:0 23:0 24:0.535316 25:0 26:0 27:0 28:0 29:0 30:0 31:0 32:0.0185874 33:0 34:0 35:0 36:0 37:0 38:0.312268 39:0 40:0 41:0 42:0 43:0 44:0 45:0 46:0 47:0 48:0 49:0 50:0 51:0 52:0.130112 53:0 54:0 55:0 56:0 57:0 58:0 59:0 60:0 61:0 62:0 63:0 64:0 
0.0008302758088186315 1:0.169604 2:0.16362 3:0.175602 4:0.627451 5:0.0666667 6:0.172549 7:0.16263 8:0 9:0.0692042 10:0.0622837 11:0.705882 12:1 13:0 14:0 15:0 16:0.131488 17:0 18:0.0138408 19:0.0588235 20:0 21:0.0207612 22:0 23:0 24:0.0242215 25:0.0207612 26:0.00692042 27:0.0276817 28:0 29:0.0242215 30:0 31:0 32:0.0795848 33:0.00692042 34:0.00346021 35:0.0311419 36:0 37:0.0588235 38:0.00346021 39:0 40:0.0207612 41:0.0103806 42:0 43:0.083045 44:0 45:0 46:0 47:0.017301 48:0 49:0.0207612 50:0.00692042 51:0.00692042 52:0.0899654 53:0 54:0 55:0 56:0 57:0.0726644 58:0 59:0 60:0 61:0 62:0.00346021 63:0.155709 64:0 
0.00286195386723661 1:0.917378 2:0.876868 3:0.780257 4:0.388235 5:0.14902 6:0.913725 7:0 8:0 9:1 10:0 11:0 12:0.996564 13:0.00343643 14:0 15:0 16:0.364261 17:0.024055 18:0 19:0 20:0.0309278 21:0 22:0 23:0 24:0.140893 25:0.0103093 26:0.00687285 27:0 28:0 29:0 30:0 31:0 32:0.00343643 33:0.0206186 34:0 35:0 36:0 37:0 38:0.0378007 39:0 40:0.0790378 41:0.00687285 42:0.0412371 43:0.0103093 44:0 45:0.00343643 46:0.00687285 47:0 48:0 49:0.0584192 50:0 51:0.00343643 52:0.0206186 53:0 54:0.0103093 55:0 56:0 57:0 58:0 59:0 60:0 61:0 62:0 63:0.0446735 64:0 
0.001109017875487675 1:0.363682 2:0.360638 3:0.362248 4:0.588235 5:0.0117647 6:0.360784 7:0.373134 8:0.0223881 9:0.320896 10:0.246269 11:0.0373134 12:1 13:0 14:0 15:0 16:0 17:0.0149254 18:0.00746269 19:0.0298507 20:0.0447761 21:0 22:0.0820896 23:0.0746269 24:0.0149254 25:0 26:0.0746269 27:0.134328 28:0 29:0 30:0 31:0 32:0.00746269 33:0 34:0 35:0 36:0 37:0.00746269 38:0.00746269 39:0 40:0.0373134 41:0 42:0.0223881 43:0.0298507 44:0 45:0 46:0 47:0.0447761 48:0 49:0 50:0 51:0.0671642 52:0.119403 53:0 54:0 55:0 56:0.0373134 57:0 58:0.0373134 59:0 60:0 61:0 62:0 63:0.0149254 64:0.0447761 
0.00445789944537953 1:0.303049 2:0.29581 3:0.289567 4:0.411765 5:0.0509804 6:0.301961 7:0.0501672 8:0.217391 9:0.140468 10:0.591973 11:0 12:0.993311 13:0.00334448 14:0.00334448 15:0 16:0.0234114 17:0.0133779 18:0 19:0.00334448 20:0.00668896 21:0 22:0.0802676 23:0.0234114 24:0 25:0 26:0.0769231 27:0.0936455 28:0 29:0 30:0.00668896 31:0 32:0.00334448 33:0 34:0 35:0 36:0 37:0.0133779 38:0.0133779 39:0 40:0.0702341 41:0.0167224 42:0.00334448 43:0.0267559 44:0 45:0 46:0 47:0.0401338 48:0 49:0.0367893 50:0.0301003 51:0.0668896 52:0.0702341 53:0.00668896 54:0.00668896 55:0.00334448 56:0.0334448 57:0 58:0.0334448 59:0 60:0.0234114 61:0.00668896 62:0.00668896 63:0.143813 64:0.0167224 
0.001182757442613756 1:0.446112 2:0.445707 3:0.399053 4:0.352941 5:0.105882 6:0.443137 7:0 8:0 9:1 10:0 11:0 12:1 13:0 14:0 15:0 16:0 17:0.0344828 18:0 19:0.0344828 20:0.0344828 21:0 22:0 23:0 24:0 25:0 26:0.0689655 27:0 28:0 29:0.0344828 30:0 31:0 32:0.0344828 33:0 34:0 35:0 36:0 37:0.206897 38:0 39:0 40:0 41:0 42:0 43:0 44:0 45:0.0344828 46:0 47:0.0344828 48:0 49:0 50:0 51:0 52:0 53:0 54:0 55:0 56:0.0344828 57:0.172414 58:0 59:0 60:0.0689655 61:0 62:0.137931 63:0 64:0.0689655 
0.001121577536897242 1:0.211298 2:0.203483 3:0.220726 4:0.658824 5:0.0901961 6:0.219608 7:0.119134 8:0 9:0 10:0.451264 11:0.429603 12:1 13:0 14:0 15:0 16:0.158845 17:0 18:0 19:0 20:0 21:0 22:0 23:0.0216607 24:0.0722022 25:0 26:0 27:0.0108303 28:0 29:0 30:0 31:0 32:0.0505415 33:0 34:0 35:0 36:0 37:0.0180505 38:0.0722022 39:0 40:0 41:0.0505415 42:0 43:0.148014 44:0 45:0 46:0 47:0.0902527 48:0 49:0.064982 50:0 51:0.0288809 52:0.129964 53:0 54:0 55:0 56:0.0433213 57:0 58:0.0108303 59:0 60:0 61:0 62:0 63:0.0288809 64:0 
0.002636979533160317 1:0.294902 2:0.306126 3:0.325839 4:0.0431373 5:0.0980392 6:0.32549 7:0.755556 8:0.195556 9:0 10:0.0488889 11:0 12:1 13:0 14:0 15:0 16:0.142222 17:0.0488889 18:0 19:0.128889 20:0.0533333 21:0 22:0.0577778 23:0.0222222 24:0.0177778 25:0 26:0.0311111 27:0.0133333 28:0.0577778 29:0.0666667 30:0.00444444 31:0 32:0.00888889 33:0 34:0 35:0 36:0 37:0.0177778 38:0.0533333 39:0 40:0.0488889 41:0.00444444 42:0 43:0.0311111 44:0 45:0 46:0 47:0.00444444 48:0 49:0 50:0 51:0.0444444 52:0.0444444 53:0 54:0.0266667 55:0 56:0 57:0.00888889 58:0.0266667 59:0 60:0 61:0 62:0 63:0.0133333 64:0.0133333 
0.0009028890356609003 1:0.172549 2:0.183529 3:0.173487 4:0.235294 5:0.0431373 6:0.180392 7:0.509804 8:0.384314 9:0.0313726 10:0.0745098 11:0 12:0.827451 13:0.172549 14:0 15:0 16:0.0470588 17:0.0235294 18:0 19:0.0862745 20:0.00784314 21:0 22:0.0352941 23:0.0313726 24:0 25:0 26:0.054902 27:0.129412 28:0 29:0.0156863 30:0 31:0 32:0.0705882 33:0 34:0 35:0 36:0 37:0 38:0.0156863 39:0 40:0.0431373 41:0.00392157 42:0 43:0.105882 44:0 45:0 46:0 47:0.0117647 48:0 49:0.00392157 50:0.0156863 51:0.0352941 52:0.109804 53:0.0313726 54:0 55:0 56:0.0352941 57:0 58:0.0156863 59:0 60:0 61:0.00784314 62:0.0156863 63:0.0392157 64:0.00784314 
0.02850222978667951 1:0.100163 2:0.0820584 3:0.0684647 4:0.427451 5:0.321569 6:0.0980392 7:0 8:0 9:0.280632 10:0.719368 11:0 12:0.505929 13:0.494071 14:0 15:0 16:0.0711462 17:0 18:0 19:0 20:0 21:0 22:0 23:0 24:0.731225 25:0 26:0 27:0 28:0 29:0 30:0 31:0 32:0 33:0 34:0 35:0 36:0 37:0 38:0.185771 39:0 40:0 41:0 42:0 43:0 44:0 45:0 46:0 47:0.0118577 48:0 49:0 50:0 51:0 52:0 53:0 54:0 55:0 56:0 57:0 58:0 59:0 60:0 61:0 62:0 63:0 64:0 
0.001266562093554984 1:0.89119 2:0.857143 3:0.787955 4:0.392157 5:0.117647 6:0.890196 7:0 8:0 9:0.992857 10:0.00714286 11:0 12:0.989286 13:0.00714286 14:0.00357143 15:0 16:0.075 17:0.0178571 18:0.0214286 19:0.00357143 20:0.0964286 21:0 22:0.0214286 23:0 24:0.0571429 25:0 26:0.0214286 27:0.0285714 28:0.0321429 29:0.0142857 30:0.00357143 31:0 32:0.00714286 33:0.00714286 34:0.00357143 35:0.00357143 36:0 37:0 38:0.0107143 39:0 40:0.0428571 41:0.0142857 42:0.103571 43:0.0214286 44:0.025 45:0.0214286 46:0.0285714 47:0.00357143 48:0.025 49:0.00714286 50:0 51:0.00714286 52:0 53:0.0857143 54:0.0142857 55:0.00714286 56:0 57:0 58:0 59:0.0178571 60:0.00714286 61:0.00714286 62:0 63:0.025 64:0.00357143 
0.005355769064649734 1:0.690943 2:0.673587 3:0.615229 4:0.384314 5:0.113725 6:0.690196 7:0 8:0 9:0.979821 10:0.0201794 11:0 12:0.986547 13:0.0134529 14:0 15:0 16:0 17:0.0269058 18:0.0426009 19:0.00672646 20:0.0470852 21:0.00448431 22:0.0358744 23:0.0179372 24:0.00224215 25:0.0156951 26:0.00672646 27:0.00224215 28:0.0672646 29:0.00672646 30:0.029148 31:0.00224215 32:0.00672646 33:0.0515695 34:0.00224215 35:0.00896861 36:0.00896861 37:0.0112108 38:0 39:0.0156951 40:0.0134529 41:0.00672646 42:0.0224215 43:0.00224215 44:0.029148 45:0.0246637 46:0.0627803 47:0.0224215 48:0.0179372 49:0.0134529 50:0.00672646 51:0.00672646 52:0.00224215 53:0.0156951 54:0.0470852 55:0.0269058 56:0.0246637 57:0.00896861 58:0.0269058 59:0.0179372 60:0.0246637 61:0.0224215 62:0.0179372 63:0.00224215 64:0.0381166 
0.1153243024463927 1:0.11646 2:0.109248 3:0.0914882 4:0.392157 5:0.207843 6:0.113725 7:0 8:0 9:1 10:0 11:0 12:0.980843 13:0.0191571 14:0 15:0 16:0.0153257 17:0 18:0 19:0 20:0 21:0 22:0 23:0 24:0.793103 25:0 26:0 27:0 28:0 29:0 30:0 31:0 32:0 33:0 34:0 35:0 36:0 37:0 38:0.137931 39:0 40:0 41:0 42:0 43:0.00383142 44:0 45:0 46:0 47:0 48:0 49:0 50:0 51:0 52:0.0421456 53:0 54:0 55:0 56:0 57:0 58:0 59:0 60:0 61:0 62:0 63:0.00766284 64:0 
0.0001645861170968921 1:0.10805 2:0.101474 3:0.122453 4:0.666667 5:0.192157 6:0.121569 7:0.0676692 8:0 9:0 10:0.0864662 11:0.845865 12:1 13:0 14:0 15:0 16:0 17:0 18:0 19:0 20:0 21:0 22:0 23:0 24:0.770677 25:0 26:0 27:0 28:0 29:0 30:0 31:0 32:0 33:0 34:0 35:0 36:0 37:0 38:0.112782 39:0 40:0 41:0 42:0 43:0 44:0 45:0 46:0 47:0 48:0 49:0 50:0 51:0 52:0.116541 53:0 54:0 55:0 56:0 57:0 58:0 59:0 60:0 61:0 62:0 63:0 64:0 
0.01961864777186609 1:0.116895 2:0.107179 3:0.127459 4:0.658824 5:0.156863 6:0.12549 7:0.0734694 8:0 9:0 10:0.538776 11:0.387755 12:0.959184 13:0.0408163 14:0 15:0 16:0.17551 17:0 18:0 19:0 20:0 21:0 22:0 23:0 24:0.408163 25:0 26:0 27:0 28:0 29:0 30:0 31:0 32:0 33:0 34:0 35:0 36:0 37:0 38:0.367347 39:0 40:0 41:0 42:0 43:0 44:0 45:0 46:0 47:0 48:0 49:0 50:0 51:0 52:0.0489796 53:0 54:0 55:0 56:0 57:0 58:0 59:0 60:0 61:0 62:0 63:0 64:0 
0.0742014372632514 1:0.144719 2:0.151294 3:0.140346 4:0.27451 5:0.0784314 6:0.14902 7:0 8:0.505576 9:0.438662 10:0.0557621 11:0 12:1 13:0 14:0 15:0 16:0.0780669 17:0 18:0 19:0 20:0 21:0 22:0 23:0 24:0.405204 25:0 26:0 27:0 28:0 29:0 30:0 31:0 32:0.0334572 33:0 34:0 35:0 36:0 37:0 38:0.460967 39:0 40:0 41:0 42:0 43:0.0111524 44:0 45:0 46:0 47:0 48:0 49:0 50:0 51:0 52:0.0111524 53:0 54:0 55:0 56:0 57:0 58:0 59:0 60:0 61:0 62:0 63:0 64:0 
0.001290759530946957 1:0.124769 2:0.111545 3:0.133427 4:0.647059 5:0.176471 6:0.133333 7:0.176 8:0 9:0 10:0.012 11:0.812 12:0.996 13:0.004 14:0 15:0 16:0 17:0 18:0 19:0 20:0 21:0 22:0 23:0 24:0.38 25:0 26:0 27:0.02 28:0 29:0 30:0 31:0 32:0.02 33:0 34:0 35:0 36:0 37:0 38:0.244 39:0 40:0 41:0 42:0 43:0.048 44:0 45:0 46:0 47:0 48:0 49:0 50:0 51:0 52:0.276 53:0 54:0 55:0 56:0 57:0 58:0 59:0 60:0 61:0 62:0 63:0.012 64:0 
0.0002496725486718091 1:0.0535642 2:0.101264 3:0.0573758 4:0.227451 5:0.478431 6:0.0980392 7:0 8:0.85514 9:0.14486 10:0 11:0 12:0.186916 13:0.495327 14:0.317757 15:0 16:0.247664 17:0 18:0 19:0 20:0 21:0 22:0 23:0 24:0.294393 25:0 26:0 27:0 28:0 29:0 30:0 31:0 32:0 33:0 34:0 35:0 36:0 37:0 38:0.252336 39:0 40:0 41:0 42:0 43:0.0934579 44:0 45:0 46:0 47:0.0280374 48:0 49:0 50:0 51:0 52:0.0841122 53:0 54:0 55:0 56:0 57:0 58:0 59:0 60:0 61:0 62:0 63:0 64:0 
0.0006227731959523075 1:0.0745539 2:0.0685614 3:0.109965 4:0.686275 5:0.392157 6:0.109804 7:0.284644 8:0 9:0 10:0 11:0.715356 12:0.277154 13:0.722846 14:0 15:0 16:0.116105 17:0 18:0 19:0 20:0 21:0 22:0 23:0 24:0.610487 25:0 26:0 27:0 28:0 29:0 30:0 31:0 32:0 33:0 34:0 35:0 36:0 37:0 38:0.273408 39:0 40:0 41:0 42:0 43:0 44:0 45:0 46:0 47:0 48:0 49:0 50:0 51:0 52:0 53:0 54:0 55:0 56:0 57:0 58:0 59:0 60:0 61:0 62:0 63:0 64:0 
0.0003425850783322943 1:0.0648184 2:0.0949855 3:0.0612343 4:0.247059 5:0.376471 6:0.0941176 7:0 8:0.766393 9:0.233607 10:0 11:0 12:0.311475 13:0.655738 14:0.0327869 15:0 16:0.221311 17:0 18:0 19:0 20:0 21:0 22:0 23:0 24:0.29918 25:0 26:0 27:0 28:0 29:0 30:0 31:0 32:0.00409836 33:0 34:0 35:0 36:0 37:0 38:0.254098 39:0 40:0 41:0 42:0 43:0.0327869 44:0 45:0 46:0 47:0.0368852 48:0 49:0 50:0 51:0 52:0.143443 53:0 54:0 55:0 56:0.00819672 57:0 58:0 59:0 60:0 61:0 62:0 63:0 64:0 
0.003226718929313354 1:0.162041 2:0.1785 3:0.221697 4:0.0313726 5:0.266667 6:0.219608 7:1 8:0 9:0 10:0 11:0 12:0.957529 13:0.042471 14:0 15:0 16:0.212355 17:0 18:0 19:0 20:0 21:0 22:0 23:0 24:0.455598 25:0 26:0 27:0 28:0 29:0 30:0 31:0 32:0 33:0 34:0 35:0 36:0 37:0 38:0.216216 39:0 40:0 41:0 42:0 43:0.0540541 44:0 45:0 46:0 47:0 48:0 49:0 50:0 51:0 52:0.0540541 53:0 54:0 55:0 56:0 57:0 58:0 59:0 60:0 61:0 62:0 63:0.00772201 64:0 
0.1262143512648259 1:0.226497 2:0.214081 3:0.199364 4:0.403922 5:0.121569 6:0.223529 7:0 8:0 9:0.903475 10:0.0965251 11:0 12:1 13:0 14:0 15:0 16:0.247104 17:0 18:0 19:0 20:0 21:0 22:0 23:0 24:0.714286 25:0 26:0 27:0 28:0 29:0 30:0 31:0 32:0.003861 33:0 34:0 35:0 36:0 37:0 38:0.019305 39:0 40:0 41:0 42:0 43:0.011583 44:0 45:0 46:0 47:0 48:0 49:0 50:0 51:0 52:0.003861 53:0 54:0 55:0 56:0 57:0 58:0 59:0 60:0 61:0 62:0 63:0 64:0 
0.05291074784986925 1:0.156786 2:0.146005 3:0.130473 4:0.392157 5:0.152941 6:0.152941 7:0 8:0 9:0.968627 10:0.0313726 11:0 12:1 13:0 14:0 15:0 16:0.0666667 17:0 18:0 19:0 20:0 21:0 22:0 23:0 24:0.388235 25:0 26:0 27:0 28:0 29:0 30:0 31:0 32:0.0156863 33:0 34:0 35:0 36:0 37:0 38:0.439216 39:0 40:0 41:0 42:0 43:0 44:0 45:0 46:0 47:0 48:0 49:0.00784314 50:0 51:0 52:0.0823529 53:0 54:0 55:0 56:0 57:0 58:0 59:0 60:0 61:0 62:0 63:0 64:0 
4.901460079260105e-05 1:0.0706033 2:0.0620389 3:0.084156 4:0.647059 5:0.286275 6:0.0823529 7:0.0153257 8:0 9:0 10:0.0498084 11:0.934866 12:0.831418 13:0.168582 14:0 15:0 16:0 17:0 18:0 19:0 20:0 21:0 22:0 23:0 24:0.900383 25:0 26:0 27:0 28:0 29:0 30:0 31:0 32:0 33:0 34:0 35:0 36:0 37:0 38:0.0996169 39:0 40:0 41:0 42:0 43:0 44:0 45:0 46:0 47:0 48:0 49:0 50:0 51:0 52:0 53:0 54:0 55:0 56:0 57:0 58:0 59:0 60:0 61:0 62:0 63:0 64:0 
0.007416391850355542 1:0.201984 2:0.158679 3:0.127031 4:0.419608 5:0.372549 6:0.2 7:0 8:0 9:0.470817 10:0.529183 11:0 12:0.357977 13:0.642023 14:0 15:0 16:0.357977 17:0 18:0 19:0 20:0 21:0 22:0 23:0 24:0.140078 25:0 26:0 27:0 28:0 29:0 30:0 31:0 32:0.0233463 33:0 34:0 35:0 36:0 37:0 38:0.167315 39:0 40:0 41:0.0155642 42:0 43:0.07393 44:0 45:0 46:0 47:0.0116732 48:0 49:0.0622568 50:0 51:0.00389105 52:0.101167 53:0 54:0 55:0 56:0.0194553 57:0 58:0 59:0 60:0 61:0 62:0 63:0.0233463 64:0 
0.01367832657874985 1:0.177943 2:0.186821 3:0.241811 4:0.0156863 5:0.262745 6:0.239216 7:1 8:0 9:0 10:0 11:0 12:0.977695 13:0.0223048 14:0 15:0 16:0.118959 17:0 18:0 19:0 20:0 21:0 22:0 23:0 24:0.643123 25:0 26:0 27:0 28:0 29:0 30:0 31:0 32:0 33:0 34:0 35:0 36:0 37:0 38:0.237918 39:0 40:0 41:0 42:0 43:0 44:0 45:0 46:0 47:0 48:0 49:0 50:0 51:0 52:0 53:0 54:0 55:0 56:0 57:0 58:0 59:0 60:0 61:0 62:0 63:0 64:0 
0.005282029922235021 1:0.174014 2:0.188124 3:0.241239 4:0.0196078 5:0.278431 6:0.239216 7:1 8:0 9:0 10:0 11:0 12:0.960854 13:0.0391459 14:0 15:0 16:0.0213523 17:0 18:0 19:0.0391459 20:0 21:0 22:0 23:0 24:0.6121 25:0 26:0 27:0.0320285 28:0 29:0.00355872 30:0 31:0 32:0.0320285 33:0 34:0 35:0 36:0 37:0 38:0.19573 39:0 40:0 41:0 42:0 43:0 44:0 45:0 46:0 47:0 48:0 49:0.00711744 50:0 51:0 52:0.0569395 53:0 54:0 55:0 56:0 57:0 58:0 59:0 60:0 61:0 62:0 63:0 64:0 
0.01545361488235108 1:0.136844 2:0.142552 3:0.125633 4:0.294118 5:0.109804 6:0.141176 7:0 8:0.387097 9:0.479839 10:0.133065 11:0 12:1 13:0 14:0 15:0 16:0.290323 17:0 18:0 19:0 20:0 21:0 22:0 23:0 24:0.326613 25:0 26:0 27:0 28:0 29:0 30:0 31:0 32:0 33:0 34:0 35:0 36:0 37:0 38:0.350806 39:0 40:0 41:0 42:0 43:0 44:0 45:0 46:0 47:0 48:0 49:0 50:0 51:0 52:0.0322581 53:0 54:0 55:0 56:0 57:0 58:0 59:0 60:0 61:0 62:0 63:0 64:0 
0.04505922417130451 1:0.10433 2:0.121373 3:0.10201 4:0.235294 5:0.133333 6:0.117647 7:0 8:0.9375 9:0.0625 10:0 11:0 12:1 13:0 14:0 15:0 16:0 17:0 18:0 19:0 20:0 21:0 22:0 23:0 24:1 25:0 26:0 27:0 28:0 29:0 30:0 31:0 32:0 33:0 34:0 35:0 36:0 37:0 38:0 39:0 40:0 41:0 42:0 43:0 44:0 45:0 46:0 47:0 48:0 49:0 50:0 51:0 52:0 53:0 54:0 55:0 56:0 57:0 58:0 59:0 60:0 61:0 62:0 63:0 64:0 
0.1271201547666373 1:0.0980998 2:0.111772 3:0.0957529 4:0.266667 5:0.141176 6:0.109804 7:0 8:0.911197 9:0.0888031 10:0 11:0 12:1 13:0 14:0 15:0 16:0.046332 17:0 18:0 19:0 20:0 21:0 22:0 23:0 24:0.92278 25:0 26:0 27:0 28:0 29:0 30:0 31:0 32:0 33:0 34:0 35:0 36:0 37:0 38:0.030888 39:0 40:0 41:0 42:0 43:0 44:0 45:0 46:0 47:0 48:0 49:0 50:0 51:0 52:0 53:0 54:0 55:0 56:0 57:0 58:0 59:0 60:0 61:0 62:0 63:0 64:0 
0.02540636467823415 1:0.367271 2:0.362347 3:0.347192 4:0.376471 5:0.054902 6:0.364706 7:0 8:0.195489 9:0.515038 10:0.289474 11:0 12:1 13:0 14:0 15:0 16:0.233083 17:0 18:0 19:0 20:0 21:0 22:0 23:0 24:0.383459 25:0 26:0 27:0 28:0 29:0 30:0 31:0 32:0 33:0 34:0 35:0 36:0 37:0 38:0.342105 39:0 40:0 41:0 42:0 43:0 44:0 45:0 46:0 47:0.0225564 48:0 49:0 50:0 51:0.0037594 52:0.0150376 53:0 54:0 55:0 56:0 57:0 58:0 59:0 60:0 61:0 62:0 63:0 64:0 
0.02137654884707705 1:0.0734082 2:0.0881986 3:0.0681942 4:0.258824 5:0.227451 6:0.0862745 7:0 8:0.921348 9:0.0786517 10:0 11:0 12:1 13:0 14:0 15:0 16:0.0411985 17:0 18:0 19:0 20:0 21:0 22:0 23:0 24:0.756554 25:0 26:0 27:0 28:0 29:0 30:0 31:0 32:0 33:0 34:0 35:0 36:0 37:0 38:0.202247 39:0 40:0 41:0 42:0 43:0 44:0 45:0 46:0 47:0 48:0 49:0 50:0 51:0 52:0 53:0 54:0 55:0 56:0 57:0 58:0 59:0 60:0 61:0 62:0 63:0 64:0 
0.001277063210812822 1:0.0733635 2:0.073997 3:0.0540875 4:0.352941 5:0.278431 6:0.0705882 7:0 8:0.196154 9:0.803846 10:0 11:0 12:0.503846 13:0.496154 14:0 15:0 16:0 17:0 18:0 19:0 20:0 21:0 22:0 23:0 24:1 25:0 26:0 27:0 28:0 29:0 30:0 31:0 32:0 33:0 34:0 35:0 36:0 37:0 38:0 39:0 40:0 41:0 42:0 43:0 44:0 45:0 46:0 47:0 48:0 49:0 50:0 51:0 52:0 53:0 54:0 55:0 56:0 57:0 58:0 59:0 60:0 61:0 62:0 63:0 64:0 
0.01263241153789215 1:0.345273 2:0.343465 3:0.32931 4:0.376471 5:0.054902 6:0.345098 7:0 8:0.282528 9:0.594796 10:0.122677 11:0 12:1 13:0 14:0 15:0 16:0.282528 17:0.0260223 18:0 19:0 20:0.0111524 21:0 22:0 23:0 24:0.182156 25:0 26:0.070632 27:0 28:0 29:0 30:0 31:0 32:0.0111524 33:0 34:0 35:0 36:0 37:0 38:0.301115 39:0 40:0.0929368 41:0 42:0 43:0.00743494 44:0 45:0 46:0 47:0 48:0 49:0.0148699 50:0 51:0 52:0 53:0 54:0 55:0 56:0 57:0 58:0 59:0 60:0 61:0 62:0 63:0 64:0 
0.0008915676708252371 1:0.316804 2:0.304748 3:0.290666 4:0.411765 5:0.0745098 6:0.313726 7:0.0247934 8:0.0330578 9:0.607438 10:0.334711 11:0 12:1 13:0 14:0 15:0 16:0.190083 17:0.0206612 18:0 19:0.0123967 20:0 21:0 22:0 23:0.00413223 24:0.0661157 25:0 26:0.0909091 27:0.053719 28:0 29:0 30:0 31:0 32:0.0165289 33:0 34:0 35:0 36:0 37:0 38:0.264463 39:0 40:0.0702479 41:0 42:0 43:0.0785124 44:0 45:0 46:0 47:0 48:0 49:0.00413223 50:0 51:0 52:0.119835 53:0 54:0 55:0 56:0 57:0 58:0 59:0 60:0 61:0 62:0 63:0.00826446 64:0 
0.08586701537816198 1:0.369761 2:0.36291 3:0.343098 4:0.388235 5:0.0745098 6:0.368627 7:0 8:0 9:0.983936 10:0.0160643 11:0 12:1 13:0 14:0 15:0 16:0.108434 17:0 18:0 19:0 20:0 21:0 22:0 23:0 24:0.485944 25:0 26:0 27:0 28:0 29:0 30:0 31:0 32:0 33:0 34:0 35:0 36:0 37:0 38:0.405622 39:0 40:0 41:0 42:0 43:0 44:0 45:0 46:0 47:0 48:0 49:0 50:0 51:0 52:0 53:0 54:0 55:0 56:0 57:0 58:0 59:0 60:0 61:0 62:0 63:0 64:0 
0.002482052127528043 1:0.439491 2:0.454372 3:0.430313 4:0.294118 5:0.0509804 6:0.45098 7:0 8:0.794595 9:0.205405 10:0 11:0 12:1 13:0 14:0 15:0 16:0.0540541 17:0.0540541 18:0.0108108 19:0.027027 20:0.102703 21:0.00540541 22:0.00540541 23:0 24:0.0540541 25:0 26:0.0648649 27:0 28:0.0432432 29:0.0810811 30:0 31:0 32:0.0378378 33:0.0162162 34:0 35:0 36:0 37:0.00540541 38:0.027027 39:0 40:0.0918919 41:0 42:0.0810811 43:0.027027 44:0 45:0 46:0 47:0 48:0.00540541 49:0 50:0 51:0.0324324 52:0 53:0 54:0.0216216 55:0.0108108 56:0.0162162 57:0.00540541 58:0 59:0 60:0.0162162 61:0 62:0.0378378 63:0.0162162 64:0 
0.01545280167652186 1:0.154138 2:0.17785 3:0.174715 4:0.137255 5:0.133333 6:0.176471 7:0.502907 8:0.497093 9:0 10:0 11:0 12:1 13:0 14:0 15:0 16:0.0697674 17:0.0203488 18:0 19:0.174419 20:0 21:0.00290698 22:0.00872093 23:0 24:0.104651 25:0 26:0.0523256 27:0.0959302 28:0 29:0.0552326 30:0 31:0 32:0.0406977 33:0 34:0 35:0 36:0 37:0.0290698 38:0.113372 39:0 40:0.0261628 41:0 42:0 43:0.00872093 44:0 45:0 46:0 47:0.0465116 48:0 49:0.0232558 50:0 51:0.00290698 52:0.0465116 53:0 54:0 55:0 56:0.0232558 57:0.00581395 58:0.0174419 59:0 60:0 61:0 62:0.00290698 63:0.0290698 64:0 
0.2893104727761084 1:0.358593 2:0.344554 3:0.325002 4:0.403922 5:0.0980392 6:0.356863 7:0 8:0 9:1 10:0 11:0 12:1 13:0 14:0 15:0 16:0.0427046 17:0 18:0 19:0 20:0 21:0 22:0 23:0 24:0.729537 25:0 26:0 27:0 28:0 29:0 30:0 31:0 32:0 33:0 34:0 35:0 36:0 37:0 38:0.227758 39:0 40:0 41:0 42:0 43:0 44:0 45:0 46:0 47:0 48:0 49:0 50:0 51:0 52:0 53:0 54:0 55:0 56:0 57:0 58:0 59:0 60:0 61:0 62:0 63:0 64:0 
0.02630364471624606 1:0.324756 2:0.3504 3:0.345098 4:0.133333 5:0.0784314 6:0.34902 7:0.666667 8:0.333333 9:0 10:0 11:0 12:1 13:0 14:0 15:0 16:0.0599251 17:0 18:0 19:0 20:0 21:0 22:0 23:0 24:0.917603 25:0 26:0 27:0 28:0 29:0 30:0 31:0 32:0 33:0 34:0 35:0 36:0 37:0 38:0.011236 39:0 40:0 41:0 42:0 43:0.011236 44:0 45:0 46:0 47:0 48:0 49:0 50:0 51:0 52:0 53:0 54:0 55:0 56:0 57:0 58:0 59:0 60:0 61:0 62:0 63:0 64:0 
0.01242559545989754 1:0.312764 2:0.287419 3:0.271824 4:0.423529 5:0.12549 6:0.309804 7:0 8:0 9:0.307393 10:0.692607 11:0 12:1 13:0 14:0 15:0 16:0.268482 17:0 18:0 19:0 20:0 21:0 22:0 23:0 24:0.431907 25:0 26:0 27:0 28:0 29:0 30:0 31:0 32:0 33:0 34:0 35:0 36:0 37:0 38:0.29572 39:0 40:0 41:0 42:0 43:0 44:0 45:0 46:0 47:0.00389105 48:0 49:0 50:0 51:0 52:0 53:0 54:0 55:0 56:0 57:0 58:0 59:0 60:0 61:0 62:0 63:0 64:0 
0.04086007602093467 1:0.353177 2:0.35606 3:0.340027 4:0.352941 5:0.0431373 6:0.352941 7:0.172691 8:0.108434 9:0.678715 10:0.0401606 11:0 12:1 13:0 14:0 15:0 16:0.353414 17:0 18:0 19:0 20:0 21:0 22:0 23:0 24:0.204819 25:0 26:0 27:0 28:0 29:0 30:0 31:0 32:0 33:0 34:0 35:0 36:0 37:0 38:0.421687 39:0 40:0 41:0 42:0 43:0 44:0 45:0 46:0 47:0.0120482 48:0 49:0 50:0 51:0 52:0.00803213 53:0 54:0 55:0 56:0 57:0 58:0 59:0 60:0 61:0 62:0 63:0 64:0 
0.002960506351423389 1:0.282815 2:0.310728 3:0.30951 4:0.133333 5:0.0901961 6:0.309804 7:0.939286 8:0.0607143 9:0 10:0 11:0 12:0.989286 13:0.0107143 14:0 15:0 16:0.128571 17:0.0607143 18:0.0107143 19:0.0464286 20:0.0142857 21:0 22:0 23:0 24:0.242857 25:0 26:0.0892857 27:0.0107143 28:0 29:0.0607143 30:0 31:0 32:0.00714286 33:0 34:0 35:0.025 36:0 37:0.0178571 38:0 39:0 40:0.0821429 41:0 42:0 43:0.0142857 44:0 45:0 46:0 47:0 48:0 49:0 50:0.025 51:0 52:0 53:0.0357143 54:0 55:0 56:0 57:0.0214286 58:0 59:0 60:0 61:0.0178571 62:0.0678571 63:0 64:0 
0.008042243622216597 1:0.0915082 2:0.0774141 3:0.0615804 4:0.411765 5:0.34902 6:0.0901961 7:0 8:0 9:0.654135 10:0.345865 11:0 12:0.360902 13:0.639098 14:0 15:0 16:0 17:0 18:0 19:0 20:0 21:0 22:0 23:0 24:1 25:0 26:0 27:0 28:0 29:0 30:0 31:0 32:0 33:0 34:0 35:0 36:0 37:0 38:0 39:0 40:0 41:0 42:0 43:0 44:0 45:0 46:0 47:0 48:0 49:0 50:0 51:0 52:0 53:0 54:0 55:0 56:0 57:0 58:0 59:0 60:0 61:0 62:0 63:0 64:0 
0.05469021147622351 1:0.326414 2:0.31063 3:0.296532 4:0.411765 5:0.0980392 6:0.32549 7:0 8:0.0413223 9:0.392562 10:0.566116 11:0 12:1 13:0 14:0 15:0 16:0.219008 17:0 18:0 19:0 20:0 21:0 22:0 23:0 24:0.322314 25:0 26:0 27:0 28:0 29:0 30:0 31:0 32:0 33:0 34:0 35:0 36:0 37:0 38:0.392562 39:0 40:0 41:0 42:0 43:0.00413223 44:0 45:0 46:0 47:0.00826446 48:0 49:0 50:0 51:0 52:0.053719 53:0 54:0 55:0 56:0 57:0 58:0 59:0 60:0 61:0 62:0 63:0 64:0 
0.002409138924375689 1:0.312707 2:0.332224 3:0.326569 4:0.141176 5:0.0588235 6:0.329412 7:0.383721 8:0.600775 9:0.0155039 10:0 11:0 12:1 13:0 14:0 15:0 16:0.25969 17:0 18:0 19:0 20:0 21:0 22:0 23:0 24:0.391473 25:0 26:0 27:0 28:0 29:0 30:0 31:0 32:0 33:0 34:0 35:0 36:0 37:0 38:0.0426357 39:0 40:0 41:0 42:0 43:0.294574 44:0 45:0 46:0 47:0 48:0 49:0 50:0 51:0 52:0.0116279 53:0 54:0 55:0 56:0 57:0 58:0 59:0 60:0 61:0 62:0 63:0 64:0 
0.002176537324833044 1:0.0845982 2:0.0656363 3:0.0535486 4:0.427451 5:0.380392 6:0.0823529 7:0 8:0 9:0.0823529 10:0.917647 11:0 12:0.027451 13:0.972549 14:0 15:0 16:0 17:0 18:0 19:0 20:0 21:0 22:0 23:0 24:0.894118 25:0 26:0 27:0 28:0 29:0 30:0 31:0 32:0 33:0 34:0 35:0 36:0 37:0 38:0.0784314 39:0 40:0 41:0 42:0 43:0 44:0 45:0 46:0 47:0 48:0 49:0 50:0 51:0 52:0.027451 53:0 54:0 55:0 56:0 57:0 58:0 59:0 60:0 61:0 62:0 63:0 64:0 
0.01215218006618609 1:0.341627 2:0.372416 3:0.363771 4:0.152941 5:0.0745098 6:0.368627 7:0.408511 8:0.259574 9:0.314894 10:0.0170213 11:0 12:1 13:0 14:0 15:0 16:0.255319 17:0 18:0 19:0 20:0 21:0 22:0 23:0 24:0.217021 25:0 26:0 27:0 28:0 29:0 30:0 31:0 32:0 33:0 34:0 35:0 36:0 37:0 38:0.238298 39:0 40:0 41:0 42:0 43:0.0723404 44:0 45:0 46:0 47:0.0297872 48:0 49:0 50:0 51:0 52:0.140426 53:0 54:0 55:0 56:0.00425532 57:0 58:0 59:0 60:0 61:0 62:0 63:0.0425532 64:0 
0.002872374097184758 1:0.248762 2:0.26087 3:0.260784 4:0.117647 5:0.0470588 6:0.258824 7:0.596491 8:0.403509 9:0 10:0 11:0 12:1 13:0 14:0 15:0 16:0.0526316 17:0.0350877 18:0 19:0.0438596 20:0 21:0 22:0.157895 23:0.0526316 24:0 25:0 26:0.131579 27:0.0482456 28:0 29:0.0394737 30:0 31:0 32:0.00877193 33:0 34:0 35:0 36:0 37:0.0131579 38:0.0394737 39:0 40:0.0350877 41:0.0438596 42:0 43:0.0570175 44:0 45:0 46:0 47:0.0219298 48:0 49:0.00877193 50:0 51:0 52:0.0219298 53:0.0877193 54:0 55:0 56:0.0131579 57:0 58:0.00438596 59:0 60:0 61:0 62:0.00877193 63:0.0745614 64:0 
0.002107502453137598 1:0.29374 2:0.313492 3:0.310182 4:0.117647 5:0.0627451 6:0.309804 7:0.87156 8:0.12844 9:0 10:0 11:0 12:1 13:0 14:0 15:0 16:0.238532 17:0.0825688 18:0 19:0.087156 20:0.0458716 21:0.00458716 22:0 23:0 24:0.0550459 25:0 26:0.0688073 27:0 28:0 29:0.0963303 30:0 31:0 32:0 33:0 34:0 35:0 36:0 37:0.0229358 38:0.142202 39:0 40:0.105505 41:0 42:0 43:0.0183486 44:0 45:0 46:0 47:0 48:0 49:0 50:0 51:0 52:0 53:0 54:0 55:0 56:0 57:0 58:0 59:0 60:0 61:0 62:0 63:0 64:0 
0.008753805643219982 1:0.340815 2:0.355667 3:0.334223 4:0.258824 5:0.054902 6:0.352941 7:0 8:0.893617 9:0.106383 10:0 11:0 12:1 13:0 14:0 15:0 16:0.22695 17:0 18:0 19:0.0319149 20:0 21:0.0283688 22:0 23:0 24:0.361702 25:0 26:0 27:0 28:0 29:0.0035461 30:0 31:0 32:0.0141844 33:0 34:0 35:0 36:0 37:0.0283688 38:0.241135 39:0 40:0 41:0 42:0 43:0.0106383 44:0 45:0 46:0 47:0 48:0 49:0.0035461 50:0 51:0 52:0.0496454 53:0 54:0 55:0 56:0 57:0 58:0 59:0 60:0 61:0 62:0 63:0 64:0 
0.1267198308199339 1:0.331765 2:0.306903 3:0.289575 4:0.415686 5:0.129412 6:0.329412 7:0 8:0 9:0.49434 10:0.50566 11:0 12:1 13:0 14:0 15:0 16:0.354717 17:0 18:0 19:0 20:0 21:0 22:0 23:0 24:0.275472 25:0 26:0 27:0 28:0 29:0 30:0 31:0 32:0 33:0 34:0 35:0 36:0 37:0 38:0.369811 39:0 40:0 41:0 42:0 43:0 44:0 45:0 46:0 47:0 48:0 49:0 50:0 51:0 52:0 53:0 54:0 55:0 56:0 57:0 58:0 59:0 60:0 61:0 62:0 63:0 64:0 
0.2309724773234601 1:0.340223 2:0.316755 3:0.301884 4:0.423529 5:0.117647 6:0.337255 7:0 8:0 9:0.360784 10:0.639216 11:0 12:1 13:0 14:0 15:0 16:0.0784314 17:0 18:0 19:0 20:0 21:0 22:0 23:0 24:0.643137 25:0 26:0 27:0 28:0 29:0 30:0 31:0 32:0 33:0 34:0 35:0 36:0 37:0 38:0.278431 39:0 40:0 41:0 42:0 43:0 44:0 45:0 46:0 47:0 48:0 49:0 50:0 51:0 52:0 53:0 54:0 55:0 56:0 57:0 58:0 59:0 60:0 61:0 62:0 63:0 64:0 
0.1540799295616308 1:0.368143 2:0.350566 3:0.332052 4:0.403922 5:0.0980392 6:0.364706 7:0 8:0 9:0.828685 10:0.171315 11:0 12:1 13:0 14:0 15:0 16:0.111554 17:0 18:0 19:0 20:0 21:0 22:0 23:0 24:0.657371 25:0 26:0 27:0 28:0 29:0 30:0 31:0 32:0 33:0 34:0 35:0 36:0 37:0 38:0.231076 39:0 40:0 41:0 42:0 43:0 44:0 45:0 46:0 47:0 48:0 49:0 50:0 51:0 52:0 53:0 54:0 55:0 56:0 57:0 58:0 59:0 60:0 61:0 62:0 63:0 64:0 
0.00828498898297934 1:0.277281 2:0.257998 3:0.242548 4:0.419608 5:0.129412 6:0.27451 7:0 8:0 9:0.458647 10:0.541353 11:0 12:1 13:0 14:0 15:0 16:0.169173 17:0 18:0 19:0 20:0 21:0 22:0 23:0 24:0.210526 25:0 26:0 27:0.0225564 28:0 29:0 30:0 31:0 32:0 33:0 34:0 35:0 36:0 37:0 38:0.353383 39:0 40:0 41:0 42:0 43:0.225564 44:0 45:0 46:0 47:0 48:0 49:0 50:0 51:0 52:0.018797 53:0 54:0 55:0 56:0 57:0 58:0 59:0 60:0 61:0 62:0 63:0 64:0 
0.004706716136047074 1:0.389228 2:0.415438 3:0.404401 4:0.156863 5:0.0588235 6:0.411765 7:0.405063 8:0.527426 9:0.0675105 10:0 11:0 12:1 13:0 14:0 15:0 16:0.198312 17:0 18:0 19:0 20:0 21:0 22:0 23:0 24:0.270042 25:0 26:0.00421941 27:0.021097 28:0 29:0 30:0 31:0 32:0 33:0 34:0 35:0 36:0 37:0 38:0.101266 39:0 40:0 41:0 42:0 43:0.177215 44:0 45:0 46:0 47:0 48:0 49:0.07173 50:0 51:0 52:0.156118 53:0 54:0 55:0 56:0 57:0 58:0 59:0 60:0 61:0 62:0 63:0 64:0 
0.0335044471303103 1:0.380156 2:0.40589 3:0.397827 4:0.152941 5:0.0666667 6:0.403922 7:0.341365 8:0.658635 9:0 10:0 11:0 12:1 13:0 14:0 15:0 16:0.301205 17:0 18:0 19:0 20:0 21:0 22:0 23:0 24:0.393574 25:0 26:0 27:0 28:0 29:0 30:0 31:0 32:0 33:0 34:0 35:0 36:0 37:0 38:0.273092 39:0 40:0 41:0 42:0 43:0 44:0 45:0 46:0 47:0 48:0 49:0.0120482 50:0 51:0 52:0.0200803 53:0 54:0 55:0 56:0 57:0 58:0 59:0 60:0 61:0 62:0 63:0 64:0 
0.154406165743172 1:0.321318 2:0.337694 3:0.329098 4:0.188235 5:0.0588235 6:0.337255 7:0.016 8:0.804 9:0.18 10:0 11:0 12:1 13:0 14:0 15:0 16:0.02 17:0 18:0 19:0 20:0 21:0 22:0 23:0 24:0.672 25:0 26:0 27:0 28:0 29:0 30:0 31:0 32:0 33:0 34:0 35:0 36:0 37:0 38:0.308 39:0 40:0 41:0 42:0 43:0 44:0 45:0 46:0 47:0 48:0 49:0 50:0 51:0 52:0 53:0 54:0 55:0 56:0 57:0 58:0 59:0 60:0 61:0 62:0 63:0 64:0 
0.01381170669848597 1:0.322943 2:0.340763 3:0.322516 4:0.235294 5:0.0470588 6:0.337255 7:0 8:1 9:0 10:0 11:0 12:1 13:0 14:0 15:0 16:0.166667 17:0 18:0 19:0 20:0 21:0 22:0 23:0 24:0.534014 25:0 26:0 27:0 28:0 29:0 30:0 31:0 32:0 33:0 34:0 35:0 36:0 37:0 38:0.29932 39:0 40:0 41:0 42:0 43:0 44:0 45:0 46:0 47:0 48:0 49:0 50:0 51:0 52:0 53:0 54:0 55:0 56:0 57:0 58:0 59:0 60:0 61:0 62:0 63:0 64:0 
0.004393059364328008 1:0.365889 2:0.407351 3:0.399256 4:0.141176 5:0.0980392 6:0.403922 7:0.867797 8:0.132203 9:0 10:0 11:0 12:1 13:0 14:0 15:0 16:0.108475 17:0 18:0 19:0 20:0.0101695 21:0 22:0 23:0 24:0.725424 25:0 26:0 27:0 28:0 29:0 30:0 31:0 32:0 33:0 34:0 35:0 36:0 37:0 38:0.0542373 39:0 40:0.0237288 41:0.00677966 42:0.0135593 43:0.00677966 44:0 45:0 46:0 47:0.00677966 48:0 49:0.0372881 50:0 51:0.00677966 52:0 53:0 54:0 55:0 56:0 57:0 58:0 59:0 60:0 61:0 62:0 63:0 64:0 
0.007610139725875779 1:0.351284 2:0.366674 3:0.344521 4:0.27451 5:0.0627451 6:0.364706 7:0 8:0.943396 9:0.0566038 10:0 11:0 12:1 13:0 14:0 15:0 16:0.113208 17:0 18:0 19:0 20:0 21:0 22:0 23:0 24:0.74717 25:0 26:0 27:0 28:0 29:0 30:0 31:0 32:0 33:0 34:0 35:0 36:0 37:0 38:0.139623 39:0 40:0 41:0 42:0 43:0 44:0 45:0 46:0 47:0 48:0 49:0 50:0 51:0 52:0 53:0 54:0 55:0 56:0 57:0 58:0 59:0 60:0 61:0 62:0 63:0 64:0 
0.004492426401827284 1:0.227333 2:0.216578 3:0.201077 4:0.392157 5:0.105882 6:0.223529 7:0 8:0 9:0.969957 10:0.0300429 11:0 12:0.991416 13:0.00858369 14:0 15:0 16:0 17:0.0515021 18:0 19:0 20:0 21:0 22:0 23:0.00858369 24:0.0128755 25:0 26:0.141631 27:0.32618 28:0 29:0 30:0 31:0 32:0 33:0 34:0 35:0 36:0 37:0 38:0.0515021 39:0 40:0.107296 41:0.00429185 42:0 43:0.0600858 44:0 45:0 46:0 47:0.0386266 48:0 49:0 50:0 51:0 52:0.133047 53:0.0643777 54:0 55:0 56:0 57:0 58:0 59:0 60:0 61:0 62:0 63:0 64:0 
0.08378706835338222 1:0.313072 2:0.325657 3:0.302417 4:0.27451 5:0.0705882 6:0.32549 7:0 8:0.569767 9:0.430233 10:0 11:0 12:1 13:0 14:0 15:0 16:0.313953 17:0 18:0 19:0 20:0 21:0 22:0 23:0 24:0.321705 25:0 26:0 27:0 28:0 29:0 30:0 31:0 32:0 33:0 34:0 35:0 36:0 37:0 38:0.317829 39:0 40:0 41:0.00387597 42:0 43:0 44:0 45:0 46:0 47:0 48:0 49:0.0426357 50:0 51:0 52:0 53:0 54:0 55:0 56:0 57:0 58:0 59:0 60:0 61:0 62:0 63:0 64:0 
0.7513801446026497 1:0.292969 2:0.283961 3:0.268275 4:0.392157 5:0.0823529 6:0.290196 7:0 8:0.0625 9:0.875 10:0.0625 11:0 12:1 13:0 14:0 15:0 16:0.0390625 17:0 18:0 19:0 20:0 21:0 22:0 23:0 24:0.847656 25:0 26:0 27:0 28:0 29:0 30:0 31:0 32:0 33:0 34:0 35:0 36:0 37:0 38:0.109375 39:0 40:0 41:0 42:0 43:0 44:0 45:0 46:0 47:0 48:0 49:0.00390625 50:0 51:0 52:0 53:0 54:0 55:0 56:0 57:0 58:0 59:0 60:0 61:0 62:0 63:0 64:0 
0.004333395557765239 1:0.28153 2:0.297481 3:0.287053 4:0.176471 5:0.054902 6:0.294118 7:0 8:1 9:0 10:0 11:0 12:1 13:0 14:0 15:0 16:0 17:0 18:0 19:0 20:0 21:0 22:0 23:0 24:1 25:0 26:0 27:0 28:0 29:0 30:0 31:0 32:0 33:0 34:0 35:0 36:0 37:0 38:0 39:0 40:0 41:0 42:0 43:0 44:0 45:0 46:0 47:0 48:0 49:0 50:0 51:0 52:0 53:0 54:0 55:0 56:0 57:0 58:0 59:0 60:0 61:0 62:0 63:0 64:0 
1 1:0.309804 2:0.299497 3:0.284491 4:0.403922 5:0.0901961 6:0.309804 7:0 8:0.0577617 9:0.826715 10:0.115523 11:0 12:1 13:0 14:0 15:0 16:0 17:0 18:0 19:0 20:0 21:0 22:0 23:0 24:0.945848 25:0 26:0 27:0 28:0 29:0 30:0 31:0 32:0 33:0 34:0 35:0 36:0 37:0 38:0.0541516 39:0 40:0 41:0 42:0 43:0 44:0 45:0 46:0 47:0 48:0 49:0 50:0 51:0 52:0 53:0 54:0 55:0 56:0 57:0 58:0 59:0 60:0 61:0 62:0 63:0 64:0 
1 1:0.27129 2:0.274571 3:0.257832 4:0.329412 5:0.0705882 6:0.27451 7:0 8:0.377432 9:0.540856 10:0.0817121 11:0 12:1 13:0 14:0 15:0 16:0 17:0 18:0 19:0 20:0 21:0 22:0 23:0 24:1 25:0 26:0 27:0 28:0 29:0 30:0 31:0 32:0 33:0 34:0 35:0 36:0 37:0 38:0 39:0 40:0 41:0 42:0 43:0 44:0 45:0 46:0 47:0 48:0 49:0 50:0 51:0 52:0 53:0 54:0 55:0 56:0 57:0 58:0 59:0 60:0 61:0 62:0 63:0 64:0 
0.8664393956065037 1:0.2795 2:0.27509 3:0.258915 4:0.376471 5:0.0705882 6:0.278431 7:0 8:0 9:0.88716 10:0.11284 11:0 12:1 13:0 14:0 15:0 16:0 17:0 18:0 19:0 20:0 21:0 22:0 23:0 24:1 25:0 26:0 27:0 28:0 29:0 30:0 31:0 32:0 33:0 34:0 35:0 36:0 37:0 38:0 39:0 40:0 41:0 42:0 43:0 44:0 45:0 46:0 47:0 48:0 49:0 50:0 51:0 52:0 53:0 54:0 55:0 56:0 57:0 58:0 59:0 60:0 61:0 62:0 63:0 64:0 
0.003320517361346642 1:0.299795 2:0.367997 3:0.377425 4:0.101961 5:0.207843 6:0.376471 7:0.595652 8:0.317391 9:0.0608696 10:0.026087 11:0 12:0.817391 13:0.182609 14:0 15:0 16:0.0521739 17:0 18:0 19:0.0173913 20:0 21:0 22:0 23:0 24:0.0782609 25:0 26:0.0478261 27:0.165217 28:0 29:0 30:0 31:0 32:0.108696 33:0 34:0 35:0 36:0 37:0.0130435 38:0.073913 39:0 40:0 41:0 42:0 43:0.117391 44:0 45:0 46:0 47:0 48:0 49:0.00869565 50:0 51:0.026087 52:0.243478 53:0 54:0 55:0 56:0.026087 57:0 58:0.0217391 59:0 60:0 61:0 62:0 63:0 64:0 
0.0003478691377302063 1:0.187906 2:0.188502 3:0.173506 4:0.32549 5:0.0823529 6:0.188235 7:0 8:0.088 9:0.912 10:0 11:0 12:1 13:0 14:0 15:0 16:0.176 17:0 18:0 19:0 20:0 21:0 22:0 23:0 24:0.012 25:0 26:0 27:0.208 28:0 29:0 30:0 31:0 32:0.06 33:0 34:0 35:0 36:0 37:0 38:0.1 39:0 40:0 41:0.008 42:0 43:0.16 44:0 45:0 46:0 47:0 48:0 49:0.02 50:0 51:0 52:0.24 53:0 54:0 55:0 56:0 57:0 58:0 59:0 60:0 61:0 62:0 63:0.016 64:0 
0.001306455569604667 1:0.319617 2:0.449978 3:0.468296 4:0.101961 5:0.317647 6:0.466667 7:0.945205 8:0.0547945 9:0 10:0 11:0 12:0.538813 13:0.461187 14:0 15:0 16:0.0365297 17:0.0639269 18:0 19:0.0228311 20:0 21:0 22:0 23:0 24:0 25:0 26:0.273973 27:0.159817 28:0 29:0.00456621 30:0 31:0 32:0.00913242 33:0 34:0 35:0 36:0 37:0 38:0 39:0 40:0.22831 41:0 42:0 43:0.0547945 44:0 45:0 46:0 47:0.00456621 48:0 49:0.00913242 50:0 51:0.0821918 52:0.0319635 53:0 54:0 55:0 56:0.0136986 57:0 58:0 59:0 60:0 61:0 62:0 63:0.00456621 64:0 
1 1:0.252421 2:0.246554 3:0.230199 4:0.392157 5:0.0941176 6:0.25098 7:0 8:0 9:0.962121 10:0.0378788 11:0 12:1 13:0 14:0 15:0 16:0 17:0 18:0 19:0 20:0 21:0 22:0 23:0 24:0.969697 25:0 26:0 27:0 28:0 29:0 30:0 31:0 32:0 33:0 34:0 35:0 36:0 37:0 38:0.030303 39:0 40:0 41:0 42:0 43:0 44:0 45:0 46:0 47:0 48:0 49:0 50:0 51:0 52:0 53:0 54:0 55:0 56:0 57:0 58:0 59:0 60:0 61:0 62:0 63:0 64:0 
0.000492583883803134 1:0.228127 2:0.242799 3:0.2235 4:0.282353 5:0.0823529 6:0.239216 7:0 8:0.932584 9:0.0674157 10:0 11:0 12:1 13:0 14:0 15:0 16:0.247191 17:0 18:0 19:0 20:0 21:0 22:0 23:0 24:0.0224719 25:0 26:0 27:0.0149813 28:0 29:0 30:0 31:0 32:0.0411985 33:0 34:0 35:0 36:0 37:0.0149813 38:0.164794 39:0 40:0.0262172 41:0.00749064 42:0 43:0.172285 44:0 45:0 46:0 47:0 48:0 49:0.0262172 50:0 51:0.0262172 52:0.205993 53:0 54:0 55:0 56:0 57:0 58:0 59:0 60:0 61:0 62:0 63:0.0299625 64:0 
0.6943083314174368 1:0.273156 2:0.284874 3:0.264737 4:0.282353 5:0.0705882 6:0.282353 7:0 8:0.619048 9:0.380952 10:0 11:0 12:1 13:0 14:0 15:0 16:0 17:0 18:0 19:0 20:0 21:0 22:0 23:0 24:1 25:0 26:0 27:0 28:0 29:0 30:0 31:0 32:0 33:0 34:0 35:0 36:0 37:0 38:0 39:0 40:0 41:0 42:0 43:0 44:0 45:0 46:0 47:0 48:0 49:0 50:0 51:0 52:0 53:0 54:0 55:0 56:0 57:0 58:0 59:0 60:0 61:0 62:0 63:0 64:0 
1 1:0.293984 2:0.28213 3:0.270187 4:0.411765 5:0.0823529 6:0.290196 7:0 8:0 9:0.681818 10:0.318182 11:0 12:1 13:0 14:0 15:0 16:0 17:0 18:0 19:0 20:0 21:0 22:0 23:0 24:1 25:0 26:0 27:0 28:0 29:0 30:0 31:0 32:0 33:0 34:0 35:0 36:0 37:0 38:0 39:0 40:0 41:0 42:0 43:0 44:0 45:0 46:0 47:0 48:0 49:0 50:0 51:0 52:0 53:0 54:0 55:0 56:0 57:0 58:0 59:0 60:0 61:0 62:0 63:0 64:0 
0.5583872406466607 1:0.247782 2:0.252789 3:0.235873 4:0.32549 5:0.0627451 6:0.25098 7:0 8:0.0479705 9:0.95203 10:0 11:0 12:1 13:0 14:0 15:0 16:0.0258303 17:0 18:0 19:0 20:0 21:0 22:0 23:0 24:0.874539 25:0 26:0 27:0 28:0 29:0 30:0 31:0 32:0 33:0 34:0 35:0 36:0 37:0 38:0.099631 39:0 40:0 41:0 42:0 43:0 44:0 45:0 46:0 47:0 48:0 49:0 50:0 51:0 52:0 53:0 54:0 55:0 56:0 57:0 58:0 59:0 60:0 61:0 62:0 63:0 64:0 
1 1:0.246792 2:0.250714 3:0.235027 4:0.32549 5:0.0627451 6:0.247059 7:0 8:0 9:1 10:0 11:0 12:1 13:0 14:0 15:0 16:0 17:0 18:0 19:0 20:0 21:0 22:0 23:0 24:0.972 25:0 26:0 27:0 28:0 29:0 30:0 31:0 32:0 33:0 34:0 35:0 36:0 37:0 38:0.028 39:0 40:0 41:0 42:0 43:0 44:0 45:0 46:0 47:0 48:0 49:0 50:0 51:0 52:0 53:0 54:0 55:0 56:0 57:0 58:0 59:0 60:0 61:0 62:0 63:0 64:0 
1 1:0.272119 2:0.260481 3:0.243902 4:0.403922 5:0.101961 6:0.270588 7:0 8:0 9:1 10:0 11:0 12:1 13:0 14:0 15:0 16:0 17:0 18:0 19:0 20:0 21:0 22:0 23:0 24:1 25:0 26:0 27:0 28:0 29:0 30:0 31:0 32:0 33:0 34:0 35:0 36:0 37:0 38:0 39:0 40:0 41:0 42:0 43:0 44:0 45:0 46:0 47:0 48:0 49:0 50:0 51:0 52:0 53:0 54:0 55:0 56:0 57:0 58:0 59:0 60:0 61:0 62:0 63:0 64:0 
1 1:0.260265 2:0.250562 3:0.235217 4:0.403922 5:0.105882 6:0.258824 7:0 8:0 9:0.873518 10:0.126482 11:0 12:1 13:0 14:0 15:0 16:0 17:0 18:0 19:0 20:0 21:0 22:0 23:0 24:1 25:0 26:0 27:0 28:0 29:0 30:0 31:0 32:0 33:0 34:0 35:0 36:0 37:0 38:0 39:0 40:0 41:0 42:0 43:0 44:0 45:0 46:0 47:0 48:0 49:0 50:0 51:0 52:0 53:0 54:0 55:0 56:0 57:0 58:0 59:0 60:0 61:0 62:0 63:0 64:0 
1 1:0.239368 2:0.234958 3:0.21944 4:0.392157 5:0.0980392 6:0.239216 7:0 8:0 9:0.964981 10:0.0350195 11:0 12:1 13:0 14:0 15:0 16:0.0505837 17:0 18:0 19:0 20:0 21:0 22:0 23:0 24:0.708171 25:0 26:0 27:0 28:0 29:0 30:0 31:0 32:0 33:0 34:0 35:0 36:0 37:0 38:0.241245 39:0 40:0 41:0 42:0 43:0 44:0 45:0 46:0 47:0 48:0 49:0 50:0 51:0 52:0 53:0 54:0 55:0 56:0 57:0 58:0 59:0 60:0 61:0 62:0 63:0 64:0 
0.03214203081091772 1:0.228898 2:0.223981 3:0.208279 4:0.376471 5:0.0862745 6:0.227451 7:0 8:0 9:0.769841 10:0.230159 11:0 12:1 13:0 14:0 15:0 16:0.31746 17:0 18:0 19:0 20:0 21:0 22:0 23:0 24:0.238095 25:0 26:0 27:0 28:0 29:0 30:0 31:0 32:0 33:0 34:0 35:0 36:0 37:0 38:0.392857 39:0 40:0 41:0 42:0 43:0 44:0 45:0 46:0 47:0 48:0 49:0.0396825 50:0 51:0 52:0.00793651 53:0 54:0 55:0 56:0 57:0 58:0 59:0 60:0 61:0 62:0 63:0.00396825 64:0 
0.380754990026597 1:0.2218 2:0.22089 3:0.205517 4:0.352941 5:0.0705882 6:0.219608 7:0 8:0 9:0.939164 10:0.0608365 11:0 12:1 13:0 14:0 15:0 16:0.1673 17:0 18:0 19:0 20:0 21:0 22:0 23:0 24:0.528517 25:0 26:0 27:0 28:0 29:0 30:0 31:0 32:0 33:0 34:0 35:0 36:0 37:0 38:0.304182 39:0 40:0 41:0 42:0 43:0 44:0 45:0 46:0 47:0 48:0 49:0 50:0 51:0 52:0 53:0 54:0 55:0 56:0 57:0 58:0 59:0 60:0 61:0 62:0 63:0 64:0 
0.05982344363774538 1:0.262887 2:0.283065 3:0.267441 4:0.211765 5:0.0705882 6:0.282353 7:0 8:1 9:0 10:0 11:0 12:1 13:0 14:0 15:0 16:0 17:0 18:0 19:0 20:0 21:0 22:0 23:0 24:1 25:0 26:0 27:0 28:0 29:0 30:0 31:0 32:0 33:0 34:0 35:0 36:0 37:0 38:0 39:0 40:0 41:0 42:0 43:0 44:0 45:0 46:0 47:0 48:0 49:0 50:0 51:0 52:0 53:0 54:0 55:0 56:0 57:0 58:0 59:0 60:0 61:0 62:0 63:0 64:0 
0.0263568207329537 1:0.26806 2:0.284492 3:0.264884 4:0.258824 5:0.0705882 6:0.282353 7:0 8:1 9:0 10:0 11:0 12:1 13:0 14:0 15:0 16:0 17:0 18:0 19:0 20:0 21:0 22:0 23:0 24:1 25:0 26:0 27:0 28:0 29:0 30:0 31:0 32:0 33:0 34:0 35:0 36:0 37:0 38:0 39:0 40:0 41:0 42:0 43:0 44:0 45:0 46:0 47:0 48:0 49:0 50:0 51:0 52:0 53:0 54:0 55:0 56:0 57:0 58:0 59:0 60:0 61:0 62:0 63:0 64:0 
1 1:0.252502 2:0.270373 3:0.24919 4:0.258824 5:0.0745098 6:0.266667 7:0 8:1 9:0 10:0 11:0 12:1 13:0 14:0 15:0 16:0 17:0 18:0 19:0 20:0 21:0 22:0 23:0 24:1 25:0 26:0 27:0 28:0 29:0 30:0 31:0 32:0 33:0 34:0 35:0 36:0 37:0 38:0 39:0 40:0 41:0 42:0 43:0 44:0 45:0 46:0 47:0 48:0 49:0 50:0 51:0 52:0 53:0 54:0 55:0 56:0 57:0 58:0 59:0 60:0 61:0 62:0 63:0 64:0 
0.5560314979927239 1:0.274609 2:0.266864 3:0.25533 4:0.4 5:0.0705882 6:0.27451 7:0 8:0 9:0.647059 10:0.352941 11:0 12:1 13:0 14:0 15:0 16:0.0420168 17:0 18:0 19:0 20:0 21:0 22:0 23:0 24:0.903361 25:0 26:0 27:0 28:0 29:0 30:0 31:0 32:0 33:0 34:0 35:0 36:0 37:0 38:0.0546218 39:0 40:0 41:0 42:0 43:0 44:0 45:0 46:0 47:0 48:0 49:0 50:0 51:0 52:0 53:0 54:0 55:0 56:0 57:0 58:0 59:0 60:0 61:0 62:0 63:0 64:0 
0.02796845869733226 1:0.265838 2:0.256829 3:0.24525 4:0.4 5:0.0745098 6:0.262745 7:0 8:0 9:0.650862 10:0.349138 11:0 12:1 13:0 14:0 15:0 16:0.0215517 17:0 18:0 19:0 20:0 21:0 22:0 23:0 24:0.853448 25:0 26:0 27:0 28:0 29:0 30:0 31:0 32:0 33:0 34:0 35:0 36:0 37:0 38:0.112069 39:0 40:0 41:0 42:0 43:0 44:0 45:0 46:0 47:0 48:0 49:0.012931 50:0 51:0 52:0 53:0 54:0 55:0 56:0 57:0 58:0 59:0 60:0 61:0 62:0 63:0 64:0 
1 1:0.26837 2:0.257184 3:0.238139 4:0.396078 5:0.117647 6:0.266667 7:0 8:0 9:1 10:0 11:0 12:1 13:0 14:0 15:0 16:0 17:0 18:0 19:0 20:0 21:0 22:0 23:0 24:0.971311 25:0 26:0 27:0 28:0 29:0 30:0 31:0 32:0 33:0 34:0 35:0 36:0 37:0 38:0.0286885 39:0 40:0 41:0 42:0 43:0 44:0 45:0 46:0 47:0 48:0 49:0 50:0 51:0 52:0 53:0 54:0 55:0 56:0 57:0 58:0 59:0 60:0 61:0 62:0 63:0 64:0 
0.009188657863609968 1:0.278926 2:0.332344 3:0.343836 4:0.0941176 5:0.184314 6:0.341176 7:0.682609 8:0.186957 9:0.113043 10:0.0130435 11:0.00434783 12:0.826087 13:0.173913 14:0 15:0 16:0.0826087 17:0 18:0 19:0.0391304 20:0 21:0 22:0 23:0 24:0.026087 25:0 26:0.0173913 27:0.186957 28:0 29:0 30:0 31:0 32:0.1 33:0 34:0 35:0 36:0 37:0 38:0.108696 39:0 40:0 41:0 42:0 43:0.121739 44:0 45:0 46:0 47:0 48:0 49:0.00869565 50:0 51:0 52:0.278261 53:0 54:0 55:0 56:0 57:0 58:0 59:0 60:0 61:0 62:0 63:0.0304348 64:0 
0.01271810434390984 1:0.206281 2:0.203477 3:0.187914 4:0.376471 5:0.0980392 6:0.203922 7:0 8:0.0078125 9:0.964844 10:0.0273438 11:0 12:1 13:0 14:0 15:0 16:0.316406 17:0 18:0 19:0 20:0 21:0 22:0 23:0 24:0.3125 25:0 26:0 27:0 28:0 29:0 30:0 31:0 32:0 33:0 34:0 35:0 36:0 37:0 38:0.355469 39:0 40:0 41:0 42:0 43:0.0078125 44:0 45:0 46:0 47:0 48:0 49:0.0078125 50:0 51:0 52:0 53:0 54:0 55:0 56:0 57:0 58:0 59:0 60:0 61:0 62:0 63:0 64:0 
0.2261550001705635 1:0.28419 2:0.272954 3:0.257765 4:0.403922 5:0.0980392 6:0.282353 7:0 8:0 9:0.957806 10:0.0421941 11:0 12:1 13:0 14:0 15:0 16:0 17:0 18:0 19:0 20:0 21:0 22:0 23:0 24:0.995781 25:0 26:0 27:0 28:0 29:0 30:0 31:0 32:0 33:0 34:0 35:0 36:0 37:0 38:0.00421941 39:0 40:0 41:0 42:0 43:0 44:0 45:0 46:0 47:0 48:0 49:0 50:0 51:0 52:0 53:0 54:0 55:0 56:0 57:0 58:0 59:0 60:0 61:0 62:0 63:0 64:0 
1 1:0.221964 2:0.22252 3:0.206816 4:0.352941 5:0.0705882 6:0.219608 7:0 8:0.0987124 9:0.832618 10:0.0686695 11:0 12:1 13:0 14:0 15:0 16:0.128755 17:0 18:0 19:0 20:0 21:0 22:0 23:0 24:0.725322 25:0 26:0 27:0 28:0 29:0 30:0 31:0 32:0 33:0 34:0 35:0 36:0 37:0 38:0.145923 39:0 40:0 41:0 42:0 43:0 44:0 45:0 46:0 47:0 48:0 49:0 50:0 51:0 52:0 53:0 54:0 55:0 56:0 57:0 58:0 59:0 60:0 61:0 62:0 63:0 64:0 
1 1:0.239531 2:0.232004 3:0.214108 4:0.388235 5:0.113725 6:0.239216 7:0 8:0 9:0.978814 10:0.0211864 11:0 12:1 13:0 14:0 15:0 16:0 17:0 18:0 19:0 20:0 21:0 22:0 23:0 24:0.987288 25:0 26:0 27:0 28:0 29:0 30:0 31:0 32:0 33:0 34:0 35:0 36:0 37:0 38:0.0127119 39:0 40:0 41:0 42:0 43:0 44:0 45:0 46:0 47:0 48:0 49:0 50:0 51:0 52:0 53:0 54:0 55:0 56:0 57:0 58:0 59:0 60:0 61:0 62:0 63:0 64:0 
1 1:0.23748 2:0.226984 3:0.210797 4:0.403922 5:0.117647 6:0.235294 7:0 8:0 9:1 10:0 11:0 12:1 13:0 14:0 15:0 16:0.148936 17:0 18:0 19:0 20:0 21:0 22:0 23:0 24:0.646809 25:0 26:0 27:0 28:0 29:0 30:0 31:0 32:0 33:0 34:0 35:0 36:0 37:0 38:0.204255 39:0 40:0 41:0 42:0 43:0 44:0 45:0 46:0 47:0 48:0 49:0 50:0 51:0 52:0 53:0 54:0 55:0 56:0 57:0 58:0 59:0 60:0 61:0 62:0 63:0 64:0 
1 1:0.226641 2:0.230157 3:0.21076 4:0.329412 5:0.0862745 6:0.227451 7:0 8:0 9:1 10:0 11:0 12:1 13:0 14:0 15:0 16:0.053719 17:0 18:0 19:0 20:0 21:0 22:0 23:0 24:0.938017 25:0 26:0 27:0 28:0 29:0 30:0 31:0 32:0 33:0 34:0 35:0 36:0 37:0 38:0.00826446 39:0 40:0 41:0 42:0 43:0 44:0 45:0 46:0 47:0 48:0 49:0 50:0 51:0 52:0 53:0 54:0 55:0 56:0 57:0 58:0 59:0 60:0 61:0 62:0 63:0 64:0 
1 1:0.229961 2:0.23498 3:0.216715 4:0.32549 5:0.0666667 6:0.231373 7:0 8:0 9:1 10:0 11:0 12:1 13:0 14:0 15:0 16:0 17:0 18:0 19:0 20:0 21:0 22:0 23:0 24:1 25:0 26:0 27:0 28:0 29:0 30:0 31:0 32:0 33:0 34:0 35:0 36:0 37:0 38:0 39:0 40:0 41:0 42:0 43:0 44:0 45:0 46:0 47:0 48:0 49:0 50:0 51:0 52:0 53:0 54:0 55:0 56:0 57:0 58:0 59:0 60:0 61:0 62:0 63:0 64:0 
0.002566889067376714 1:0.23659 2:0.24897 3:0.236491 4:0.235294 5:0.0470588 6:0.247059 7:0 8:0.911017 9:0.0889831 10:0 11:0 12:1 13:0 14:0 15:0 16:0.385593 17:0 18:0 19:0 20:0 21:0 22:0 23:0 24:0.398305 25:0 26:0 27:0 28:0 29:0 30:0 31:0 32:0 33:0 34:0 35:0 36:0 37:0 38:0.148305 39:0 40:0 41:0 42:0 43:0.0254237 44:0 45:0 46:0 47:0 48:0 49:0.0169492 50:0 51:0 52:0.0254237 53:0 54:0 55:0 56:0 57:0 58:0 59:0 60:0 61:0 62:0 63:0 64:0 
0.3574259421504103 1:0.301483 2:0.300313 3:0.279206 4:0.352941 5:0.0666667 6:0.298039 7:0 8:0.109244 9:0.890756 10:0 11:0 12:1 13:0 14:0 15:0 16:0 17:0 18:0 19:0 20:0 21:0 22:0 23:0 24:1 25:0 26:0 27:0 28:0 29:0 30:0 31:0 32:0 33:0 34:0 35:0 36:0 37:0 38:0 39:0 40:0 41:0 42:0 43:0 44:0 45:0 46:0 47:0 48:0 49:0 50:0 51:0 52:0 53:0 54:0 55:0 56:0 57:0 58:0 59:0 60:0 61:0 62:0 63:0 64:0 
